<?xml version="1.0" encoding="UTF-8" standalone="yes"?>
<PMML xmlns="http://www.dmg.org/PMML-4_4" xmlns:data="http://jpmml.org/jpmml-model/InlineTable" version="4.4">
	<Header>
		<Application name="SkLearn2PMML package" version="0.92.0"/>
		<Timestamp>2023-04-02T11:09:09Z</Timestamp>
	</Header>
	<DataDictionary>
		<DataField name="p" optype="continuous" dataType="double"/>
		<DataField name="e0" optype="continuous" dataType="float">
			<Value value="NaN" property="missing"/>
		</DataField>
		<DataField name="e1" optype="continuous" dataType="float">
			<Value value="NaN" property="missing"/>
		</DataField>
		<DataField name="e2" optype="continuous" dataType="float">
			<Value value="NaN" property="missing"/>
		</DataField>
		<DataField name="e3" optype="continuous" dataType="float">
			<Value value="NaN" property="missing"/>
		</DataField>
		<DataField name="e4" optype="continuous" dataType="float">
			<Value value="NaN" property="missing"/>
		</DataField>
		<DataField name="e5" optype="continuous" dataType="float">
			<Value value="NaN" property="missing"/>
		</DataField>
		<DataField name="e6" optype="continuous" dataType="float">
			<Value value="NaN" property="missing"/>
		</DataField>
		<DataField name="e7" optype="continuous" dataType="float">
			<Value value="NaN" property="missing"/>
		</DataField>
		<DataField name="y0" optype="continuous" dataType="float">
			<Value value="NaN" property="missing"/>
		</DataField>
		<DataField name="y10" optype="continuous" dataType="float">
			<Value value="NaN" property="missing"/>
		</DataField>
		<DataField name="y11" optype="continuous" dataType="float">
			<Value value="NaN" property="missing"/>
		</DataField>
		<DataField name="y2" optype="continuous" dataType="float">
			<Value value="NaN" property="missing"/>
		</DataField>
		<DataField name="y3" optype="continuous" dataType="float">
			<Value value="NaN" property="missing"/>
		</DataField>
		<DataField name="y4" optype="continuous" dataType="float">
			<Value value="NaN" property="missing"/>
		</DataField>
		<DataField name="y5" optype="continuous" dataType="float">
			<Value value="NaN" property="missing"/>
		</DataField>
		<DataField name="y6" optype="continuous" dataType="float">
			<Value value="NaN" property="missing"/>
		</DataField>
		<DataField name="y7" optype="continuous" dataType="float">
			<Value value="NaN" property="missing"/>
		</DataField>
		<DataField name="y8" optype="continuous" dataType="float">
			<Value value="NaN" property="missing"/>
		</DataField>
		<DataField name="y9" optype="continuous" dataType="float">
			<Value value="NaN" property="missing"/>
		</DataField>
	</DataDictionary>
	<MiningModel functionName="regression" algorithmName="XGBoost (GBTree)" x-mathContext="float">
		<MiningSchema>
			<MiningField name="p" usageType="target"/>
			<MiningField name="e0"/>
			<MiningField name="e1"/>
			<MiningField name="e2"/>
			<MiningField name="e3"/>
			<MiningField name="e4"/>
			<MiningField name="e5"/>
			<MiningField name="e6"/>
			<MiningField name="e7"/>
			<MiningField name="y0"/>
			<MiningField name="y10"/>
			<MiningField name="y11"/>
			<MiningField name="y2"/>
			<MiningField name="y3"/>
			<MiningField name="y4"/>
			<MiningField name="y5"/>
			<MiningField name="y6"/>
			<MiningField name="y7"/>
			<MiningField name="y8"/>
			<MiningField name="y9"/>
		</MiningSchema>
		<Targets>
			<Target field="p" rescaleConstant="0.5"/>
		</Targets>
		<Segmentation multipleModelMethod="sum" missingPredictionTreatment="returnMissing">
			<Segment id="1">
				<True/>
				<TreeModel functionName="regression" missingValueStrategy="defaultChild" splitCharacteristic="binarySplit" x-mathContext="float">
					<MiningSchema>
						<MiningField name="e0"/>
						<MiningField name="e2"/>
						<MiningField name="e5"/>
						<MiningField name="e7"/>
						<MiningField name="y10"/>
						<MiningField name="y4"/>
						<MiningField name="y5"/>
						<MiningField name="y6"/>
					</MiningSchema>
					<Node id="0" defaultChild="1">
						<True/>
						<Node id="1" defaultChild="3">
							<SimplePredicate field="e7" operator="lessThan" value="31716.5"/>
							<Node id="3" defaultChild="7">
								<SimplePredicate field="y4" operator="lessThan" value="56807.0"/>
								<Node id="7" score="10.492821">
									<SimplePredicate field="y10" operator="lessThan" value="64796.0"/>
								</Node>
								<Node id="8" defaultChild="13">
									<SimplePredicate field="y10" operator="greaterOrEqual" value="64796.0"/>
									<Node id="13" score="5.656909">
										<SimplePredicate field="y10" operator="lessThan" value="64838.0"/>
									</Node>
									<Node id="14" score="2.298">
										<SimplePredicate field="y10" operator="greaterOrEqual" value="64838.0"/>
									</Node>
								</Node>
							</Node>
							<Node id="4" score="15.855935">
								<SimplePredicate field="y4" operator="greaterOrEqual" value="56807.0"/>
							</Node>
						</Node>
						<Node id="2" defaultChild="5">
							<SimplePredicate field="e7" operator="greaterOrEqual" value="31716.5"/>
							<Node id="5" defaultChild="9">
								<SimplePredicate field="e5" operator="lessThan" value="64895.0"/>
								<Node id="9" score="28.993986">
									<SimplePredicate field="e2" operator="lessThan" value="60180.0"/>
								</Node>
								<Node id="10" defaultChild="15">
									<SimplePredicate field="e2" operator="greaterOrEqual" value="60180.0"/>
									<Node id="15" defaultChild="21">
										<SimplePredicate field="y5" operator="lessThan" value="56807.0"/>
										<Node id="21" score="22.356857">
											<SimplePredicate field="y10" operator="lessThan" value="64796.0"/>
										</Node>
										<Node id="22" defaultChild="27">
											<SimplePredicate field="y10" operator="greaterOrEqual" value="64796.0"/>
											<Node id="27" score="11.656125">
												<SimplePredicate field="y6" operator="lessThan" value="61276.0"/>
											</Node>
											<Node id="28" score="5.0376">
												<SimplePredicate field="y6" operator="greaterOrEqual" value="61276.0"/>
											</Node>
										</Node>
									</Node>
									<Node id="16" score="27.759491">
										<SimplePredicate field="y5" operator="greaterOrEqual" value="56807.0"/>
									</Node>
								</Node>
							</Node>
							<Node id="6" defaultChild="11">
								<SimplePredicate field="e5" operator="greaterOrEqual" value="64895.0"/>
								<Node id="11" defaultChild="17">
									<SimplePredicate field="e5" operator="lessThan" value="65003.0"/>
									<Node id="17" score="16.393517">
										<SimplePredicate field="y5" operator="lessThan" value="56807.0"/>
									</Node>
									<Node id="18" score="22.003323">
										<SimplePredicate field="y5" operator="greaterOrEqual" value="56807.0"/>
									</Node>
								</Node>
								<Node id="12" defaultChild="19">
									<SimplePredicate field="e5" operator="greaterOrEqual" value="65003.0"/>
									<Node id="19" defaultChild="23">
										<SimplePredicate field="y6" operator="lessThan" value="62602.0"/>
										<Node id="23" score="25.459343">
											<SimplePredicate field="e7" operator="lessThan" value="65078.0"/>
										</Node>
										<Node id="24" score="28.489656">
											<SimplePredicate field="e7" operator="greaterOrEqual" value="65078.0"/>
										</Node>
									</Node>
									<Node id="20" defaultChild="25">
										<SimplePredicate field="y6" operator="greaterOrEqual" value="62602.0"/>
										<Node id="25" defaultChild="29">
											<SimplePredicate field="e7" operator="lessThan" value="65078.0"/>
											<Node id="29" score="4.1730003">
												<SimplePredicate field="e0" operator="lessThan" value="25507.5"/>
											</Node>
											<Node id="30" score="14.361601">
												<SimplePredicate field="e0" operator="greaterOrEqual" value="25507.5"/>
											</Node>
										</Node>
										<Node id="26" score="23.123117">
											<SimplePredicate field="e7" operator="greaterOrEqual" value="65078.0"/>
										</Node>
									</Node>
								</Node>
							</Node>
						</Node>
					</Node>
				</TreeModel>
			</Segment>
			<Segment id="2">
				<True/>
				<TreeModel functionName="regression" missingValueStrategy="defaultChild" splitCharacteristic="binarySplit" x-mathContext="float">
					<MiningSchema>
						<MiningField name="e0"/>
						<MiningField name="e1"/>
						<MiningField name="e2"/>
						<MiningField name="e5"/>
						<MiningField name="e7"/>
						<MiningField name="y0"/>
						<MiningField name="y10"/>
						<MiningField name="y4"/>
						<MiningField name="y5"/>
						<MiningField name="y6"/>
						<MiningField name="y7"/>
					</MiningSchema>
					<Node id="0" defaultChild="1">
						<True/>
						<Node id="1" defaultChild="3">
							<SimplePredicate field="e7" operator="lessThan" value="31716.5"/>
							<Node id="3" defaultChild="7">
								<SimplePredicate field="y4" operator="lessThan" value="56807.0"/>
								<Node id="7" score="7.396578">
									<SimplePredicate field="y10" operator="lessThan" value="64796.0"/>
								</Node>
								<Node id="8" defaultChild="13">
									<SimplePredicate field="y10" operator="greaterOrEqual" value="64796.0"/>
									<Node id="13" score="2.944826">
										<SimplePredicate field="y6" operator="lessThan" value="56879.0"/>
									</Node>
									<Node id="14" defaultChild="23">
										<SimplePredicate field="y6" operator="greaterOrEqual" value="56879.0"/>
										<Node id="23" defaultChild="29">
											<SimplePredicate field="y10" operator="lessThan" value="64838.0"/>
											<Node id="29" score="2.7543664">
												<SimplePredicate field="y0" operator="lessThan" value="25296.0"/>
											</Node>
											<Node id="30" score="4.653414">
												<SimplePredicate field="y0" operator="greaterOrEqual" value="25296.0"/>
											</Node>
										</Node>
										<Node id="24" score="1.78095">
											<SimplePredicate field="y10" operator="greaterOrEqual" value="64838.0"/>
										</Node>
									</Node>
								</Node>
							</Node>
							<Node id="4" score="11.14403">
								<SimplePredicate field="y4" operator="greaterOrEqual" value="56807.0"/>
							</Node>
						</Node>
						<Node id="2" defaultChild="5">
							<SimplePredicate field="e7" operator="greaterOrEqual" value="31716.5"/>
							<Node id="5" defaultChild="9">
								<SimplePredicate field="e5" operator="lessThan" value="64895.0"/>
								<Node id="9" defaultChild="15">
									<SimplePredicate field="e2" operator="lessThan" value="60180.0"/>
									<Node id="15" score="18.665558">
										<SimplePredicate field="e7" operator="lessThan" value="64092.0"/>
									</Node>
									<Node id="16" score="20.503986">
										<SimplePredicate field="e7" operator="greaterOrEqual" value="64092.0"/>
									</Node>
								</Node>
								<Node id="10" defaultChild="17">
									<SimplePredicate field="e2" operator="greaterOrEqual" value="60180.0"/>
									<Node id="17" defaultChild="25">
										<SimplePredicate field="y5" operator="lessThan" value="56807.0"/>
										<Node id="25" score="16.128876">
											<SimplePredicate field="y10" operator="lessThan" value="64796.0"/>
										</Node>
										<Node id="26" defaultChild="31">
											<SimplePredicate field="y10" operator="greaterOrEqual" value="64796.0"/>
											<Node id="31" score="9.500421">
												<SimplePredicate field="y7" operator="lessThan" value="60696.0"/>
											</Node>
											<Node id="32" score="4.8683696">
												<SimplePredicate field="y7" operator="greaterOrEqual" value="60696.0"/>
											</Node>
										</Node>
									</Node>
									<Node id="18" score="19.625313">
										<SimplePredicate field="y5" operator="greaterOrEqual" value="56807.0"/>
									</Node>
								</Node>
							</Node>
							<Node id="6" defaultChild="11">
								<SimplePredicate field="e5" operator="greaterOrEqual" value="64895.0"/>
								<Node id="11" defaultChild="19">
									<SimplePredicate field="e5" operator="lessThan" value="65003.0"/>
									<Node id="19" score="11.89076">
										<SimplePredicate field="y4" operator="lessThan" value="56807.0"/>
									</Node>
									<Node id="20" score="15.826645">
										<SimplePredicate field="y4" operator="greaterOrEqual" value="56807.0"/>
									</Node>
								</Node>
								<Node id="12" defaultChild="21">
									<SimplePredicate field="e5" operator="greaterOrEqual" value="65003.0"/>
									<Node id="21" defaultChild="27">
										<SimplePredicate field="y5" operator="lessThan" value="56807.0"/>
										<Node id="27" defaultChild="33">
											<SimplePredicate field="e1" operator="lessThan" value="50192.5"/>
											<Node id="33" score="10.929968">
												<SimplePredicate field="e0" operator="lessThan" value="25281.0"/>
											</Node>
											<Node id="34" score="17.198305">
												<SimplePredicate field="e0" operator="greaterOrEqual" value="25281.0"/>
											</Node>
										</Node>
										<Node id="28" score="19.662252">
											<SimplePredicate field="e1" operator="greaterOrEqual" value="50192.5"/>
										</Node>
									</Node>
									<Node id="22" score="20.15673">
										<SimplePredicate field="y5" operator="greaterOrEqual" value="56807.0"/>
									</Node>
								</Node>
							</Node>
						</Node>
					</Node>
				</TreeModel>
			</Segment>
			<Segment id="3">
				<True/>
				<TreeModel functionName="regression" missingValueStrategy="defaultChild" splitCharacteristic="binarySplit" x-mathContext="float">
					<MiningSchema>
						<MiningField name="e0"/>
						<MiningField name="e1"/>
						<MiningField name="e2"/>
						<MiningField name="e4"/>
						<MiningField name="e5"/>
						<MiningField name="e7"/>
						<MiningField name="y0"/>
						<MiningField name="y10"/>
						<MiningField name="y11"/>
						<MiningField name="y3"/>
						<MiningField name="y4"/>
						<MiningField name="y5"/>
						<MiningField name="y6"/>
						<MiningField name="y7"/>
					</MiningSchema>
					<Node id="0" defaultChild="1">
						<True/>
						<Node id="1" defaultChild="3">
							<SimplePredicate field="e7" operator="lessThan" value="31716.5"/>
							<Node id="3" defaultChild="7">
								<SimplePredicate field="y4" operator="lessThan" value="56807.0"/>
								<Node id="7" defaultChild="13">
									<SimplePredicate field="y10" operator="lessThan" value="64796.0"/>
									<Node id="13" defaultChild="25">
										<SimplePredicate field="y0" operator="lessThan" value="25302.0"/>
										<Node id="25" score="6.8895926">
											<SimplePredicate field="y11" operator="lessThan" value="64817.0"/>
										</Node>
										<Node id="26" score="3.6884406">
											<SimplePredicate field="y11" operator="greaterOrEqual" value="64817.0"/>
										</Node>
									</Node>
									<Node id="14" defaultChild="27">
										<SimplePredicate field="y0" operator="greaterOrEqual" value="25302.0"/>
										<Node id="27" score="3.0093975">
											<SimplePredicate field="y3" operator="lessThan" value="39151.0"/>
										</Node>
										<Node id="28" score="4.888374">
											<SimplePredicate field="y3" operator="greaterOrEqual" value="39151.0"/>
										</Node>
									</Node>
								</Node>
								<Node id="8" defaultChild="15">
									<SimplePredicate field="y10" operator="greaterOrEqual" value="64796.0"/>
									<Node id="15" defaultChild="29">
										<SimplePredicate field="y0" operator="lessThan" value="25302.0"/>
										<Node id="29" score="2.0461006">
											<SimplePredicate field="y0" operator="lessThan" value="25296.0"/>
										</Node>
										<Node id="30" score="4.5020127">
											<SimplePredicate field="y0" operator="greaterOrEqual" value="25296.0"/>
										</Node>
									</Node>
									<Node id="16" defaultChild="31">
										<SimplePredicate field="y0" operator="greaterOrEqual" value="25302.0"/>
										<Node id="31" defaultChild="45">
											<SimplePredicate field="y7" operator="lessThan" value="60696.0"/>
											<Node id="45" score="2.1729245">
												<SimplePredicate field="y6" operator="lessThan" value="57281.0"/>
											</Node>
											<Node id="46" score="3.9286315">
												<SimplePredicate field="y6" operator="greaterOrEqual" value="57281.0"/>
											</Node>
										</Node>
										<Node id="32" score="1.7262989">
											<SimplePredicate field="y7" operator="greaterOrEqual" value="60696.0"/>
										</Node>
									</Node>
								</Node>
							</Node>
							<Node id="4" score="7.8323603">
								<SimplePredicate field="y4" operator="greaterOrEqual" value="56807.0"/>
							</Node>
						</Node>
						<Node id="2" defaultChild="5">
							<SimplePredicate field="e7" operator="greaterOrEqual" value="31716.5"/>
							<Node id="5" defaultChild="9">
								<SimplePredicate field="e5" operator="lessThan" value="64895.0"/>
								<Node id="9" defaultChild="17">
									<SimplePredicate field="e2" operator="lessThan" value="60180.0"/>
									<Node id="17" defaultChild="33">
										<SimplePredicate field="e4" operator="lessThan" value="62329.0"/>
										<Node id="33" score="12.975184">
											<SimplePredicate field="e0" operator="lessThan" value="25251.0"/>
										</Node>
										<Node id="34" score="14.22051">
											<SimplePredicate field="e0" operator="greaterOrEqual" value="25251.0"/>
										</Node>
									</Node>
									<Node id="18" score="14.894808">
										<SimplePredicate field="e4" operator="greaterOrEqual" value="62329.0"/>
									</Node>
								</Node>
								<Node id="10" defaultChild="19">
									<SimplePredicate field="e2" operator="greaterOrEqual" value="60180.0"/>
									<Node id="19" defaultChild="35">
										<SimplePredicate field="y5" operator="lessThan" value="56807.0"/>
										<Node id="35" score="11.635832">
											<SimplePredicate field="y10" operator="lessThan" value="64796.0"/>
										</Node>
										<Node id="36" defaultChild="47">
											<SimplePredicate field="y10" operator="greaterOrEqual" value="64796.0"/>
											<Node id="47" score="2.79946">
												<SimplePredicate field="y6" operator="lessThan" value="56879.0"/>
											</Node>
											<Node id="48" score="6.567589">
												<SimplePredicate field="y6" operator="greaterOrEqual" value="56879.0"/>
											</Node>
										</Node>
									</Node>
									<Node id="20" score="13.87464">
										<SimplePredicate field="y5" operator="greaterOrEqual" value="56807.0"/>
									</Node>
								</Node>
							</Node>
							<Node id="6" defaultChild="11">
								<SimplePredicate field="e5" operator="greaterOrEqual" value="64895.0"/>
								<Node id="11" defaultChild="21">
									<SimplePredicate field="e5" operator="lessThan" value="65003.0"/>
									<Node id="21" defaultChild="37">
										<SimplePredicate field="y5" operator="lessThan" value="56807.0"/>
										<Node id="37" score="6.8090496">
											<SimplePredicate field="y0" operator="lessThan" value="25302.0"/>
										</Node>
										<Node id="38" score="8.676239">
											<SimplePredicate field="y0" operator="greaterOrEqual" value="25302.0"/>
										</Node>
									</Node>
									<Node id="22" defaultChild="39">
										<SimplePredicate field="y5" operator="greaterOrEqual" value="56807.0"/>
										<Node id="39" score="12.314321">
											<SimplePredicate field="e2" operator="lessThan" value="37154.0"/>
										</Node>
										<Node id="40" score="10.114466">
											<SimplePredicate field="e2" operator="greaterOrEqual" value="37154.0"/>
										</Node>
									</Node>
								</Node>
								<Node id="12" defaultChild="23">
									<SimplePredicate field="e5" operator="greaterOrEqual" value="65003.0"/>
									<Node id="23" defaultChild="41">
										<SimplePredicate field="y6" operator="lessThan" value="62602.0"/>
										<Node id="41" defaultChild="49">
											<SimplePredicate field="e1" operator="lessThan" value="50192.5"/>
											<Node id="49" score="9.590531">
												<SimplePredicate field="y6" operator="lessThan" value="56879.0"/>
											</Node>
											<Node id="50" score="13.090323">
												<SimplePredicate field="y6" operator="greaterOrEqual" value="56879.0"/>
											</Node>
										</Node>
										<Node id="42" score="14.382478">
											<SimplePredicate field="e1" operator="greaterOrEqual" value="50192.5"/>
										</Node>
									</Node>
									<Node id="24" defaultChild="43">
										<SimplePredicate field="y6" operator="greaterOrEqual" value="62602.0"/>
										<Node id="43" defaultChild="51">
											<SimplePredicate field="e1" operator="lessThan" value="50192.5"/>
											<Node id="51" score="0.5482877">
												<SimplePredicate field="e0" operator="lessThan" value="25281.0"/>
											</Node>
											<Node id="52" score="6.6428227">
												<SimplePredicate field="e0" operator="greaterOrEqual" value="25281.0"/>
											</Node>
										</Node>
										<Node id="44" score="12.679283">
											<SimplePredicate field="e1" operator="greaterOrEqual" value="50192.5"/>
										</Node>
									</Node>
								</Node>
							</Node>
						</Node>
					</Node>
				</TreeModel>
			</Segment>
			<Segment id="4">
				<True/>
				<TreeModel functionName="regression" missingValueStrategy="defaultChild" splitCharacteristic="binarySplit" x-mathContext="float">
					<MiningSchema>
						<MiningField name="e0"/>
						<MiningField name="e2"/>
						<MiningField name="e3"/>
						<MiningField name="e5"/>
						<MiningField name="e6"/>
						<MiningField name="e7"/>
						<MiningField name="y0"/>
						<MiningField name="y10"/>
						<MiningField name="y11"/>
						<MiningField name="y2"/>
						<MiningField name="y3"/>
						<MiningField name="y4"/>
						<MiningField name="y5"/>
						<MiningField name="y6"/>
						<MiningField name="y7"/>
					</MiningSchema>
					<Node id="0" defaultChild="1">
						<True/>
						<Node id="1" defaultChild="3">
							<SimplePredicate field="e7" operator="lessThan" value="31716.5"/>
							<Node id="3" defaultChild="7">
								<SimplePredicate field="y4" operator="lessThan" value="56807.0"/>
								<Node id="7" defaultChild="13">
									<SimplePredicate field="y10" operator="lessThan" value="64796.0"/>
									<Node id="13" defaultChild="25">
										<SimplePredicate field="y0" operator="lessThan" value="25302.0"/>
										<Node id="25" score="4.9314976">
											<SimplePredicate field="y11" operator="lessThan" value="64817.0"/>
										</Node>
										<Node id="26" score="2.7399843">
											<SimplePredicate field="y11" operator="greaterOrEqual" value="64817.0"/>
										</Node>
									</Node>
									<Node id="14" defaultChild="27">
										<SimplePredicate field="y0" operator="greaterOrEqual" value="25302.0"/>
										<Node id="27" score="2.1760259">
											<SimplePredicate field="y3" operator="lessThan" value="39151.0"/>
										</Node>
										<Node id="28" defaultChild="47">
											<SimplePredicate field="y3" operator="greaterOrEqual" value="39151.0"/>
											<Node id="47" score="3.696229">
												<SimplePredicate field="y11" operator="lessThan" value="64838.0"/>
											</Node>
											<Node id="48" score="1.4240012">
												<SimplePredicate field="y11" operator="greaterOrEqual" value="64838.0"/>
											</Node>
										</Node>
									</Node>
								</Node>
								<Node id="8" defaultChild="15">
									<SimplePredicate field="y10" operator="greaterOrEqual" value="64796.0"/>
									<Node id="15" defaultChild="29">
										<SimplePredicate field="y0" operator="lessThan" value="25302.0"/>
										<Node id="29" score="1.5199604">
											<SimplePredicate field="y0" operator="lessThan" value="25296.0"/>
										</Node>
										<Node id="30" score="3.2864695">
											<SimplePredicate field="y0" operator="greaterOrEqual" value="25296.0"/>
										</Node>
									</Node>
									<Node id="16" defaultChild="31">
										<SimplePredicate field="y0" operator="greaterOrEqual" value="25302.0"/>
										<Node id="31" defaultChild="49">
											<SimplePredicate field="y7" operator="lessThan" value="60696.0"/>
											<Node id="49" score="1.5506779">
												<SimplePredicate field="y6" operator="lessThan" value="57281.0"/>
											</Node>
											<Node id="50" score="2.9184117">
												<SimplePredicate field="y6" operator="greaterOrEqual" value="57281.0"/>
											</Node>
										</Node>
										<Node id="32" score="1.2407774">
											<SimplePredicate field="y7" operator="greaterOrEqual" value="60696.0"/>
										</Node>
									</Node>
								</Node>
							</Node>
							<Node id="4" score="5.504819">
								<SimplePredicate field="y4" operator="greaterOrEqual" value="56807.0"/>
							</Node>
						</Node>
						<Node id="2" defaultChild="5">
							<SimplePredicate field="e7" operator="greaterOrEqual" value="31716.5"/>
							<Node id="5" defaultChild="9">
								<SimplePredicate field="e5" operator="lessThan" value="64895.0"/>
								<Node id="9" defaultChild="17">
									<SimplePredicate field="e2" operator="lessThan" value="60180.0"/>
									<Node id="17" defaultChild="33">
										<SimplePredicate field="e7" operator="lessThan" value="65105.0"/>
										<Node id="33" defaultChild="51">
											<SimplePredicate field="e7" operator="lessThan" value="64092.0"/>
											<Node id="51" score="8.086603">
												<SimplePredicate field="y5" operator="lessThan" value="56807.0"/>
											</Node>
											<Node id="52" score="10.008115">
												<SimplePredicate field="y5" operator="greaterOrEqual" value="56807.0"/>
											</Node>
										</Node>
										<Node id="34" score="10.141245">
											<SimplePredicate field="e7" operator="greaterOrEqual" value="64092.0"/>
										</Node>
									</Node>
									<Node id="18" score="8.706666">
										<SimplePredicate field="e7" operator="greaterOrEqual" value="65105.0"/>
									</Node>
								</Node>
								<Node id="10" defaultChild="19">
									<SimplePredicate field="e2" operator="greaterOrEqual" value="60180.0"/>
									<Node id="19" defaultChild="35">
										<SimplePredicate field="y7" operator="lessThan" value="60744.0"/>
										<Node id="35" defaultChild="53">
											<SimplePredicate field="y6" operator="lessThan" value="56879.0"/>
											<Node id="53" score="0.43859914">
												<SimplePredicate field="y2" operator="lessThan" value="18011.0"/>
											</Node>
											<Node id="54" score="2.9969316">
												<SimplePredicate field="y2" operator="greaterOrEqual" value="18011.0"/>
											</Node>
										</Node>
										<Node id="36" score="9.807563">
											<SimplePredicate field="y6" operator="greaterOrEqual" value="56879.0"/>
										</Node>
									</Node>
									<Node id="20" defaultChild="37">
										<SimplePredicate field="y7" operator="greaterOrEqual" value="60744.0"/>
										<Node id="37" defaultChild="55">
											<SimplePredicate field="y10" operator="lessThan" value="64838.0"/>
											<Node id="55" score="0.20228843">
												<SimplePredicate field="y0" operator="lessThan" value="25296.0"/>
											</Node>
											<Node id="56" score="1.7324809">
												<SimplePredicate field="y0" operator="greaterOrEqual" value="25296.0"/>
											</Node>
										</Node>
										<Node id="38" score="6.6449275">
											<SimplePredicate field="y10" operator="greaterOrEqual" value="64838.0"/>
										</Node>
									</Node>
								</Node>
							</Node>
							<Node id="6" defaultChild="11">
								<SimplePredicate field="e5" operator="greaterOrEqual" value="64895.0"/>
								<Node id="11" defaultChild="21">
									<SimplePredicate field="e5" operator="lessThan" value="65003.0"/>
									<Node id="21" defaultChild="39">
										<SimplePredicate field="y4" operator="lessThan" value="56807.0"/>
										<Node id="39" defaultChild="57">
											<SimplePredicate field="y6" operator="lessThan" value="61276.0"/>
											<Node id="57" score="7.1604056">
												<SimplePredicate field="e2" operator="lessThan" value="37154.0"/>
											</Node>
											<Node id="58" score="5.4273176">
												<SimplePredicate field="e2" operator="greaterOrEqual" value="37154.0"/>
											</Node>
										</Node>
										<Node id="40" score="3.558427">
											<SimplePredicate field="y6" operator="greaterOrEqual" value="61276.0"/>
										</Node>
									</Node>
									<Node id="22" defaultChild="41">
										<SimplePredicate field="y4" operator="greaterOrEqual" value="56807.0"/>
										<Node id="41" score="10.216093">
											<SimplePredicate field="y2" operator="lessThan" value="26227.0"/>
										</Node>
										<Node id="42" defaultChild="59">
											<SimplePredicate field="y2" operator="greaterOrEqual" value="26227.0"/>
											<Node id="59" score="8.5377865">
												<SimplePredicate field="e2" operator="lessThan" value="37154.0"/>
											</Node>
											<Node id="60" score="6.847024">
												<SimplePredicate field="e2" operator="greaterOrEqual" value="37154.0"/>
											</Node>
										</Node>
									</Node>
								</Node>
								<Node id="12" defaultChild="23">
									<SimplePredicate field="e5" operator="greaterOrEqual" value="65003.0"/>
									<Node id="23" defaultChild="43">
										<SimplePredicate field="y7" operator="lessThan" value="60744.0"/>
										<Node id="43" defaultChild="61">
											<SimplePredicate field="y6" operator="lessThan" value="56879.0"/>
											<Node id="61" score="9.26049">
												<SimplePredicate field="e3" operator="lessThan" value="50092.0"/>
											</Node>
											<Node id="62" score="6.170315">
												<SimplePredicate field="e3" operator="greaterOrEqual" value="50092.0"/>
											</Node>
										</Node>
										<Node id="44" score="9.934158">
											<SimplePredicate field="y6" operator="greaterOrEqual" value="56879.0"/>
										</Node>
									</Node>
									<Node id="24" defaultChild="45">
										<SimplePredicate field="y7" operator="greaterOrEqual" value="60744.0"/>
										<Node id="45" defaultChild="63">
											<SimplePredicate field="e6" operator="lessThan" value="65078.0"/>
											<Node id="63" score="1.5536">
												<SimplePredicate field="e0" operator="lessThan" value="25281.0"/>
											</Node>
											<Node id="64" score="7.113233">
												<SimplePredicate field="e0" operator="greaterOrEqual" value="25281.0"/>
											</Node>
										</Node>
										<Node id="46" score="10.497698">
											<SimplePredicate field="e6" operator="greaterOrEqual" value="65078.0"/>
										</Node>
									</Node>
								</Node>
							</Node>
						</Node>
					</Node>
				</TreeModel>
			</Segment>
			<Segment id="5">
				<True/>
				<TreeModel functionName="regression" missingValueStrategy="defaultChild" splitCharacteristic="binarySplit" x-mathContext="float">
					<MiningSchema>
						<MiningField name="e1"/>
						<MiningField name="e2"/>
						<MiningField name="e3"/>
						<MiningField name="e4"/>
						<MiningField name="e6"/>
						<MiningField name="e7"/>
						<MiningField name="y0"/>
						<MiningField name="y10"/>
						<MiningField name="y11"/>
						<MiningField name="y4"/>
						<MiningField name="y5"/>
						<MiningField name="y6"/>
						<MiningField name="y7"/>
					</MiningSchema>
					<Node id="0" defaultChild="1">
						<True/>
						<Node id="1" defaultChild="3">
							<SimplePredicate field="e7" operator="lessThan" value="31716.5"/>
							<Node id="3" defaultChild="7">
								<SimplePredicate field="y4" operator="lessThan" value="56807.0"/>
								<Node id="7" defaultChild="13">
									<SimplePredicate field="y10" operator="lessThan" value="64796.0"/>
									<Node id="13" defaultChild="23">
										<SimplePredicate field="y0" operator="lessThan" value="25302.0"/>
										<Node id="23" score="3.5299137">
											<SimplePredicate field="y11" operator="lessThan" value="64817.0"/>
										</Node>
										<Node id="24" score="2.0354168">
											<SimplePredicate field="y11" operator="greaterOrEqual" value="64817.0"/>
										</Node>
									</Node>
									<Node id="14" defaultChild="25">
										<SimplePredicate field="y0" operator="greaterOrEqual" value="25302.0"/>
										<Node id="25" score="1.8531655">
											<SimplePredicate field="y11" operator="lessThan" value="64817.0"/>
										</Node>
										<Node id="26" defaultChild="35">
											<SimplePredicate field="y11" operator="greaterOrEqual" value="64817.0"/>
											<Node id="35" score="3.7995422">
												<SimplePredicate field="y11" operator="lessThan" value="64838.0"/>
											</Node>
											<Node id="36" score="1.1036009">
												<SimplePredicate field="y11" operator="greaterOrEqual" value="64838.0"/>
											</Node>
										</Node>
									</Node>
								</Node>
								<Node id="8" defaultChild="15">
									<SimplePredicate field="y10" operator="greaterOrEqual" value="64796.0"/>
									<Node id="15" defaultChild="27">
										<SimplePredicate field="y0" operator="lessThan" value="25302.0"/>
										<Node id="27" score="1.1291134">
											<SimplePredicate field="y0" operator="lessThan" value="25296.0"/>
										</Node>
										<Node id="28" score="2.399123">
											<SimplePredicate field="y0" operator="greaterOrEqual" value="25296.0"/>
										</Node>
									</Node>
									<Node id="16" defaultChild="29">
										<SimplePredicate field="y0" operator="greaterOrEqual" value="25302.0"/>
										<Node id="29" defaultChild="37">
											<SimplePredicate field="y7" operator="lessThan" value="60696.0"/>
											<Node id="37" score="1.1066201">
												<SimplePredicate field="y6" operator="lessThan" value="57281.0"/>
											</Node>
											<Node id="38" score="2.1679633">
												<SimplePredicate field="y6" operator="greaterOrEqual" value="57281.0"/>
											</Node>
										</Node>
										<Node id="30" score="0.8918088">
											<SimplePredicate field="y7" operator="greaterOrEqual" value="60696.0"/>
										</Node>
									</Node>
								</Node>
							</Node>
							<Node id="4" score="3.868953">
								<SimplePredicate field="y4" operator="greaterOrEqual" value="56807.0"/>
							</Node>
						</Node>
						<Node id="2" defaultChild="5">
							<SimplePredicate field="e7" operator="greaterOrEqual" value="31716.5"/>
							<Node id="5" defaultChild="9">
								<SimplePredicate field="e2" operator="lessThan" value="18288.0"/>
								<Node id="9" defaultChild="17">
									<SimplePredicate field="e6" operator="lessThan" value="64191.0"/>
									<Node id="17" score="6.256063">
										<SimplePredicate field="y4" operator="lessThan" value="56807.0"/>
									</Node>
									<Node id="18" score="7.054937">
										<SimplePredicate field="y4" operator="greaterOrEqual" value="56807.0"/>
									</Node>
								</Node>
								<Node id="10" score="7.331933">
									<SimplePredicate field="e6" operator="greaterOrEqual" value="64191.0"/>
								</Node>
							</Node>
							<Node id="6" defaultChild="11">
								<SimplePredicate field="e2" operator="greaterOrEqual" value="18288.0"/>
								<Node id="11" defaultChild="19">
									<SimplePredicate field="y5" operator="lessThan" value="56807.0"/>
									<Node id="19" defaultChild="31">
										<SimplePredicate field="e1" operator="lessThan" value="50323.0"/>
										<Node id="31" defaultChild="39">
											<SimplePredicate field="y7" operator="lessThan" value="60696.0"/>
											<Node id="39" score="6.1223526">
												<SimplePredicate field="e1" operator="lessThan" value="50231.5"/>
											</Node>
											<Node id="40" score="4.926794">
												<SimplePredicate field="e1" operator="greaterOrEqual" value="50231.5"/>
											</Node>
										</Node>
										<Node id="32" defaultChild="41">
											<SimplePredicate field="y7" operator="greaterOrEqual" value="60696.0"/>
											<Node id="41" score="4.729213">
												<SimplePredicate field="e3" operator="lessThan" value="60180.0"/>
											</Node>
											<Node id="42" score="1.7665254">
												<SimplePredicate field="e3" operator="greaterOrEqual" value="60180.0"/>
											</Node>
										</Node>
									</Node>
									<Node id="20" score="6.912511">
										<SimplePredicate field="e1" operator="greaterOrEqual" value="50323.0"/>
									</Node>
								</Node>
								<Node id="12" defaultChild="21">
									<SimplePredicate field="y5" operator="greaterOrEqual" value="56807.0"/>
									<Node id="21" defaultChild="33">
										<SimplePredicate field="e4" operator="lessThan" value="57590.0"/>
										<Node id="33" score="6.4263434">
											<SimplePredicate field="e2" operator="lessThan" value="52498.0"/>
										</Node>
										<Node id="34" score="4.861407">
											<SimplePredicate field="e2" operator="greaterOrEqual" value="52498.0"/>
										</Node>
									</Node>
									<Node id="22" score="6.9157696">
										<SimplePredicate field="e4" operator="greaterOrEqual" value="57590.0"/>
									</Node>
								</Node>
							</Node>
						</Node>
					</Node>
				</TreeModel>
			</Segment>
			<Segment id="6">
				<True/>
				<TreeModel functionName="regression" missingValueStrategy="defaultChild" splitCharacteristic="binarySplit" x-mathContext="float">
					<MiningSchema>
						<MiningField name="e0"/>
						<MiningField name="e2"/>
						<MiningField name="e4"/>
						<MiningField name="e5"/>
						<MiningField name="e6"/>
						<MiningField name="e7"/>
						<MiningField name="y0"/>
						<MiningField name="y10"/>
						<MiningField name="y11"/>
						<MiningField name="y2"/>
						<MiningField name="y3"/>
						<MiningField name="y4"/>
						<MiningField name="y6"/>
						<MiningField name="y7"/>
					</MiningSchema>
					<Node id="0" defaultChild="1">
						<True/>
						<Node id="1" defaultChild="3">
							<SimplePredicate field="e7" operator="lessThan" value="31716.5"/>
							<Node id="3" defaultChild="7">
								<SimplePredicate field="y4" operator="lessThan" value="56807.0"/>
								<Node id="7" defaultChild="15">
									<SimplePredicate field="y10" operator="lessThan" value="64796.0"/>
									<Node id="15" score="2.3436399">
										<SimplePredicate field="y0" operator="lessThan" value="25302.0"/>
									</Node>
									<Node id="16" defaultChild="27">
										<SimplePredicate field="y0" operator="greaterOrEqual" value="25302.0"/>
										<Node id="27" defaultChild="45">
											<SimplePredicate field="y11" operator="lessThan" value="64817.0"/>
											<Node id="45" score="1.4861624">
												<SimplePredicate field="y7" operator="lessThan" value="57673.0"/>
											</Node>
											<Node id="46" score="0.8640912">
												<SimplePredicate field="y7" operator="greaterOrEqual" value="57673.0"/>
											</Node>
										</Node>
										<Node id="28" defaultChild="47">
											<SimplePredicate field="y11" operator="greaterOrEqual" value="64817.0"/>
											<Node id="47" score="2.8225174">
												<SimplePredicate field="y11" operator="lessThan" value="64838.0"/>
											</Node>
											<Node id="48" score="0.85529053">
												<SimplePredicate field="y11" operator="greaterOrEqual" value="64838.0"/>
											</Node>
										</Node>
									</Node>
								</Node>
								<Node id="8" defaultChild="17">
									<SimplePredicate field="y10" operator="greaterOrEqual" value="64796.0"/>
									<Node id="17" defaultChild="29">
										<SimplePredicate field="y0" operator="lessThan" value="25302.0"/>
										<Node id="29" score="1.9205331">
											<SimplePredicate field="y10" operator="lessThan" value="64817.0"/>
										</Node>
										<Node id="30" score="0.99412555">
											<SimplePredicate field="y10" operator="greaterOrEqual" value="64817.0"/>
										</Node>
									</Node>
									<Node id="18" defaultChild="31">
										<SimplePredicate field="y0" operator="greaterOrEqual" value="25302.0"/>
										<Node id="31" defaultChild="49">
											<SimplePredicate field="y7" operator="lessThan" value="60696.0"/>
											<Node id="49" score="0.78972435">
												<SimplePredicate field="y6" operator="lessThan" value="57281.0"/>
											</Node>
											<Node id="50" score="1.6104869">
												<SimplePredicate field="y6" operator="greaterOrEqual" value="57281.0"/>
											</Node>
										</Node>
										<Node id="32" defaultChild="51">
											<SimplePredicate field="y7" operator="greaterOrEqual" value="60696.0"/>
											<Node id="51" score="0.3189284">
												<SimplePredicate field="y7" operator="lessThan" value="61797.0"/>
											</Node>
											<Node id="52" score="0.69077605">
												<SimplePredicate field="y7" operator="greaterOrEqual" value="61797.0"/>
											</Node>
										</Node>
									</Node>
								</Node>
							</Node>
							<Node id="4" defaultChild="9">
								<SimplePredicate field="y4" operator="greaterOrEqual" value="56807.0"/>
								<Node id="9" defaultChild="19">
									<SimplePredicate field="y3" operator="lessThan" value="56807.0"/>
									<Node id="19" score="2.7872477">
										<SimplePredicate field="y2" operator="lessThan" value="48830.0"/>
									</Node>
									<Node id="20" defaultChild="33">
										<SimplePredicate field="y2" operator="greaterOrEqual" value="48830.0"/>
										<Node id="33" score="1.9201285">
											<SimplePredicate field="y6" operator="lessThan" value="57694.0"/>
										</Node>
										<Node id="34" defaultChild="53">
											<SimplePredicate field="y6" operator="greaterOrEqual" value="57694.0"/>
											<Node id="53" score="-0.16862154">
												<SimplePredicate field="y10" operator="lessThan" value="64808.0"/>
											</Node>
											<Node id="54" score="-1.0611217">
												<SimplePredicate field="y10" operator="greaterOrEqual" value="64808.0"/>
											</Node>
										</Node>
									</Node>
								</Node>
								<Node id="10" score="2.9892995">
									<SimplePredicate field="y3" operator="greaterOrEqual" value="56807.0"/>
								</Node>
							</Node>
						</Node>
						<Node id="2" defaultChild="5">
							<SimplePredicate field="e7" operator="greaterOrEqual" value="31716.5"/>
							<Node id="5" defaultChild="11">
								<SimplePredicate field="e5" operator="lessThan" value="64895.0"/>
								<Node id="11" defaultChild="21">
									<SimplePredicate field="e4" operator="lessThan" value="62602.0"/>
									<Node id="21" defaultChild="35">
										<SimplePredicate field="e5" operator="lessThan" value="60180.0"/>
										<Node id="35" score="4.5718503">
											<SimplePredicate field="e0" operator="lessThan" value="25251.0"/>
										</Node>
										<Node id="36" score="5.0886207">
											<SimplePredicate field="e0" operator="greaterOrEqual" value="25251.0"/>
										</Node>
									</Node>
									<Node id="22" defaultChild="37">
										<SimplePredicate field="e5" operator="greaterOrEqual" value="60180.0"/>
										<Node id="37" defaultChild="55">
											<SimplePredicate field="y0" operator="lessThan" value="25302.0"/>
											<Node id="55" score="3.7596228">
												<SimplePredicate field="y6" operator="lessThan" value="57388.0"/>
											</Node>
											<Node id="56" score="2.8627408">
												<SimplePredicate field="y6" operator="greaterOrEqual" value="57388.0"/>
											</Node>
										</Node>
										<Node id="38" defaultChild="57">
											<SimplePredicate field="y0" operator="greaterOrEqual" value="25302.0"/>
											<Node id="57" score="3.5320778">
												<SimplePredicate field="y6" operator="lessThan" value="56879.0"/>
											</Node>
											<Node id="58" score="4.7678113">
												<SimplePredicate field="y6" operator="greaterOrEqual" value="56879.0"/>
											</Node>
										</Node>
									</Node>
								</Node>
								<Node id="12" score="5.235573">
									<SimplePredicate field="e4" operator="greaterOrEqual" value="62602.0"/>
								</Node>
							</Node>
							<Node id="6" defaultChild="13">
								<SimplePredicate field="e5" operator="greaterOrEqual" value="64895.0"/>
								<Node id="13" defaultChild="23">
									<SimplePredicate field="e7" operator="lessThan" value="65078.0"/>
									<Node id="23" defaultChild="39">
										<SimplePredicate field="e0" operator="lessThan" value="25704.0"/>
										<Node id="39" defaultChild="59">
											<SimplePredicate field="y4" operator="lessThan" value="56807.0"/>
											<Node id="59" score="3.8117936">
												<SimplePredicate field="y7" operator="lessThan" value="57673.0"/>
											</Node>
											<Node id="60" score="1.9494978">
												<SimplePredicate field="y7" operator="greaterOrEqual" value="57673.0"/>
											</Node>
										</Node>
										<Node id="40" defaultChild="61">
											<SimplePredicate field="y4" operator="greaterOrEqual" value="56807.0"/>
											<Node id="61" score="4.51488">
												<SimplePredicate field="e2" operator="lessThan" value="47502.0"/>
											</Node>
											<Node id="62" score="3.4085243">
												<SimplePredicate field="e2" operator="greaterOrEqual" value="47502.0"/>
											</Node>
										</Node>
									</Node>
									<Node id="24" defaultChild="41">
										<SimplePredicate field="e0" operator="greaterOrEqual" value="25704.0"/>
										<Node id="41" score="1.2639652">
											<SimplePredicate field="y0" operator="lessThan" value="25296.0"/>
										</Node>
										<Node id="42" score="5.121513">
											<SimplePredicate field="y0" operator="greaterOrEqual" value="25296.0"/>
										</Node>
									</Node>
								</Node>
								<Node id="14" defaultChild="25">
									<SimplePredicate field="e7" operator="greaterOrEqual" value="65078.0"/>
									<Node id="25" defaultChild="43">
										<SimplePredicate field="e6" operator="lessThan" value="65078.0"/>
										<Node id="43" defaultChild="63">
											<SimplePredicate field="y6" operator="lessThan" value="62602.0"/>
											<Node id="63" score="4.269936">
												<SimplePredicate field="y4" operator="lessThan" value="56807.0"/>
											</Node>
											<Node id="64" score="5.081677">
												<SimplePredicate field="y4" operator="greaterOrEqual" value="56807.0"/>
											</Node>
										</Node>
										<Node id="44" defaultChild="65">
											<SimplePredicate field="y6" operator="greaterOrEqual" value="62602.0"/>
											<Node id="65" score="0.73339444">
												<SimplePredicate field="e0" operator="lessThan" value="25525.5"/>
											</Node>
											<Node id="66" score="2.4901407">
												<SimplePredicate field="e0" operator="greaterOrEqual" value="25525.5"/>
											</Node>
										</Node>
									</Node>
									<Node id="26" score="5.4575367">
										<SimplePredicate field="e6" operator="greaterOrEqual" value="65078.0"/>
									</Node>
								</Node>
							</Node>
						</Node>
					</Node>
				</TreeModel>
			</Segment>
			<Segment id="7">
				<True/>
				<TreeModel functionName="regression" missingValueStrategy="defaultChild" splitCharacteristic="binarySplit" x-mathContext="float">
					<MiningSchema>
						<MiningField name="e0"/>
						<MiningField name="e1"/>
						<MiningField name="e2"/>
						<MiningField name="e3"/>
						<MiningField name="e5"/>
						<MiningField name="e7"/>
						<MiningField name="y0"/>
						<MiningField name="y10"/>
						<MiningField name="y11"/>
						<MiningField name="y2"/>
						<MiningField name="y3"/>
						<MiningField name="y4"/>
						<MiningField name="y6"/>
						<MiningField name="y8"/>
					</MiningSchema>
					<Node id="0" defaultChild="1">
						<True/>
						<Node id="1" defaultChild="3">
							<SimplePredicate field="e7" operator="lessThan" value="31716.5"/>
							<Node id="3" defaultChild="7">
								<SimplePredicate field="y4" operator="lessThan" value="56807.0"/>
								<Node id="7" defaultChild="15">
									<SimplePredicate field="y10" operator="lessThan" value="64796.0"/>
									<Node id="15" score="0.44831672">
										<SimplePredicate field="y2" operator="lessThan" value="36097.0"/>
									</Node>
									<Node id="16" defaultChild="29">
										<SimplePredicate field="y2" operator="greaterOrEqual" value="36097.0"/>
										<Node id="29" defaultChild="47">
											<SimplePredicate field="y11" operator="lessThan" value="64838.0"/>
											<Node id="47" score="1.2183182">
												<SimplePredicate field="y8" operator="lessThan" value="60105.0"/>
											</Node>
											<Node id="48" score="1.8384372">
												<SimplePredicate field="y8" operator="greaterOrEqual" value="60105.0"/>
											</Node>
										</Node>
										<Node id="30" score="0.79402983">
											<SimplePredicate field="y11" operator="greaterOrEqual" value="64838.0"/>
										</Node>
									</Node>
								</Node>
								<Node id="8" defaultChild="17">
									<SimplePredicate field="y10" operator="greaterOrEqual" value="64796.0"/>
									<Node id="17" defaultChild="31">
										<SimplePredicate field="y0" operator="lessThan" value="25302.0"/>
										<Node id="31" score="0.58313775">
											<SimplePredicate field="y0" operator="lessThan" value="25296.0"/>
										</Node>
										<Node id="32" score="1.3161927">
											<SimplePredicate field="y0" operator="greaterOrEqual" value="25296.0"/>
										</Node>
									</Node>
									<Node id="18" defaultChild="33">
										<SimplePredicate field="y0" operator="greaterOrEqual" value="25302.0"/>
										<Node id="33" defaultChild="49">
											<SimplePredicate field="y10" operator="lessThan" value="64817.0"/>
											<Node id="49" score="0.5106271">
												<SimplePredicate field="y6" operator="lessThan" value="56879.0"/>
											</Node>
											<Node id="50" score="0.8602103">
												<SimplePredicate field="y6" operator="greaterOrEqual" value="56879.0"/>
											</Node>
										</Node>
										<Node id="34" score="0.31560937">
											<SimplePredicate field="y10" operator="greaterOrEqual" value="64817.0"/>
										</Node>
									</Node>
								</Node>
							</Node>
							<Node id="4" defaultChild="9">
								<SimplePredicate field="y4" operator="greaterOrEqual" value="56807.0"/>
								<Node id="9" defaultChild="19">
									<SimplePredicate field="y3" operator="lessThan" value="56807.0"/>
									<Node id="19" defaultChild="35">
										<SimplePredicate field="y2" operator="lessThan" value="48830.0"/>
										<Node id="35" score="1.1798546">
											<SimplePredicate field="y2" operator="lessThan" value="26227.0"/>
										</Node>
										<Node id="36" score="2.0892553">
											<SimplePredicate field="y2" operator="greaterOrEqual" value="26227.0"/>
										</Node>
									</Node>
									<Node id="20" defaultChild="37">
										<SimplePredicate field="y2" operator="greaterOrEqual" value="48830.0"/>
										<Node id="37" score="1.4880996">
											<SimplePredicate field="y6" operator="lessThan" value="57694.0"/>
										</Node>
										<Node id="38" defaultChild="51">
											<SimplePredicate field="y6" operator="greaterOrEqual" value="57694.0"/>
											<Node id="51" score="-0.13068181">
												<SimplePredicate field="y10" operator="lessThan" value="64808.0"/>
											</Node>
											<Node id="52" score="-0.82236904">
												<SimplePredicate field="y10" operator="greaterOrEqual" value="64808.0"/>
											</Node>
										</Node>
									</Node>
								</Node>
								<Node id="10" defaultChild="21">
									<SimplePredicate field="y3" operator="greaterOrEqual" value="56807.0"/>
									<Node id="21" score="1.2864431">
										<SimplePredicate field="y11" operator="lessThan" value="32414.5"/>
									</Node>
									<Node id="22" score="2.2245276">
										<SimplePredicate field="y11" operator="greaterOrEqual" value="32414.5"/>
									</Node>
								</Node>
							</Node>
						</Node>
						<Node id="2" defaultChild="5">
							<SimplePredicate field="e7" operator="greaterOrEqual" value="31716.5"/>
							<Node id="5" defaultChild="11">
								<SimplePredicate field="e1" operator="lessThan" value="50305.0"/>
								<Node id="11" defaultChild="23">
									<SimplePredicate field="e5" operator="lessThan" value="64895.0"/>
									<Node id="23" defaultChild="39">
										<SimplePredicate field="e5" operator="lessThan" value="64191.0"/>
										<Node id="39" defaultChild="53">
											<SimplePredicate field="y6" operator="lessThan" value="56879.0"/>
											<Node id="53" score="2.7856297">
												<SimplePredicate field="e2" operator="lessThan" value="55088.0"/>
											</Node>
											<Node id="54" score="-0.50161266">
												<SimplePredicate field="e2" operator="greaterOrEqual" value="55088.0"/>
											</Node>
										</Node>
										<Node id="40" defaultChild="55">
											<SimplePredicate field="y6" operator="greaterOrEqual" value="56879.0"/>
											<Node id="55" score="3.0441232">
												<SimplePredicate field="y4" operator="lessThan" value="56807.0"/>
											</Node>
											<Node id="56" score="3.4580865">
												<SimplePredicate field="y4" operator="greaterOrEqual" value="56807.0"/>
											</Node>
										</Node>
									</Node>
									<Node id="24" score="3.6334043">
										<SimplePredicate field="e5" operator="greaterOrEqual" value="64191.0"/>
									</Node>
								</Node>
								<Node id="12" defaultChild="25">
									<SimplePredicate field="e5" operator="greaterOrEqual" value="64895.0"/>
									<Node id="25" defaultChild="41">
										<SimplePredicate field="y2" operator="lessThan" value="36097.0"/>
										<Node id="41" defaultChild="57">
											<SimplePredicate field="y4" operator="lessThan" value="46960.0"/>
											<Node id="57" score="-1.7324014">
												<SimplePredicate field="e0" operator="lessThan" value="25281.0"/>
											</Node>
											<Node id="58" score="2.7543125">
												<SimplePredicate field="e0" operator="greaterOrEqual" value="25281.0"/>
											</Node>
										</Node>
										<Node id="42" defaultChild="59">
											<SimplePredicate field="y4" operator="greaterOrEqual" value="46960.0"/>
											<Node id="59" score="3.9573066">
												<SimplePredicate field="e2" operator="lessThan" value="47502.0"/>
											</Node>
											<Node id="60" score="2.6509693">
												<SimplePredicate field="e2" operator="greaterOrEqual" value="47502.0"/>
											</Node>
										</Node>
									</Node>
									<Node id="26" defaultChild="43">
										<SimplePredicate field="y2" operator="greaterOrEqual" value="36097.0"/>
										<Node id="43" defaultChild="61">
											<SimplePredicate field="e3" operator="lessThan" value="47502.0"/>
											<Node id="61" score="0.09069306">
												<SimplePredicate field="y0" operator="lessThan" value="25296.0"/>
											</Node>
											<Node id="62" score="3.1254056">
												<SimplePredicate field="y0" operator="greaterOrEqual" value="25296.0"/>
											</Node>
										</Node>
										<Node id="44" defaultChild="63">
											<SimplePredicate field="e3" operator="greaterOrEqual" value="47502.0"/>
											<Node id="63" score="1.2858993">
												<SimplePredicate field="y3" operator="lessThan" value="39151.0"/>
											</Node>
											<Node id="64" score="2.468303">
												<SimplePredicate field="y3" operator="greaterOrEqual" value="39151.0"/>
											</Node>
										</Node>
									</Node>
								</Node>
							</Node>
							<Node id="6" defaultChild="13">
								<SimplePredicate field="e1" operator="greaterOrEqual" value="50305.0"/>
								<Node id="13" defaultChild="27">
									<SimplePredicate field="e7" operator="lessThan" value="64859.0"/>
									<Node id="27" score="2.375519">
										<SimplePredicate field="y0" operator="lessThan" value="25302.0"/>
									</Node>
									<Node id="28" defaultChild="45">
										<SimplePredicate field="y0" operator="greaterOrEqual" value="25302.0"/>
										<Node id="45" score="3.6389675">
											<SimplePredicate field="y3" operator="lessThan" value="56807.0"/>
										</Node>
										<Node id="46" score="2.9301035">
											<SimplePredicate field="y3" operator="greaterOrEqual" value="56807.0"/>
										</Node>
									</Node>
								</Node>
								<Node id="14" score="3.7251697">
									<SimplePredicate field="e7" operator="greaterOrEqual" value="64859.0"/>
								</Node>
							</Node>
						</Node>
					</Node>
				</TreeModel>
			</Segment>
			<Segment id="8">
				<True/>
				<TreeModel functionName="regression" missingValueStrategy="defaultChild" splitCharacteristic="binarySplit" x-mathContext="float">
					<MiningSchema>
						<MiningField name="e0"/>
						<MiningField name="e1"/>
						<MiningField name="e2"/>
						<MiningField name="e3"/>
						<MiningField name="e4"/>
						<MiningField name="e6"/>
						<MiningField name="e7"/>
						<MiningField name="y0"/>
						<MiningField name="y10"/>
						<MiningField name="y11"/>
						<MiningField name="y2"/>
						<MiningField name="y3"/>
						<MiningField name="y4"/>
						<MiningField name="y5"/>
						<MiningField name="y6"/>
						<MiningField name="y7"/>
						<MiningField name="y8"/>
					</MiningSchema>
					<Node id="0" defaultChild="1">
						<True/>
						<Node id="1" defaultChild="3">
							<SimplePredicate field="e7" operator="lessThan" value="31716.5"/>
							<Node id="3" defaultChild="7">
								<SimplePredicate field="y4" operator="lessThan" value="56807.0"/>
								<Node id="7" defaultChild="15">
									<SimplePredicate field="y0" operator="lessThan" value="25302.0"/>
									<Node id="15" defaultChild="27">
										<SimplePredicate field="y11" operator="lessThan" value="64817.0"/>
										<Node id="27" defaultChild="49">
											<SimplePredicate field="y8" operator="lessThan" value="60105.0"/>
											<Node id="49" score="1.4459628">
												<SimplePredicate field="y7" operator="lessThan" value="57780.0"/>
											</Node>
											<Node id="50" score="-0.4955312">
												<SimplePredicate field="y7" operator="greaterOrEqual" value="57780.0"/>
											</Node>
										</Node>
										<Node id="28" score="2.1683629">
											<SimplePredicate field="y8" operator="greaterOrEqual" value="60105.0"/>
										</Node>
									</Node>
									<Node id="16" defaultChild="29">
										<SimplePredicate field="y11" operator="greaterOrEqual" value="64817.0"/>
										<Node id="29" defaultChild="51">
											<SimplePredicate field="y10" operator="lessThan" value="64817.0"/>
											<Node id="51" score="0.5709137">
												<SimplePredicate field="y10" operator="lessThan" value="64796.0"/>
											</Node>
											<Node id="52" score="1.0882325">
												<SimplePredicate field="y10" operator="greaterOrEqual" value="64796.0"/>
											</Node>
										</Node>
										<Node id="30" score="0.5022896">
											<SimplePredicate field="y10" operator="greaterOrEqual" value="64817.0"/>
										</Node>
									</Node>
								</Node>
								<Node id="8" defaultChild="17">
									<SimplePredicate field="y0" operator="greaterOrEqual" value="25302.0"/>
									<Node id="17" defaultChild="31">
										<SimplePredicate field="y3" operator="lessThan" value="39151.0"/>
										<Node id="31" defaultChild="53">
											<SimplePredicate field="y7" operator="lessThan" value="60696.0"/>
											<Node id="53" score="0.40026388">
												<SimplePredicate field="y6" operator="lessThan" value="57281.0"/>
											</Node>
											<Node id="54" score="0.9751648">
												<SimplePredicate field="y6" operator="greaterOrEqual" value="57281.0"/>
											</Node>
										</Node>
										<Node id="32" defaultChild="55">
											<SimplePredicate field="y7" operator="greaterOrEqual" value="60696.0"/>
											<Node id="55" score="0.053622082">
												<SimplePredicate field="y7" operator="lessThan" value="61797.0"/>
											</Node>
											<Node id="56" score="0.3366785">
												<SimplePredicate field="y7" operator="greaterOrEqual" value="61797.0"/>
											</Node>
										</Node>
									</Node>
									<Node id="18" defaultChild="33">
										<SimplePredicate field="y3" operator="greaterOrEqual" value="39151.0"/>
										<Node id="33" defaultChild="57">
											<SimplePredicate field="y11" operator="lessThan" value="64817.0"/>
											<Node id="57" score="1.1381291">
												<SimplePredicate field="y3" operator="lessThan" value="48830.0"/>
											</Node>
											<Node id="58" score="0.5333605">
												<SimplePredicate field="y3" operator="greaterOrEqual" value="48830.0"/>
											</Node>
										</Node>
										<Node id="34" defaultChild="59">
											<SimplePredicate field="y11" operator="greaterOrEqual" value="64817.0"/>
											<Node id="59" score="1.6239864">
												<SimplePredicate field="y11" operator="lessThan" value="64838.0"/>
											</Node>
											<Node id="60" score="0.48419338">
												<SimplePredicate field="y11" operator="greaterOrEqual" value="64838.0"/>
											</Node>
										</Node>
									</Node>
								</Node>
							</Node>
							<Node id="4" defaultChild="9">
								<SimplePredicate field="y4" operator="greaterOrEqual" value="56807.0"/>
								<Node id="9" score="1.581499">
									<SimplePredicate field="y7" operator="lessThan" value="58797.0"/>
								</Node>
								<Node id="10" defaultChild="19">
									<SimplePredicate field="y7" operator="greaterOrEqual" value="58797.0"/>
									<Node id="19" defaultChild="35">
										<SimplePredicate field="y4" operator="lessThan" value="57281.0"/>
										<Node id="35" defaultChild="61">
											<SimplePredicate field="y10" operator="lessThan" value="64808.0"/>
											<Node id="61" score="0.043980792">
												<SimplePredicate field="e1" operator="lessThan" value="50231.5"/>
											</Node>
											<Node id="62" score="-0.16435891">
												<SimplePredicate field="e1" operator="greaterOrEqual" value="50231.5"/>
											</Node>
										</Node>
										<Node id="36" score="-0.6373361">
											<SimplePredicate field="y10" operator="greaterOrEqual" value="64808.0"/>
										</Node>
									</Node>
									<Node id="20" defaultChild="37">
										<SimplePredicate field="y4" operator="greaterOrEqual" value="57281.0"/>
										<Node id="37" defaultChild="63">
											<SimplePredicate field="y2" operator="lessThan" value="36097.0"/>
											<Node id="63" score="1.1644298">
												<SimplePredicate field="y6" operator="lessThan" value="58797.0"/>
											</Node>
											<Node id="64" score="0.6790591">
												<SimplePredicate field="y6" operator="greaterOrEqual" value="58797.0"/>
											</Node>
										</Node>
										<Node id="38" defaultChild="65">
											<SimplePredicate field="y2" operator="greaterOrEqual" value="36097.0"/>
											<Node id="65" score="0.98867035">
												<SimplePredicate field="y11" operator="lessThan" value="32423.5"/>
											</Node>
											<Node id="66" score="1.7979815">
												<SimplePredicate field="y11" operator="greaterOrEqual" value="32423.5"/>
											</Node>
										</Node>
									</Node>
								</Node>
							</Node>
						</Node>
						<Node id="2" defaultChild="5">
							<SimplePredicate field="e7" operator="greaterOrEqual" value="31716.5"/>
							<Node id="5" defaultChild="11">
								<SimplePredicate field="e1" operator="lessThan" value="50305.0"/>
								<Node id="11" defaultChild="21">
									<SimplePredicate field="e7" operator="lessThan" value="64895.0"/>
									<Node id="21" defaultChild="39">
										<SimplePredicate field="e2" operator="lessThan" value="60180.0"/>
										<Node id="39" defaultChild="67">
											<SimplePredicate field="e3" operator="lessThan" value="54815.0"/>
											<Node id="67" score="1.9567635">
												<SimplePredicate field="y5" operator="lessThan" value="56807.0"/>
											</Node>
											<Node id="68" score="2.4805346">
												<SimplePredicate field="y5" operator="greaterOrEqual" value="56807.0"/>
											</Node>
										</Node>
										<Node id="40" score="2.5961313">
											<SimplePredicate field="e3" operator="greaterOrEqual" value="54815.0"/>
										</Node>
									</Node>
									<Node id="22" defaultChild="41">
										<SimplePredicate field="e2" operator="greaterOrEqual" value="60180.0"/>
										<Node id="41" defaultChild="69">
											<SimplePredicate field="y7" operator="lessThan" value="60744.0"/>
											<Node id="69" score="-0.3699391">
												<SimplePredicate field="y6" operator="lessThan" value="56879.0"/>
											</Node>
											<Node id="70" score="2.6134799">
												<SimplePredicate field="y6" operator="greaterOrEqual" value="56879.0"/>
											</Node>
										</Node>
										<Node id="42" defaultChild="71">
											<SimplePredicate field="y7" operator="greaterOrEqual" value="60744.0"/>
											<Node id="71" score="-1.1002468">
												<SimplePredicate field="y3" operator="lessThan" value="47434.0"/>
											</Node>
											<Node id="72" score="2.8117914">
												<SimplePredicate field="y3" operator="greaterOrEqual" value="47434.0"/>
											</Node>
										</Node>
									</Node>
								</Node>
								<Node id="12" defaultChild="23">
									<SimplePredicate field="e7" operator="greaterOrEqual" value="64895.0"/>
									<Node id="23" defaultChild="43">
										<SimplePredicate field="e3" operator="lessThan" value="52498.0"/>
										<Node id="43" defaultChild="73">
											<SimplePredicate field="e4" operator="lessThan" value="57384.0"/>
											<Node id="73" score="1.6303692">
												<SimplePredicate field="y7" operator="lessThan" value="57673.0"/>
											</Node>
											<Node id="74" score="2.14256">
												<SimplePredicate field="y7" operator="greaterOrEqual" value="57673.0"/>
											</Node>
										</Node>
										<Node id="44" defaultChild="75">
											<SimplePredicate field="e4" operator="greaterOrEqual" value="57384.0"/>
											<Node id="75" score="2.7197068">
												<SimplePredicate field="y7" operator="lessThan" value="63703.0"/>
											</Node>
											<Node id="76" score="1.4696281">
												<SimplePredicate field="y7" operator="greaterOrEqual" value="63703.0"/>
											</Node>
										</Node>
									</Node>
									<Node id="24" defaultChild="45">
										<SimplePredicate field="e3" operator="greaterOrEqual" value="52498.0"/>
										<Node id="45" defaultChild="77">
											<SimplePredicate field="y2" operator="lessThan" value="18011.0"/>
											<Node id="77" score="0.26881734">
												<SimplePredicate field="e0" operator="lessThan" value="25459.5"/>
											</Node>
											<Node id="78" score="4.1408815">
												<SimplePredicate field="e0" operator="greaterOrEqual" value="25459.5"/>
											</Node>
										</Node>
										<Node id="46" defaultChild="79">
											<SimplePredicate field="y2" operator="greaterOrEqual" value="18011.0"/>
											<Node id="79" score="-0.048131887">
												<SimplePredicate field="y6" operator="lessThan" value="56879.0"/>
											</Node>
											<Node id="80" score="1.5547848">
												<SimplePredicate field="y6" operator="greaterOrEqual" value="56879.0"/>
											</Node>
										</Node>
									</Node>
								</Node>
							</Node>
							<Node id="6" defaultChild="13">
								<SimplePredicate field="e1" operator="greaterOrEqual" value="50305.0"/>
								<Node id="13" score="2.6859813">
									<SimplePredicate field="e2" operator="lessThan" value="54815.0"/>
								</Node>
								<Node id="14" defaultChild="25">
									<SimplePredicate field="e2" operator="greaterOrEqual" value="54815.0"/>
									<Node id="25" defaultChild="47">
										<SimplePredicate field="y0" operator="lessThan" value="25302.0"/>
										<Node id="47" defaultChild="81">
											<SimplePredicate field="e6" operator="lessThan" value="65078.0"/>
											<Node id="81" score="1.928147">
												<SimplePredicate field="y11" operator="lessThan" value="64838.0"/>
											</Node>
											<Node id="82" score="1.2907455">
												<SimplePredicate field="y11" operator="greaterOrEqual" value="64838.0"/>
											</Node>
										</Node>
										<Node id="48" score="2.4195006">
											<SimplePredicate field="e6" operator="greaterOrEqual" value="65078.0"/>
										</Node>
									</Node>
									<Node id="26" score="2.47369">
										<SimplePredicate field="y0" operator="greaterOrEqual" value="25302.0"/>
									</Node>
								</Node>
							</Node>
						</Node>
					</Node>
				</TreeModel>
			</Segment>
			<Segment id="9">
				<True/>
				<TreeModel functionName="regression" missingValueStrategy="defaultChild" splitCharacteristic="binarySplit" x-mathContext="float">
					<MiningSchema>
						<MiningField name="e0"/>
						<MiningField name="e1"/>
						<MiningField name="e2"/>
						<MiningField name="e3"/>
						<MiningField name="e5"/>
						<MiningField name="e6"/>
						<MiningField name="e7"/>
						<MiningField name="y0"/>
						<MiningField name="y10"/>
						<MiningField name="y11"/>
						<MiningField name="y2"/>
						<MiningField name="y3"/>
						<MiningField name="y4"/>
						<MiningField name="y6"/>
						<MiningField name="y7"/>
						<MiningField name="y8"/>
					</MiningSchema>
					<Node id="0" defaultChild="1">
						<True/>
						<Node id="1" defaultChild="3">
							<SimplePredicate field="e7" operator="lessThan" value="31716.5"/>
							<Node id="3" defaultChild="7">
								<SimplePredicate field="y4" operator="lessThan" value="56807.0"/>
								<Node id="7" defaultChild="13">
									<SimplePredicate field="y0" operator="lessThan" value="25302.0"/>
									<Node id="13" defaultChild="25">
										<SimplePredicate field="y11" operator="lessThan" value="64817.0"/>
										<Node id="25" defaultChild="49">
											<SimplePredicate field="y8" operator="lessThan" value="60105.0"/>
											<Node id="49" score="1.0555533">
												<SimplePredicate field="y7" operator="lessThan" value="57780.0"/>
											</Node>
											<Node id="50" score="-0.38403627">
												<SimplePredicate field="y7" operator="greaterOrEqual" value="57780.0"/>
											</Node>
										</Node>
										<Node id="26" score="1.6107842">
											<SimplePredicate field="y8" operator="greaterOrEqual" value="60105.0"/>
										</Node>
									</Node>
									<Node id="14" defaultChild="27">
										<SimplePredicate field="y11" operator="greaterOrEqual" value="64817.0"/>
										<Node id="27" score="0.30402783">
											<SimplePredicate field="y0" operator="lessThan" value="25296.0"/>
										</Node>
										<Node id="28" defaultChild="51">
											<SimplePredicate field="y0" operator="greaterOrEqual" value="25296.0"/>
											<Node id="51" score="0.3225978">
												<SimplePredicate field="y11" operator="lessThan" value="64838.0"/>
											</Node>
											<Node id="52" score="0.68274534">
												<SimplePredicate field="y11" operator="greaterOrEqual" value="64838.0"/>
											</Node>
										</Node>
									</Node>
								</Node>
								<Node id="8" defaultChild="15">
									<SimplePredicate field="y0" operator="greaterOrEqual" value="25302.0"/>
									<Node id="15" defaultChild="29">
										<SimplePredicate field="y3" operator="lessThan" value="39151.0"/>
										<Node id="29" defaultChild="53">
											<SimplePredicate field="y10" operator="lessThan" value="64778.0"/>
											<Node id="53" score="0.25738594">
												<SimplePredicate field="y2" operator="lessThan" value="36097.0"/>
											</Node>
											<Node id="54" score="0.7808852">
												<SimplePredicate field="y2" operator="greaterOrEqual" value="36097.0"/>
											</Node>
										</Node>
										<Node id="30" defaultChild="55">
											<SimplePredicate field="y10" operator="greaterOrEqual" value="64778.0"/>
											<Node id="55" score="-0.121737435">
												<SimplePredicate field="y10" operator="lessThan" value="64796.0"/>
											</Node>
											<Node id="56" score="0.34296036">
												<SimplePredicate field="y10" operator="greaterOrEqual" value="64796.0"/>
											</Node>
										</Node>
									</Node>
									<Node id="16" defaultChild="31">
										<SimplePredicate field="y3" operator="greaterOrEqual" value="39151.0"/>
										<Node id="31" defaultChild="57">
											<SimplePredicate field="y6" operator="lessThan" value="57281.0"/>
											<Node id="57" score="0.8820503">
												<SimplePredicate field="y3" operator="lessThan" value="48830.0"/>
											</Node>
											<Node id="58" score="-0.31912723">
												<SimplePredicate field="y3" operator="greaterOrEqual" value="48830.0"/>
											</Node>
										</Node>
										<Node id="32" defaultChild="59">
											<SimplePredicate field="y6" operator="greaterOrEqual" value="57281.0"/>
											<Node id="59" score="0.92092663">
												<SimplePredicate field="y11" operator="lessThan" value="64838.0"/>
											</Node>
											<Node id="60" score="0.37524977">
												<SimplePredicate field="y11" operator="greaterOrEqual" value="64838.0"/>
											</Node>
										</Node>
									</Node>
								</Node>
							</Node>
							<Node id="4" defaultChild="9">
								<SimplePredicate field="y4" operator="greaterOrEqual" value="56807.0"/>
								<Node id="9" defaultChild="17">
									<SimplePredicate field="y3" operator="lessThan" value="56807.0"/>
									<Node id="17" defaultChild="33">
										<SimplePredicate field="y2" operator="lessThan" value="48830.0"/>
										<Node id="33" score="0.5234157">
											<SimplePredicate field="y2" operator="lessThan" value="26227.0"/>
										</Node>
										<Node id="34" defaultChild="61">
											<SimplePredicate field="y2" operator="greaterOrEqual" value="26227.0"/>
											<Node id="61" score="1.2233093">
												<SimplePredicate field="y10" operator="lessThan" value="64808.0"/>
											</Node>
											<Node id="62" score="0.76836157">
												<SimplePredicate field="y10" operator="greaterOrEqual" value="64808.0"/>
											</Node>
										</Node>
									</Node>
									<Node id="18" defaultChild="35">
										<SimplePredicate field="y2" operator="greaterOrEqual" value="48830.0"/>
										<Node id="35" score="0.79744065">
											<SimplePredicate field="y6" operator="lessThan" value="57694.0"/>
										</Node>
										<Node id="36" defaultChild="63">
											<SimplePredicate field="y6" operator="greaterOrEqual" value="57694.0"/>
											<Node id="63" score="-0.07992325">
												<SimplePredicate field="y10" operator="lessThan" value="64808.0"/>
											</Node>
											<Node id="64" score="-0.49393532">
												<SimplePredicate field="y10" operator="greaterOrEqual" value="64808.0"/>
											</Node>
										</Node>
									</Node>
								</Node>
								<Node id="10" defaultChild="19">
									<SimplePredicate field="y3" operator="greaterOrEqual" value="56807.0"/>
									<Node id="19" defaultChild="37">
										<SimplePredicate field="y2" operator="lessThan" value="40318.0"/>
										<Node id="37" score="0.97765183">
											<SimplePredicate field="y6" operator="lessThan" value="58797.0"/>
										</Node>
										<Node id="38" score="0.5044441">
											<SimplePredicate field="y6" operator="greaterOrEqual" value="58797.0"/>
										</Node>
									</Node>
									<Node id="20" defaultChild="39">
										<SimplePredicate field="y2" operator="greaterOrEqual" value="40318.0"/>
										<Node id="39" score="0.8202805">
											<SimplePredicate field="y11" operator="lessThan" value="64838.0"/>
										</Node>
										<Node id="40" score="1.3731737">
											<SimplePredicate field="y11" operator="greaterOrEqual" value="64838.0"/>
										</Node>
									</Node>
								</Node>
							</Node>
						</Node>
						<Node id="2" defaultChild="5">
							<SimplePredicate field="e7" operator="greaterOrEqual" value="31716.5"/>
							<Node id="5" defaultChild="11">
								<SimplePredicate field="e6" operator="lessThan" value="65078.0"/>
								<Node id="11" defaultChild="21">
									<SimplePredicate field="e7" operator="lessThan" value="64925.0"/>
									<Node id="21" defaultChild="41">
										<SimplePredicate field="y0" operator="lessThan" value="25302.0"/>
										<Node id="41" defaultChild="65">
											<SimplePredicate field="e2" operator="lessThan" value="54815.0"/>
											<Node id="65" score="0.8948876">
												<SimplePredicate field="e7" operator="lessThan" value="64092.0"/>
											</Node>
											<Node id="66" score="1.7641656">
												<SimplePredicate field="e7" operator="greaterOrEqual" value="64092.0"/>
											</Node>
										</Node>
										<Node id="42" defaultChild="67">
											<SimplePredicate field="e2" operator="greaterOrEqual" value="54815.0"/>
											<Node id="67" score="1.148974">
												<SimplePredicate field="y10" operator="lessThan" value="64817.0"/>
											</Node>
											<Node id="68" score="0.45442465">
												<SimplePredicate field="y10" operator="greaterOrEqual" value="64817.0"/>
											</Node>
										</Node>
									</Node>
									<Node id="22" defaultChild="43">
										<SimplePredicate field="y0" operator="greaterOrEqual" value="25302.0"/>
										<Node id="43" defaultChild="69">
											<SimplePredicate field="e0" operator="lessThan" value="25480.5"/>
											<Node id="69" score="2.0035062">
												<SimplePredicate field="e5" operator="lessThan" value="60180.0"/>
											</Node>
											<Node id="70" score="1.7625095">
												<SimplePredicate field="e5" operator="greaterOrEqual" value="60180.0"/>
											</Node>
										</Node>
										<Node id="44" defaultChild="71">
											<SimplePredicate field="e0" operator="greaterOrEqual" value="25480.5"/>
											<Node id="71" score="0.34644493">
												<SimplePredicate field="y6" operator="lessThan" value="56879.0"/>
											</Node>
											<Node id="72" score="1.6613129">
												<SimplePredicate field="y6" operator="greaterOrEqual" value="56879.0"/>
											</Node>
										</Node>
									</Node>
								</Node>
								<Node id="12" defaultChild="23">
									<SimplePredicate field="e7" operator="greaterOrEqual" value="64925.0"/>
									<Node id="23" defaultChild="45">
										<SimplePredicate field="y6" operator="lessThan" value="62602.0"/>
										<Node id="45" defaultChild="73">
											<SimplePredicate field="e2" operator="lessThan" value="52498.0"/>
											<Node id="73" score="1.6116596">
												<SimplePredicate field="e3" operator="lessThan" value="57863.0"/>
											</Node>
											<Node id="74" score="1.0263733">
												<SimplePredicate field="e3" operator="greaterOrEqual" value="57863.0"/>
											</Node>
										</Node>
										<Node id="46" defaultChild="75">
											<SimplePredicate field="e2" operator="greaterOrEqual" value="52498.0"/>
											<Node id="75" score="2.524458">
												<SimplePredicate field="y2" operator="lessThan" value="18011.0"/>
											</Node>
											<Node id="76" score="1.0372112">
												<SimplePredicate field="y2" operator="greaterOrEqual" value="18011.0"/>
											</Node>
										</Node>
									</Node>
									<Node id="24" defaultChild="47">
										<SimplePredicate field="y6" operator="greaterOrEqual" value="62602.0"/>
										<Node id="47" defaultChild="77">
											<SimplePredicate field="e1" operator="lessThan" value="50281.0"/>
											<Node id="77" score="-1.5297755">
												<SimplePredicate field="e0" operator="lessThan" value="25281.0"/>
											</Node>
											<Node id="78" score="0.08070701">
												<SimplePredicate field="e0" operator="greaterOrEqual" value="25281.0"/>
											</Node>
										</Node>
										<Node id="48" defaultChild="79">
											<SimplePredicate field="e1" operator="greaterOrEqual" value="50281.0"/>
											<Node id="79" score="1.780752">
												<SimplePredicate field="e1" operator="lessThan" value="50305.0"/>
											</Node>
											<Node id="80" score="0.61771">
												<SimplePredicate field="e1" operator="greaterOrEqual" value="50305.0"/>
											</Node>
										</Node>
									</Node>
								</Node>
							</Node>
							<Node id="6" score="1.8852563">
								<SimplePredicate field="e6" operator="greaterOrEqual" value="65078.0"/>
							</Node>
						</Node>
					</Node>
				</TreeModel>
			</Segment>
			<Segment id="10">
				<True/>
				<TreeModel functionName="regression" missingValueStrategy="defaultChild" splitCharacteristic="binarySplit" x-mathContext="float">
					<MiningSchema>
						<MiningField name="e1"/>
						<MiningField name="e2"/>
						<MiningField name="e3"/>
						<MiningField name="e4"/>
						<MiningField name="e6"/>
						<MiningField name="e7"/>
						<MiningField name="y0"/>
						<MiningField name="y10"/>
						<MiningField name="y2"/>
						<MiningField name="y3"/>
						<MiningField name="y4"/>
						<MiningField name="y6"/>
						<MiningField name="y7"/>
						<MiningField name="y8"/>
					</MiningSchema>
					<Node id="0" defaultChild="1">
						<True/>
						<Node id="1" defaultChild="3">
							<SimplePredicate field="e7" operator="lessThan" value="31716.5"/>
							<Node id="3" defaultChild="7">
								<SimplePredicate field="y4" operator="lessThan" value="56807.0"/>
								<Node id="7" score="1.2193784">
									<SimplePredicate field="y7" operator="lessThan" value="57281.0"/>
								</Node>
								<Node id="8" defaultChild="15">
									<SimplePredicate field="y7" operator="greaterOrEqual" value="57281.0"/>
									<Node id="15" defaultChild="29">
										<SimplePredicate field="y2" operator="lessThan" value="40079.0"/>
										<Node id="29" defaultChild="47">
											<SimplePredicate field="e1" operator="lessThan" value="50231.5"/>
											<Node id="47" score="0.6483791">
												<SimplePredicate field="y10" operator="lessThan" value="64796.0"/>
											</Node>
											<Node id="48" score="0.3668476">
												<SimplePredicate field="y10" operator="greaterOrEqual" value="64796.0"/>
											</Node>
										</Node>
										<Node id="30" defaultChild="49">
											<SimplePredicate field="e1" operator="greaterOrEqual" value="50231.5"/>
											<Node id="49" score="0.47371736">
												<SimplePredicate field="y0" operator="lessThan" value="25302.0"/>
											</Node>
											<Node id="50" score="0.20008579">
												<SimplePredicate field="y0" operator="greaterOrEqual" value="25302.0"/>
											</Node>
										</Node>
									</Node>
									<Node id="16" score="0.95488334">
										<SimplePredicate field="y2" operator="greaterOrEqual" value="40079.0"/>
									</Node>
								</Node>
							</Node>
							<Node id="4" defaultChild="9">
								<SimplePredicate field="y4" operator="greaterOrEqual" value="56807.0"/>
								<Node id="9" defaultChild="17">
									<SimplePredicate field="e1" operator="lessThan" value="50231.5"/>
									<Node id="17" score="0.37738565">
										<SimplePredicate field="y2" operator="lessThan" value="26227.0"/>
									</Node>
									<Node id="18" score="0.88232577">
										<SimplePredicate field="y2" operator="greaterOrEqual" value="26227.0"/>
									</Node>
								</Node>
								<Node id="10" defaultChild="19">
									<SimplePredicate field="e1" operator="greaterOrEqual" value="50231.5"/>
									<Node id="19" defaultChild="31">
										<SimplePredicate field="y3" operator="lessThan" value="56807.0"/>
										<Node id="31" defaultChild="51">
											<SimplePredicate field="y2" operator="lessThan" value="48830.0"/>
											<Node id="51" score="0.77216595">
												<SimplePredicate field="y3" operator="lessThan" value="48729.0"/>
											</Node>
											<Node id="52" score="0.40728927">
												<SimplePredicate field="y3" operator="greaterOrEqual" value="48729.0"/>
											</Node>
										</Node>
										<Node id="32" defaultChild="53">
											<SimplePredicate field="y2" operator="greaterOrEqual" value="48830.0"/>
											<Node id="53" score="0.50134814">
												<SimplePredicate field="y6" operator="lessThan" value="57694.0"/>
											</Node>
											<Node id="54" score="-0.31066155">
												<SimplePredicate field="y6" operator="greaterOrEqual" value="57694.0"/>
											</Node>
										</Node>
									</Node>
									<Node id="20" score="0.69783056">
										<SimplePredicate field="y3" operator="greaterOrEqual" value="56807.0"/>
									</Node>
								</Node>
							</Node>
						</Node>
						<Node id="2" defaultChild="5">
							<SimplePredicate field="e7" operator="greaterOrEqual" value="31716.5"/>
							<Node id="5" defaultChild="11">
								<SimplePredicate field="e1" operator="lessThan" value="50305.0"/>
								<Node id="11" defaultChild="21">
									<SimplePredicate field="e7" operator="lessThan" value="64895.0"/>
									<Node id="21" defaultChild="33">
										<SimplePredicate field="y0" operator="lessThan" value="25302.0"/>
										<Node id="33" score="1.2808952">
											<SimplePredicate field="e1" operator="lessThan" value="50101.0"/>
										</Node>
										<Node id="34" defaultChild="55">
											<SimplePredicate field="e1" operator="greaterOrEqual" value="50101.0"/>
											<Node id="55" score="1.1911321">
												<SimplePredicate field="y8" operator="lessThan" value="60105.0"/>
											</Node>
											<Node id="56" score="0.5452925">
												<SimplePredicate field="y8" operator="greaterOrEqual" value="60105.0"/>
											</Node>
										</Node>
									</Node>
									<Node id="22" defaultChild="35">
										<SimplePredicate field="y0" operator="greaterOrEqual" value="25302.0"/>
										<Node id="35" defaultChild="57">
											<SimplePredicate field="e6" operator="lessThan" value="64799.0"/>
											<Node id="57" score="0.7580343">
												<SimplePredicate field="y6" operator="lessThan" value="56879.0"/>
											</Node>
											<Node id="58" score="1.2279986">
												<SimplePredicate field="y6" operator="greaterOrEqual" value="56879.0"/>
											</Node>
										</Node>
										<Node id="36" defaultChild="59">
											<SimplePredicate field="e6" operator="greaterOrEqual" value="64799.0"/>
											<Node id="59" score="1.7404097">
												<SimplePredicate field="y4" operator="lessThan" value="56807.0"/>
											</Node>
											<Node id="60" score="1.2436384">
												<SimplePredicate field="y4" operator="greaterOrEqual" value="56807.0"/>
											</Node>
										</Node>
									</Node>
								</Node>
								<Node id="12" defaultChild="23">
									<SimplePredicate field="e7" operator="greaterOrEqual" value="64895.0"/>
									<Node id="23" defaultChild="37">
										<SimplePredicate field="e2" operator="lessThan" value="52498.0"/>
										<Node id="37" defaultChild="61">
											<SimplePredicate field="e3" operator="lessThan" value="57863.0"/>
											<Node id="61" score="0.99108213">
												<SimplePredicate field="e4" operator="lessThan" value="52498.0"/>
											</Node>
											<Node id="62" score="1.3452283">
												<SimplePredicate field="e4" operator="greaterOrEqual" value="52498.0"/>
											</Node>
										</Node>
										<Node id="38" defaultChild="63">
											<SimplePredicate field="e3" operator="greaterOrEqual" value="57863.0"/>
											<Node id="63" score="1.627442">
												<SimplePredicate field="y8" operator="lessThan" value="60501.0"/>
											</Node>
											<Node id="64" score="-0.23398931">
												<SimplePredicate field="y8" operator="greaterOrEqual" value="60501.0"/>
											</Node>
										</Node>
									</Node>
									<Node id="24" defaultChild="39">
										<SimplePredicate field="e2" operator="greaterOrEqual" value="52498.0"/>
										<Node id="39" score="2.180203">
											<SimplePredicate field="y2" operator="lessThan" value="18011.0"/>
										</Node>
										<Node id="40" defaultChild="65">
											<SimplePredicate field="y2" operator="greaterOrEqual" value="18011.0"/>
											<Node id="65" score="-0.28751206">
												<SimplePredicate field="y0" operator="lessThan" value="25302.0"/>
											</Node>
											<Node id="66" score="0.55754733">
												<SimplePredicate field="y0" operator="greaterOrEqual" value="25302.0"/>
											</Node>
										</Node>
									</Node>
								</Node>
							</Node>
							<Node id="6" defaultChild="13">
								<SimplePredicate field="e1" operator="greaterOrEqual" value="50305.0"/>
								<Node id="13" defaultChild="25">
									<SimplePredicate field="e7" operator="lessThan" value="64859.0"/>
									<Node id="25" defaultChild="41">
										<SimplePredicate field="y3" operator="lessThan" value="56807.0"/>
										<Node id="41" score="0.09310074">
											<SimplePredicate field="y7" operator="lessThan" value="57281.0"/>
										</Node>
										<Node id="42" defaultChild="67">
											<SimplePredicate field="y7" operator="greaterOrEqual" value="57281.0"/>
											<Node id="67" score="1.2774587">
												<SimplePredicate field="y4" operator="lessThan" value="57281.0"/>
											</Node>
											<Node id="68" score="0.8423218">
												<SimplePredicate field="y4" operator="greaterOrEqual" value="57281.0"/>
											</Node>
										</Node>
									</Node>
									<Node id="26" defaultChild="43">
										<SimplePredicate field="y3" operator="greaterOrEqual" value="56807.0"/>
										<Node id="43" defaultChild="69">
											<SimplePredicate field="y2" operator="lessThan" value="56807.0"/>
											<Node id="69" score="0.78488576">
												<SimplePredicate field="y2" operator="lessThan" value="49758.0"/>
											</Node>
											<Node id="70" score="1.1876678">
												<SimplePredicate field="y2" operator="greaterOrEqual" value="49758.0"/>
											</Node>
										</Node>
										<Node id="44" defaultChild="71">
											<SimplePredicate field="y2" operator="greaterOrEqual" value="56807.0"/>
											<Node id="71" score="-0.17192537">
												<SimplePredicate field="y3" operator="lessThan" value="57281.0"/>
											</Node>
											<Node id="72" score="0.7355249">
												<SimplePredicate field="y3" operator="greaterOrEqual" value="57281.0"/>
											</Node>
										</Node>
									</Node>
								</Node>
								<Node id="14" defaultChild="27">
									<SimplePredicate field="e7" operator="greaterOrEqual" value="64859.0"/>
									<Node id="27" defaultChild="45">
										<SimplePredicate field="y6" operator="lessThan" value="56879.0"/>
										<Node id="45" score="1.2249111">
											<SimplePredicate field="y4" operator="lessThan" value="56227.0"/>
										</Node>
										<Node id="46" defaultChild="73">
											<SimplePredicate field="y4" operator="greaterOrEqual" value="56227.0"/>
											<Node id="73" score="0.29930454">
												<SimplePredicate field="y4" operator="lessThan" value="56520.0"/>
											</Node>
											<Node id="74" score="1.0330975">
												<SimplePredicate field="y4" operator="greaterOrEqual" value="56520.0"/>
											</Node>
										</Node>
									</Node>
									<Node id="28" score="1.3379678">
										<SimplePredicate field="y6" operator="greaterOrEqual" value="56879.0"/>
									</Node>
								</Node>
							</Node>
						</Node>
					</Node>
				</TreeModel>
			</Segment>
			<Segment id="11">
				<True/>
				<TreeModel functionName="regression" missingValueStrategy="defaultChild" splitCharacteristic="binarySplit" x-mathContext="float">
					<MiningSchema>
						<MiningField name="e0"/>
						<MiningField name="e1"/>
						<MiningField name="e2"/>
						<MiningField name="e3"/>
						<MiningField name="e4"/>
						<MiningField name="e5"/>
						<MiningField name="e7"/>
						<MiningField name="y2"/>
						<MiningField name="y3"/>
						<MiningField name="y4"/>
						<MiningField name="y6"/>
						<MiningField name="y7"/>
						<MiningField name="y8"/>
					</MiningSchema>
					<Node id="0" defaultChild="1">
						<True/>
						<Node id="1" defaultChild="3">
							<SimplePredicate field="e7" operator="lessThan" value="31716.5"/>
							<Node id="3" defaultChild="7">
								<SimplePredicate field="y3" operator="lessThan" value="39151.0"/>
								<Node id="7" score="0.94501793">
									<SimplePredicate field="y7" operator="lessThan" value="57281.0"/>
								</Node>
								<Node id="8" defaultChild="15">
									<SimplePredicate field="y7" operator="greaterOrEqual" value="57281.0"/>
									<Node id="15" defaultChild="27">
										<SimplePredicate field="y6" operator="lessThan" value="56879.0"/>
										<Node id="27" defaultChild="49">
											<SimplePredicate field="y2" operator="lessThan" value="27881.0"/>
											<Node id="49" score="-0.11127148">
												<SimplePredicate field="y2" operator="lessThan" value="18011.0"/>
											</Node>
											<Node id="50" score="0.02147863">
												<SimplePredicate field="y2" operator="greaterOrEqual" value="18011.0"/>
											</Node>
										</Node>
										<Node id="28" score="0.14689676">
											<SimplePredicate field="y2" operator="greaterOrEqual" value="27881.0"/>
										</Node>
									</Node>
									<Node id="16" defaultChild="29">
										<SimplePredicate field="y6" operator="greaterOrEqual" value="56879.0"/>
										<Node id="29" defaultChild="51">
											<SimplePredicate field="y7" operator="lessThan" value="60696.0"/>
											<Node id="51" score="0.18175416">
												<SimplePredicate field="y8" operator="lessThan" value="60105.0"/>
											</Node>
											<Node id="52" score="0.4545022">
												<SimplePredicate field="y8" operator="greaterOrEqual" value="60105.0"/>
											</Node>
										</Node>
										<Node id="30" defaultChild="53">
											<SimplePredicate field="y7" operator="greaterOrEqual" value="60696.0"/>
											<Node id="53" score="-0.07149995">
												<SimplePredicate field="y7" operator="lessThan" value="63703.0"/>
											</Node>
											<Node id="54" score="0.19497457">
												<SimplePredicate field="y7" operator="greaterOrEqual" value="63703.0"/>
											</Node>
										</Node>
									</Node>
								</Node>
							</Node>
							<Node id="4" defaultChild="9">
								<SimplePredicate field="y3" operator="greaterOrEqual" value="39151.0"/>
								<Node id="9" score="0.97002816">
									<SimplePredicate field="y3" operator="lessThan" value="48729.0"/>
								</Node>
								<Node id="10" defaultChild="17">
									<SimplePredicate field="y3" operator="greaterOrEqual" value="48729.0"/>
									<Node id="17" score="-0.3259648">
										<SimplePredicate field="y6" operator="lessThan" value="57281.0"/>
									</Node>
									<Node id="18" defaultChild="31">
										<SimplePredicate field="y6" operator="greaterOrEqual" value="57281.0"/>
										<Node id="31" defaultChild="55">
											<SimplePredicate field="y2" operator="lessThan" value="40318.0"/>
											<Node id="55" score="0.017020226">
												<SimplePredicate field="y3" operator="lessThan" value="56538.0"/>
											</Node>
											<Node id="56" score="0.40279406">
												<SimplePredicate field="y3" operator="greaterOrEqual" value="56538.0"/>
											</Node>
										</Node>
										<Node id="32" defaultChild="57">
											<SimplePredicate field="y2" operator="greaterOrEqual" value="40318.0"/>
											<Node id="57" score="1.0478207">
												<SimplePredicate field="y2" operator="lessThan" value="49758.0"/>
											</Node>
											<Node id="58" score="0.3819157">
												<SimplePredicate field="y2" operator="greaterOrEqual" value="49758.0"/>
											</Node>
										</Node>
									</Node>
								</Node>
							</Node>
						</Node>
						<Node id="2" defaultChild="5">
							<SimplePredicate field="e7" operator="greaterOrEqual" value="31716.5"/>
							<Node id="5" defaultChild="11">
								<SimplePredicate field="y4" operator="lessThan" value="57281.0"/>
								<Node id="11" defaultChild="19">
									<SimplePredicate field="y7" operator="lessThan" value="60696.0"/>
									<Node id="19" defaultChild="33">
										<SimplePredicate field="y6" operator="lessThan" value="56879.0"/>
										<Node id="33" defaultChild="59">
											<SimplePredicate field="e4" operator="lessThan" value="64973.0"/>
											<Node id="59" score="0.7267125">
												<SimplePredicate field="e2" operator="lessThan" value="60180.0"/>
											</Node>
											<Node id="60" score="-0.6090917">
												<SimplePredicate field="e2" operator="greaterOrEqual" value="60180.0"/>
											</Node>
										</Node>
										<Node id="34" defaultChild="61">
											<SimplePredicate field="e4" operator="greaterOrEqual" value="64973.0"/>
											<Node id="61" score="-1.7170953">
												<SimplePredicate field="e0" operator="lessThan" value="25495.5"/>
											</Node>
											<Node id="62" score="0.7116578">
												<SimplePredicate field="e0" operator="greaterOrEqual" value="25495.5"/>
											</Node>
										</Node>
									</Node>
									<Node id="20" defaultChild="35">
										<SimplePredicate field="y6" operator="greaterOrEqual" value="56879.0"/>
										<Node id="35" defaultChild="63">
											<SimplePredicate field="e4" operator="lessThan" value="57590.0"/>
											<Node id="63" score="0.7902043">
												<SimplePredicate field="e2" operator="lessThan" value="52498.0"/>
											</Node>
											<Node id="64" score="0.14467068">
												<SimplePredicate field="e2" operator="greaterOrEqual" value="52498.0"/>
											</Node>
										</Node>
										<Node id="36" defaultChild="65">
											<SimplePredicate field="e4" operator="greaterOrEqual" value="57590.0"/>
											<Node id="65" score="1.1909537">
												<SimplePredicate field="y7" operator="lessThan" value="57673.0"/>
											</Node>
											<Node id="66" score="0.8422084">
												<SimplePredicate field="y7" operator="greaterOrEqual" value="57673.0"/>
											</Node>
										</Node>
									</Node>
								</Node>
								<Node id="12" defaultChild="21">
									<SimplePredicate field="y7" operator="greaterOrEqual" value="60696.0"/>
									<Node id="21" defaultChild="37">
										<SimplePredicate field="e1" operator="lessThan" value="50197.0"/>
										<Node id="37" defaultChild="67">
											<SimplePredicate field="e2" operator="lessThan" value="21021.5"/>
