<?xml version="1.0" encoding="UTF-8" standalone="yes"?>
<PMML xmlns="http://www.dmg.org/PMML-4_4" xmlns:data="http://jpmml.org/jpmml-model/InlineTable" version="4.4">
	<Header>
		<Application name="SkLearn2PMML package" version="0.92.0"/>
		<Timestamp>2023-04-02T11:09:04Z</Timestamp>
	</Header>
	<DataDictionary>
		<DataField name="w" optype="continuous" dataType="double"/>
		<DataField name="e0" optype="continuous" dataType="float">
			<Value value="NaN" property="missing"/>
		</DataField>
		<DataField name="e1" optype="continuous" dataType="float">
			<Value value="NaN" property="missing"/>
		</DataField>
		<DataField name="e2" optype="continuous" dataType="float">
			<Value value="NaN" property="missing"/>
		</DataField>
		<DataField name="e3" optype="continuous" dataType="float">
			<Value value="NaN" property="missing"/>
		</DataField>
		<DataField name="e4" optype="continuous" dataType="float">
			<Value value="NaN" property="missing"/>
		</DataField>
		<DataField name="e5" optype="continuous" dataType="float">
			<Value value="NaN" property="missing"/>
		</DataField>
		<DataField name="e6" optype="continuous" dataType="float">
			<Value value="NaN" property="missing"/>
		</DataField>
		<DataField name="e7" optype="continuous" dataType="float">
			<Value value="NaN" property="missing"/>
		</DataField>
		<DataField name="y0" optype="continuous" dataType="float">
			<Value value="NaN" property="missing"/>
		</DataField>
		<DataField name="y10" optype="continuous" dataType="float">
			<Value value="NaN" property="missing"/>
		</DataField>
		<DataField name="y11" optype="continuous" dataType="float">
			<Value value="NaN" property="missing"/>
		</DataField>
		<DataField name="y2" optype="continuous" dataType="float">
			<Value value="NaN" property="missing"/>
		</DataField>
		<DataField name="y3" optype="continuous" dataType="float">
			<Value value="NaN" property="missing"/>
		</DataField>
		<DataField name="y4" optype="continuous" dataType="float">
			<Value value="NaN" property="missing"/>
		</DataField>
		<DataField name="y5" optype="continuous" dataType="float">
			<Value value="NaN" property="missing"/>
		</DataField>
		<DataField name="y6" optype="continuous" dataType="float">
			<Value value="NaN" property="missing"/>
		</DataField>
		<DataField name="y7" optype="continuous" dataType="float">
			<Value value="NaN" property="missing"/>
		</DataField>
		<DataField name="y8" optype="continuous" dataType="float">
			<Value value="NaN" property="missing"/>
		</DataField>
		<DataField name="y9" optype="continuous" dataType="float">
			<Value value="NaN" property="missing"/>
		</DataField>
	</DataDictionary>
	<MiningModel functionName="regression" algorithmName="XGBoost (GBTree)" x-mathContext="float">
		<MiningSchema>
			<MiningField name="w" usageType="target"/>
			<MiningField name="e0"/>
			<MiningField name="e1"/>
			<MiningField name="e2"/>
			<MiningField name="e3"/>
			<MiningField name="e4"/>
			<MiningField name="e5"/>
			<MiningField name="e6"/>
			<MiningField name="e7"/>
			<MiningField name="y0"/>
			<MiningField name="y10"/>
			<MiningField name="y11"/>
			<MiningField name="y2"/>
			<MiningField name="y3"/>
			<MiningField name="y4"/>
			<MiningField name="y5"/>
			<MiningField name="y6"/>
			<MiningField name="y7"/>
			<MiningField name="y8"/>
			<MiningField name="y9"/>
		</MiningSchema>
		<Targets>
			<Target field="w" rescaleConstant="0.5"/>
		</Targets>
		<Segmentation multipleModelMethod="sum" missingPredictionTreatment="returnMissing">
			<Segment id="1">
				<True/>
				<TreeModel functionName="regression" missingValueStrategy="defaultChild" splitCharacteristic="binarySplit" x-mathContext="float">
					<MiningSchema>
						<MiningField name="e0"/>
						<MiningField name="e1"/>
						<MiningField name="e2"/>
						<MiningField name="e5"/>
						<MiningField name="e7"/>
						<MiningField name="y0"/>
						<MiningField name="y10"/>
						<MiningField name="y11"/>
						<MiningField name="y2"/>
						<MiningField name="y3"/>
						<MiningField name="y4"/>
						<MiningField name="y5"/>
						<MiningField name="y6"/>
						<MiningField name="y7"/>
						<MiningField name="y8"/>
					</MiningSchema>
					<Node id="0" defaultChild="1">
						<True/>
						<Node id="1" defaultChild="3">
							<SimplePredicate field="e7" operator="lessThan" value="31716.5"/>
							<Node id="3" defaultChild="7">
								<SimplePredicate field="y4" operator="lessThan" value="56807.0"/>
								<Node id="7" defaultChild="15">
									<SimplePredicate field="y10" operator="lessThan" value="64796.0"/>
									<Node id="15" defaultChild="29">
										<SimplePredicate field="y0" operator="lessThan" value="25302.0"/>
										<Node id="29" defaultChild="51">
											<SimplePredicate field="y11" operator="lessThan" value="64817.0"/>
											<Node id="51" score="-0.025564617">
												<SimplePredicate field="y8" operator="lessThan" value="60105.0"/>
											</Node>
											<Node id="52" score="-0.009372858">
												<SimplePredicate field="y8" operator="greaterOrEqual" value="60105.0"/>
											</Node>
										</Node>
										<Node id="30" score="-0.044400003">
											<SimplePredicate field="y11" operator="greaterOrEqual" value="64817.0"/>
										</Node>
									</Node>
									<Node id="16" defaultChild="31">
										<SimplePredicate field="y0" operator="greaterOrEqual" value="25302.0"/>
										<Node id="31" score="-0.05090118">
											<SimplePredicate field="y2" operator="lessThan" value="40079.0"/>
										</Node>
										<Node id="32" score="-0.0174975">
											<SimplePredicate field="y2" operator="greaterOrEqual" value="40079.0"/>
										</Node>
									</Node>
								</Node>
								<Node id="8" score="-0.09071173">
									<SimplePredicate field="y10" operator="greaterOrEqual" value="64796.0"/>
								</Node>
							</Node>
							<Node id="4" defaultChild="9">
								<SimplePredicate field="y4" operator="greaterOrEqual" value="56807.0"/>
								<Node id="9" defaultChild="17">
									<SimplePredicate field="y3" operator="lessThan" value="56807.0"/>
									<Node id="17" defaultChild="33">
										<SimplePredicate field="y2" operator="lessThan" value="48830.0"/>
										<Node id="33" score="0.005352854">
											<SimplePredicate field="y2" operator="lessThan" value="26227.0"/>
										</Node>
										<Node id="34" defaultChild="53">
											<SimplePredicate field="y2" operator="greaterOrEqual" value="26227.0"/>
											<Node id="53" score="0.015541581">
												<SimplePredicate field="y10" operator="lessThan" value="64808.0"/>
											</Node>
											<Node id="54" score="0.009752305">
												<SimplePredicate field="y10" operator="greaterOrEqual" value="64808.0"/>
											</Node>
										</Node>
									</Node>
									<Node id="18" defaultChild="35">
										<SimplePredicate field="y2" operator="greaterOrEqual" value="48830.0"/>
										<Node id="35" score="0.0072899987">
											<SimplePredicate field="y6" operator="lessThan" value="57694.0"/>
										</Node>
										<Node id="36" score="-0.020639999">
											<SimplePredicate field="y6" operator="greaterOrEqual" value="57694.0"/>
										</Node>
									</Node>
								</Node>
								<Node id="10" defaultChild="19">
									<SimplePredicate field="y3" operator="greaterOrEqual" value="56807.0"/>
									<Node id="19" score="0.0066419994">
										<SimplePredicate field="y11" operator="lessThan" value="32414.5"/>
									</Node>
									<Node id="20" defaultChild="37">
										<SimplePredicate field="y11" operator="greaterOrEqual" value="32414.5"/>
										<Node id="37" defaultChild="55">
											<SimplePredicate field="y2" operator="lessThan" value="40318.0"/>
											<Node id="55" score="0.0137228565">
												<SimplePredicate field="y6" operator="lessThan" value="58797.0"/>
											</Node>
											<Node id="56" score="0.0055274963">
												<SimplePredicate field="y6" operator="greaterOrEqual" value="58797.0"/>
											</Node>
										</Node>
										<Node id="38" score="0.01808182">
											<SimplePredicate field="y2" operator="greaterOrEqual" value="40318.0"/>
										</Node>
									</Node>
								</Node>
							</Node>
						</Node>
						<Node id="2" defaultChild="5">
							<SimplePredicate field="e7" operator="greaterOrEqual" value="31716.5"/>
							<Node id="5" defaultChild="11">
								<SimplePredicate field="e5" operator="lessThan" value="64895.0"/>
								<Node id="11" defaultChild="21">
									<SimplePredicate field="e2" operator="lessThan" value="60180.0"/>
									<Node id="21" score="0.1255504">
										<SimplePredicate field="e7" operator="lessThan" value="64092.0"/>
									</Node>
									<Node id="22" defaultChild="39">
										<SimplePredicate field="e7" operator="greaterOrEqual" value="64092.0"/>
										<Node id="39" score="0.14474852">
											<SimplePredicate field="e7" operator="lessThan" value="65105.0"/>
										</Node>
										<Node id="40" score="0.12546721">
											<SimplePredicate field="e7" operator="greaterOrEqual" value="65105.0"/>
										</Node>
									</Node>
								</Node>
								<Node id="12" defaultChild="23">
									<SimplePredicate field="e2" operator="greaterOrEqual" value="60180.0"/>
									<Node id="23" defaultChild="41">
										<SimplePredicate field="y5" operator="lessThan" value="56807.0"/>
										<Node id="41" score="0.085675724">
											<SimplePredicate field="y10" operator="lessThan" value="64796.0"/>
										</Node>
										<Node id="42" defaultChild="57">
											<SimplePredicate field="y10" operator="greaterOrEqual" value="64796.0"/>
											<Node id="57" score="-0.008206364">
												<SimplePredicate field="y7" operator="lessThan" value="60696.0"/>
											</Node>
											<Node id="58" score="-0.061437">
												<SimplePredicate field="y7" operator="greaterOrEqual" value="60696.0"/>
											</Node>
										</Node>
									</Node>
									<Node id="24" score="0.13254838">
										<SimplePredicate field="y5" operator="greaterOrEqual" value="56807.0"/>
									</Node>
								</Node>
							</Node>
							<Node id="6" defaultChild="13">
								<SimplePredicate field="e5" operator="greaterOrEqual" value="64895.0"/>
								<Node id="13" defaultChild="25">
									<SimplePredicate field="e5" operator="lessThan" value="65003.0"/>
									<Node id="25" defaultChild="43">
										<SimplePredicate field="y5" operator="lessThan" value="56807.0"/>
										<Node id="43" defaultChild="59">
											<SimplePredicate field="y0" operator="lessThan" value="25302.0"/>
											<Node id="59" score="0.015960004">
												<SimplePredicate field="e2" operator="lessThan" value="37154.0"/>
											</Node>
											<Node id="60" score="6.644431E-4">
												<SimplePredicate field="e2" operator="greaterOrEqual" value="37154.0"/>
											</Node>
										</Node>
										<Node id="44" defaultChild="61">
											<SimplePredicate field="y0" operator="greaterOrEqual" value="25302.0"/>
											<Node id="61" score="0.034668">
												<SimplePredicate field="e2" operator="lessThan" value="37154.0"/>
											</Node>
											<Node id="62" score="0.01823">
												<SimplePredicate field="e2" operator="greaterOrEqual" value="37154.0"/>
											</Node>
										</Node>
									</Node>
									<Node id="26" defaultChild="45">
										<SimplePredicate field="y5" operator="greaterOrEqual" value="56807.0"/>
										<Node id="45" score="0.08702511">
											<SimplePredicate field="e2" operator="lessThan" value="37154.0"/>
										</Node>
										<Node id="46" defaultChild="63">
											<SimplePredicate field="e2" operator="greaterOrEqual" value="37154.0"/>
											<Node id="63" score="0.042828005">
												<SimplePredicate field="y4" operator="lessThan" value="56807.0"/>
											</Node>
											<Node id="64" score="0.068291835">
												<SimplePredicate field="y4" operator="greaterOrEqual" value="56807.0"/>
											</Node>
										</Node>
									</Node>
								</Node>
								<Node id="14" defaultChild="27">
									<SimplePredicate field="e5" operator="greaterOrEqual" value="65003.0"/>
									<Node id="27" defaultChild="47">
										<SimplePredicate field="y6" operator="lessThan" value="62602.0"/>
										<Node id="47" defaultChild="65">
											<SimplePredicate field="e7" operator="lessThan" value="65078.0"/>
											<Node id="65" score="0.08169369">
												<SimplePredicate field="y5" operator="lessThan" value="56807.0"/>
											</Node>
											<Node id="66" score="0.12295448">
												<SimplePredicate field="y5" operator="greaterOrEqual" value="56807.0"/>
											</Node>
										</Node>
										<Node id="48" score="0.13692503">
											<SimplePredicate field="e7" operator="greaterOrEqual" value="65078.0"/>
										</Node>
									</Node>
									<Node id="28" defaultChild="49">
										<SimplePredicate field="y6" operator="greaterOrEqual" value="62602.0"/>
										<Node id="49" defaultChild="67">
											<SimplePredicate field="e1" operator="lessThan" value="50192.5"/>
											<Node id="67" score="-0.077070005">
												<SimplePredicate field="e0" operator="lessThan" value="25281.0"/>
											</Node>
											<Node id="68" score="0.03027">
												<SimplePredicate field="e0" operator="greaterOrEqual" value="25281.0"/>
											</Node>
										</Node>
										<Node id="50" defaultChild="69">
											<SimplePredicate field="e1" operator="greaterOrEqual" value="50192.5"/>
											<Node id="69" score="0.12266">
												<SimplePredicate field="e0" operator="lessThan" value="25740.0"/>
											</Node>
											<Node id="70" score="0.060528">
												<SimplePredicate field="e0" operator="greaterOrEqual" value="25740.0"/>
											</Node>
										</Node>
									</Node>
								</Node>
							</Node>
						</Node>
					</Node>
				</TreeModel>
			</Segment>
			<Segment id="2">
				<True/>
				<TreeModel functionName="regression" missingValueStrategy="defaultChild" splitCharacteristic="binarySplit" x-mathContext="float">
					<MiningSchema>
						<MiningField name="e0"/>
						<MiningField name="e1"/>
						<MiningField name="e2"/>
						<MiningField name="e4"/>
						<MiningField name="e5"/>
						<MiningField name="e7"/>
						<MiningField name="y0"/>
						<MiningField name="y10"/>
						<MiningField name="y11"/>
						<MiningField name="y2"/>
						<MiningField name="y3"/>
						<MiningField name="y4"/>
						<MiningField name="y5"/>
						<MiningField name="y6"/>
						<MiningField name="y7"/>
						<MiningField name="y8"/>
					</MiningSchema>
					<Node id="0" defaultChild="1">
						<True/>
						<Node id="1" defaultChild="3">
							<SimplePredicate field="e7" operator="lessThan" value="31716.5"/>
							<Node id="3" defaultChild="7">
								<SimplePredicate field="y4" operator="lessThan" value="56807.0"/>
								<Node id="7" defaultChild="15">
									<SimplePredicate field="y10" operator="lessThan" value="64796.0"/>
									<Node id="15" defaultChild="29">
										<SimplePredicate field="y0" operator="lessThan" value="25302.0"/>
										<Node id="29" defaultChild="49">
											<SimplePredicate field="y11" operator="lessThan" value="64817.0"/>
											<Node id="49" score="-0.018485185">
												<SimplePredicate field="y8" operator="lessThan" value="60105.0"/>
											</Node>
											<Node id="50" score="-0.006962694">
												<SimplePredicate field="y8" operator="greaterOrEqual" value="60105.0"/>
											</Node>
										</Node>
										<Node id="30" score="-0.032982856">
											<SimplePredicate field="y11" operator="greaterOrEqual" value="64817.0"/>
										</Node>
									</Node>
									<Node id="16" defaultChild="31">
										<SimplePredicate field="y0" operator="greaterOrEqual" value="25302.0"/>
										<Node id="31" score="-0.04334737">
											<SimplePredicate field="y3" operator="lessThan" value="39151.0"/>
										</Node>
										<Node id="32" defaultChild="51">
											<SimplePredicate field="y3" operator="greaterOrEqual" value="39151.0"/>
											<Node id="51" score="-0.030145574">
												<SimplePredicate field="y2" operator="lessThan" value="40079.0"/>
											</Node>
											<Node id="52" score="-0.0135605605">
												<SimplePredicate field="y2" operator="greaterOrEqual" value="40079.0"/>
											</Node>
										</Node>
									</Node>
								</Node>
								<Node id="8" score="-0.063967414">
									<SimplePredicate field="y10" operator="greaterOrEqual" value="64796.0"/>
								</Node>
							</Node>
							<Node id="4" defaultChild="9">
								<SimplePredicate field="y4" operator="greaterOrEqual" value="56807.0"/>
								<Node id="9" defaultChild="17">
									<SimplePredicate field="y2" operator="lessThan" value="49758.0"/>
									<Node id="17" defaultChild="33">
										<SimplePredicate field="y2" operator="lessThan" value="40318.0"/>
										<Node id="33" defaultChild="53">
											<SimplePredicate field="y6" operator="lessThan" value="58797.0"/>
											<Node id="53" score="0.0039764056">
												<SimplePredicate field="y3" operator="lessThan" value="36097.0"/>
											</Node>
											<Node id="54" score="0.00951563">
												<SimplePredicate field="y3" operator="greaterOrEqual" value="36097.0"/>
											</Node>
										</Node>
										<Node id="34" score="0.0038139226">
											<SimplePredicate field="y6" operator="greaterOrEqual" value="58797.0"/>
										</Node>
									</Node>
									<Node id="18" score="0.01559653">
										<SimplePredicate field="y2" operator="greaterOrEqual" value="40318.0"/>
									</Node>
								</Node>
								<Node id="10" defaultChild="19">
									<SimplePredicate field="y2" operator="greaterOrEqual" value="49758.0"/>
									<Node id="19" defaultChild="35">
										<SimplePredicate field="y3" operator="lessThan" value="56807.0"/>
										<Node id="35" score="0.0056497473">
											<SimplePredicate field="y6" operator="lessThan" value="57694.0"/>
										</Node>
										<Node id="36" score="-0.015332575">
											<SimplePredicate field="y6" operator="greaterOrEqual" value="57694.0"/>
										</Node>
									</Node>
									<Node id="20" defaultChild="37">
										<SimplePredicate field="y3" operator="greaterOrEqual" value="56807.0"/>
										<Node id="37" score="0.0061734873">
											<SimplePredicate field="y2" operator="lessThan" value="56807.0"/>
										</Node>
										<Node id="38" defaultChild="55">
											<SimplePredicate field="y2" operator="greaterOrEqual" value="56807.0"/>
											<Node id="55" score="0.013570903">
												<SimplePredicate field="y10" operator="lessThan" value="64838.0"/>
											</Node>
											<Node id="56" score="0.0055405544">
												<SimplePredicate field="y10" operator="greaterOrEqual" value="64838.0"/>
											</Node>
										</Node>
									</Node>
								</Node>
							</Node>
						</Node>
						<Node id="2" defaultChild="5">
							<SimplePredicate field="e7" operator="greaterOrEqual" value="31716.5"/>
							<Node id="5" defaultChild="11">
								<SimplePredicate field="e5" operator="lessThan" value="64895.0"/>
								<Node id="11" defaultChild="21">
									<SimplePredicate field="e2" operator="lessThan" value="60180.0"/>
									<Node id="21" defaultChild="39">
										<SimplePredicate field="e4" operator="lessThan" value="62329.0"/>
										<Node id="39" defaultChild="57">
											<SimplePredicate field="e0" operator="lessThan" value="25251.0"/>
											<Node id="57" score="0.08073132">
												<SimplePredicate field="y5" operator="lessThan" value="56807.0"/>
											</Node>
											<Node id="58" score="0.09390791">
												<SimplePredicate field="y5" operator="greaterOrEqual" value="56807.0"/>
											</Node>
										</Node>
										<Node id="40" score="0.098839566">
											<SimplePredicate field="e0" operator="greaterOrEqual" value="25251.0"/>
										</Node>
									</Node>
									<Node id="22" score="0.105634496">
										<SimplePredicate field="e4" operator="greaterOrEqual" value="62329.0"/>
									</Node>
								</Node>
								<Node id="12" defaultChild="23">
									<SimplePredicate field="e2" operator="greaterOrEqual" value="60180.0"/>
									<Node id="23" defaultChild="41">
										<SimplePredicate field="y5" operator="lessThan" value="56807.0"/>
										<Node id="41" score="0.06180891">
											<SimplePredicate field="y10" operator="lessThan" value="64796.0"/>
										</Node>
										<Node id="42" defaultChild="59">
											<SimplePredicate field="y10" operator="greaterOrEqual" value="64796.0"/>
											<Node id="59" score="-0.005968264">
												<SimplePredicate field="y7" operator="lessThan" value="60696.0"/>
											</Node>
											<Node id="60" score="-0.04484901">
												<SimplePredicate field="y7" operator="greaterOrEqual" value="60696.0"/>
											</Node>
										</Node>
									</Node>
									<Node id="24" score="0.09370862">
										<SimplePredicate field="y5" operator="greaterOrEqual" value="56807.0"/>
									</Node>
								</Node>
							</Node>
							<Node id="6" defaultChild="13">
								<SimplePredicate field="e5" operator="greaterOrEqual" value="64895.0"/>
								<Node id="13" defaultChild="25">
									<SimplePredicate field="e5" operator="lessThan" value="65003.0"/>
									<Node id="25" defaultChild="43">
										<SimplePredicate field="y5" operator="lessThan" value="56807.0"/>
										<Node id="43" defaultChild="61">
											<SimplePredicate field="y6" operator="lessThan" value="61276.0"/>
											<Node id="61" score="0.023730796">
												<SimplePredicate field="e2" operator="lessThan" value="37154.0"/>
											</Node>
											<Node id="62" score="0.009838577">
												<SimplePredicate field="e2" operator="greaterOrEqual" value="37154.0"/>
											</Node>
										</Node>
										<Node id="44" defaultChild="63">
											<SimplePredicate field="y6" operator="greaterOrEqual" value="61276.0"/>
											<Node id="63" score="3.995227E-4">
												<SimplePredicate field="y0" operator="lessThan" value="25296.0"/>
											</Node>
											<Node id="64" score="-0.01127644">
												<SimplePredicate field="y0" operator="greaterOrEqual" value="25296.0"/>
											</Node>
										</Node>
									</Node>
									<Node id="26" defaultChild="45">
										<SimplePredicate field="y5" operator="greaterOrEqual" value="56807.0"/>
										<Node id="45" score="0.079243034">
											<SimplePredicate field="y2" operator="lessThan" value="26227.0"/>
										</Node>
										<Node id="46" defaultChild="65">
											<SimplePredicate field="y2" operator="greaterOrEqual" value="26227.0"/>
											<Node id="65" score="0.05835728">
												<SimplePredicate field="e2" operator="lessThan" value="37154.0"/>
											</Node>
											<Node id="66" score="0.04177408">
												<SimplePredicate field="e2" operator="greaterOrEqual" value="37154.0"/>
											</Node>
										</Node>
									</Node>
								</Node>
								<Node id="14" defaultChild="27">
									<SimplePredicate field="e5" operator="greaterOrEqual" value="65003.0"/>
									<Node id="27" defaultChild="47">
										<SimplePredicate field="e1" operator="lessThan" value="50192.5"/>
										<Node id="47" defaultChild="67">
											<SimplePredicate field="y6" operator="lessThan" value="62602.0"/>
											<Node id="67" score="0.059496287">
												<SimplePredicate field="e0" operator="lessThan" value="25281.0"/>
											</Node>
											<Node id="68" score="0.087435395">
												<SimplePredicate field="e0" operator="greaterOrEqual" value="25281.0"/>
											</Node>
										</Node>
										<Node id="48" defaultChild="69">
											<SimplePredicate field="y6" operator="greaterOrEqual" value="62602.0"/>
											<Node id="69" score="-0.0585732">
												<SimplePredicate field="e0" operator="lessThan" value="25281.0"/>
											</Node>
											<Node id="70" score="0.022198007">
												<SimplePredicate field="e0" operator="greaterOrEqual" value="25281.0"/>
											</Node>
										</Node>
									</Node>
									<Node id="28" score="0.09909384">
										<SimplePredicate field="e1" operator="greaterOrEqual" value="50192.5"/>
									</Node>
								</Node>
							</Node>
						</Node>
					</Node>
				</TreeModel>
			</Segment>
			<Segment id="3">
				<True/>
				<TreeModel functionName="regression" missingValueStrategy="defaultChild" splitCharacteristic="binarySplit" x-mathContext="float">
					<MiningSchema>
						<MiningField name="e0"/>
						<MiningField name="e1"/>
						<MiningField name="e2"/>
						<MiningField name="e3"/>
						<MiningField name="e4"/>
						<MiningField name="e5"/>
						<MiningField name="e6"/>
						<MiningField name="e7"/>
						<MiningField name="y0"/>
						<MiningField name="y10"/>
						<MiningField name="y11"/>
						<MiningField name="y2"/>
						<MiningField name="y3"/>
						<MiningField name="y4"/>
						<MiningField name="y5"/>
						<MiningField name="y6"/>
					</MiningSchema>
					<Node id="0" defaultChild="1">
						<True/>
						<Node id="1" defaultChild="3">
							<SimplePredicate field="e7" operator="lessThan" value="31716.5"/>
							<Node id="3" defaultChild="7">
								<SimplePredicate field="y4" operator="lessThan" value="56807.0"/>
								<Node id="7" defaultChild="15">
									<SimplePredicate field="y10" operator="lessThan" value="64796.0"/>
									<Node id="15" defaultChild="31">
										<SimplePredicate field="y4" operator="lessThan" value="48830.0"/>
										<Node id="31" score="0.0018074692">
											<SimplePredicate field="e1" operator="lessThan" value="50231.5"/>
										</Node>
										<Node id="32" defaultChild="55">
											<SimplePredicate field="e1" operator="greaterOrEqual" value="50231.5"/>
											<Node id="55" score="-0.0045525315">
												<SimplePredicate field="e1" operator="lessThan" value="50347.0"/>
											</Node>
											<Node id="56" score="0.0010724679">
												<SimplePredicate field="e1" operator="greaterOrEqual" value="50347.0"/>
											</Node>
										</Node>
									</Node>
									<Node id="16" defaultChild="33">
										<SimplePredicate field="y4" operator="greaterOrEqual" value="48830.0"/>
										<Node id="33" defaultChild="57">
											<SimplePredicate field="y0" operator="lessThan" value="25302.0"/>
											<Node id="57" score="-0.012913848">
												<SimplePredicate field="y11" operator="lessThan" value="64817.0"/>
											</Node>
											<Node id="58" score="-0.024501551">
												<SimplePredicate field="y11" operator="greaterOrEqual" value="64817.0"/>
											</Node>
										</Node>
										<Node id="34" defaultChild="59">
											<SimplePredicate field="y0" operator="greaterOrEqual" value="25302.0"/>
											<Node id="59" score="-0.031343486">
												<SimplePredicate field="y3" operator="lessThan" value="39151.0"/>
											</Node>
											<Node id="60" score="-0.020612927">
												<SimplePredicate field="y3" operator="greaterOrEqual" value="39151.0"/>
											</Node>
										</Node>
									</Node>
								</Node>
								<Node id="8" defaultChild="17">
									<SimplePredicate field="y10" operator="greaterOrEqual" value="64796.0"/>
									<Node id="17" defaultChild="35">
										<SimplePredicate field="y0" operator="lessThan" value="25302.0"/>
										<Node id="35" score="-0.045421083">
											<SimplePredicate field="y0" operator="lessThan" value="25296.0"/>
										</Node>
										<Node id="36" score="-0.019028638">
											<SimplePredicate field="y0" operator="greaterOrEqual" value="25296.0"/>
										</Node>
									</Node>
									<Node id="18" score="-0.049024027">
										<SimplePredicate field="y0" operator="greaterOrEqual" value="25302.0"/>
									</Node>
								</Node>
							</Node>
							<Node id="4" defaultChild="9">
								<SimplePredicate field="y4" operator="greaterOrEqual" value="56807.0"/>
								<Node id="9" defaultChild="19">
									<SimplePredicate field="y3" operator="lessThan" value="56807.0"/>
									<Node id="19" defaultChild="37">
										<SimplePredicate field="y2" operator="lessThan" value="48830.0"/>
										<Node id="37" defaultChild="61">
											<SimplePredicate field="y10" operator="lessThan" value="64808.0"/>
											<Node id="61" score="0.0037059144">
												<SimplePredicate field="y2" operator="lessThan" value="26227.0"/>
											</Node>
											<Node id="62" score="0.008132022">
												<SimplePredicate field="y2" operator="greaterOrEqual" value="26227.0"/>
											</Node>
										</Node>
										<Node id="38" defaultChild="63">
											<SimplePredicate field="y10" operator="greaterOrEqual" value="64808.0"/>
											<Node id="63" score="0.00576013">
												<SimplePredicate field="y3" operator="lessThan" value="48729.0"/>
											</Node>
											<Node id="64" score="8.096593E-4">
												<SimplePredicate field="y3" operator="greaterOrEqual" value="48729.0"/>
											</Node>
										</Node>
									</Node>
									<Node id="20" defaultChild="39">
										<SimplePredicate field="y2" operator="greaterOrEqual" value="48830.0"/>
										<Node id="39" defaultChild="65">
											<SimplePredicate field="y6" operator="lessThan" value="57694.0"/>
											<Node id="65" score="0.005162048">
												<SimplePredicate field="e1" operator="lessThan" value="50347.0"/>
											</Node>
											<Node id="66" score="0.001014036">
												<SimplePredicate field="e1" operator="greaterOrEqual" value="50347.0"/>
											</Node>
										</Node>
										<Node id="40" defaultChild="67">
											<SimplePredicate field="y6" operator="greaterOrEqual" value="57694.0"/>
											<Node id="67" score="-0.0055036717">
												<SimplePredicate field="y10" operator="lessThan" value="64808.0"/>
											</Node>
											<Node id="68" score="-0.014428673">
												<SimplePredicate field="y10" operator="greaterOrEqual" value="64808.0"/>
											</Node>
										</Node>
									</Node>
								</Node>
								<Node id="10" defaultChild="21">
									<SimplePredicate field="y3" operator="greaterOrEqual" value="56807.0"/>
									<Node id="21" defaultChild="41">
										<SimplePredicate field="y11" operator="lessThan" value="32414.5"/>
										<Node id="41" score="0.001532422">
											<SimplePredicate field="y2" operator="lessThan" value="45776.0"/>
										</Node>
										<Node id="42" score="0.00405454">
											<SimplePredicate field="y2" operator="greaterOrEqual" value="45776.0"/>
										</Node>
									</Node>
									<Node id="22" defaultChild="43">
										<SimplePredicate field="y11" operator="greaterOrEqual" value="32414.5"/>
										<Node id="43" score="0.006459211">
											<SimplePredicate field="y2" operator="lessThan" value="36097.0"/>
										</Node>
										<Node id="44" score="0.009153132">
											<SimplePredicate field="y2" operator="greaterOrEqual" value="36097.0"/>
										</Node>
									</Node>
								</Node>
							</Node>
						</Node>
						<Node id="2" defaultChild="5">
							<SimplePredicate field="e7" operator="greaterOrEqual" value="31716.5"/>
							<Node id="5" defaultChild="11">
								<SimplePredicate field="e5" operator="lessThan" value="64895.0"/>
								<Node id="11" defaultChild="23">
									<SimplePredicate field="e2" operator="lessThan" value="60180.0"/>
									<Node id="23" defaultChild="45">
										<SimplePredicate field="e4" operator="lessThan" value="62329.0"/>
										<Node id="45" defaultChild="69">
											<SimplePredicate field="e0" operator="lessThan" value="25251.0"/>
											<Node id="69" score="0.056761604">
												<SimplePredicate field="y5" operator="lessThan" value="56807.0"/>
											</Node>
											<Node id="70" score="0.06595737">
												<SimplePredicate field="y5" operator="greaterOrEqual" value="56807.0"/>
											</Node>
										</Node>
										<Node id="46" defaultChild="71">
											<SimplePredicate field="e0" operator="greaterOrEqual" value="25251.0"/>
											<Node id="71" score="0.07415852">
												<SimplePredicate field="e3" operator="lessThan" value="17622.0"/>
											</Node>
											<Node id="72" score="0.067684434">
												<SimplePredicate field="e3" operator="greaterOrEqual" value="17622.0"/>
											</Node>
										</Node>
									</Node>
									<Node id="24" score="0.07402956">
										<SimplePredicate field="e4" operator="greaterOrEqual" value="62329.0"/>
									</Node>
								</Node>
								<Node id="12" defaultChild="25">
									<SimplePredicate field="e2" operator="greaterOrEqual" value="60180.0"/>
									<Node id="25" defaultChild="47">
										<SimplePredicate field="y5" operator="lessThan" value="56807.0"/>
										<Node id="47" defaultChild="73">
											<SimplePredicate field="y10" operator="lessThan" value="64796.0"/>
											<Node id="73" score="0.031710774">
												<SimplePredicate field="y0" operator="lessThan" value="25302.0"/>
											</Node>
											<Node id="74" score="0.056478854">
												<SimplePredicate field="y0" operator="greaterOrEqual" value="25302.0"/>
											</Node>
										</Node>
										<Node id="48" defaultChild="75">
											<SimplePredicate field="y10" operator="greaterOrEqual" value="64796.0"/>
											<Node id="75" score="-0.041243665">
												<SimplePredicate field="y6" operator="lessThan" value="56879.0"/>
											</Node>
											<Node id="76" score="-0.0061741564">
												<SimplePredicate field="y6" operator="greaterOrEqual" value="56879.0"/>
											</Node>
										</Node>
									</Node>
									<Node id="26" score="0.0662498">
										<SimplePredicate field="y5" operator="greaterOrEqual" value="56807.0"/>
									</Node>
								</Node>
							</Node>
							<Node id="6" defaultChild="13">
								<SimplePredicate field="e5" operator="greaterOrEqual" value="64895.0"/>
								<Node id="13" defaultChild="27">
									<SimplePredicate field="e5" operator="lessThan" value="65003.0"/>
									<Node id="27" defaultChild="49">
										<SimplePredicate field="y4" operator="lessThan" value="56807.0"/>
										<Node id="49" defaultChild="77">
											<SimplePredicate field="y0" operator="lessThan" value="25302.0"/>
											<Node id="77" score="0.0066533494">
												<SimplePredicate field="e2" operator="lessThan" value="37154.0"/>
											</Node>
											<Node id="78" score="-0.0014810361">
												<SimplePredicate field="e2" operator="greaterOrEqual" value="37154.0"/>
											</Node>
										</Node>
										<Node id="50" defaultChild="79">
											<SimplePredicate field="y0" operator="greaterOrEqual" value="25302.0"/>
											<Node id="79" score="0.022060651">
												<SimplePredicate field="y10" operator="lessThan" value="64796.0"/>
											</Node>
											<Node id="80" score="0.00967907">
												<SimplePredicate field="y10" operator="greaterOrEqual" value="64796.0"/>
											</Node>
										</Node>
									</Node>
									<Node id="28" defaultChild="51">
										<SimplePredicate field="y4" operator="greaterOrEqual" value="56807.0"/>
										<Node id="51" score="0.057298817">
											<SimplePredicate field="y2" operator="lessThan" value="26227.0"/>
										</Node>
										<Node id="52" defaultChild="81">
											<SimplePredicate field="y2" operator="greaterOrEqual" value="26227.0"/>
											<Node id="81" score="0.044998556">
												<SimplePredicate field="e2" operator="lessThan" value="37154.0"/>
											</Node>
											<Node id="82" score="0.031381965">
												<SimplePredicate field="e2" operator="greaterOrEqual" value="37154.0"/>
											</Node>
										</Node>
									</Node>
								</Node>
								<Node id="14" defaultChild="29">
									<SimplePredicate field="e5" operator="greaterOrEqual" value="65003.0"/>
									<Node id="29" defaultChild="53">
										<SimplePredicate field="y5" operator="lessThan" value="56807.0"/>
										<Node id="53" defaultChild="83">
											<SimplePredicate field="e6" operator="lessThan" value="65078.0"/>
											<Node id="83" score="6.159368E-4">
												<SimplePredicate field="e0" operator="lessThan" value="25281.0"/>
											</Node>
											<Node id="84" score="0.049660925">
												<SimplePredicate field="e0" operator="greaterOrEqual" value="25281.0"/>
											</Node>
										</Node>
										<Node id="54" score="0.07022867">
											<SimplePredicate field="e6" operator="greaterOrEqual" value="65078.0"/>
										</Node>
									</Node>
									<Node id="30" score="0.0697661">
										<SimplePredicate field="y5" operator="greaterOrEqual" value="56807.0"/>
									</Node>
								</Node>
							</Node>
						</Node>
					</Node>
				</TreeModel>
			</Segment>
			<Segment id="4">
				<True/>
				<TreeModel functionName="regression" missingValueStrategy="defaultChild" splitCharacteristic="binarySplit" x-mathContext="float">
					<MiningSchema>
						<MiningField name="e0"/>
						<MiningField name="e1"/>
						<MiningField name="e2"/>
						<MiningField name="e4"/>
						<MiningField name="e5"/>
						<MiningField name="e6"/>
						<MiningField name="e7"/>
						<MiningField name="y0"/>
						<MiningField name="y10"/>
						<MiningField name="y11"/>
						<MiningField name="y2"/>
						<MiningField name="y3"/>
						<MiningField name="y4"/>
						<MiningField name="y5"/>
						<MiningField name="y6"/>
						<MiningField name="y7"/>
					</MiningSchema>
					<Node id="0" defaultChild="1">
						<True/>
						<Node id="1" defaultChild="3">
							<SimplePredicate field="e7" operator="lessThan" value="31716.5"/>
							<Node id="3" defaultChild="7">
								<SimplePredicate field="y4" operator="lessThan" value="56807.0"/>
								<Node id="7" defaultChild="15">
									<SimplePredicate field="y10" operator="lessThan" value="64796.0"/>
									<Node id="15" defaultChild="31">
										<SimplePredicate field="y4" operator="lessThan" value="48830.0"/>
										<Node id="31" score="0.0015363471">
											<SimplePredicate field="e1" operator="lessThan" value="50231.5"/>
										</Node>
										<Node id="32" defaultChild="59">
											<SimplePredicate field="e1" operator="greaterOrEqual" value="50231.5"/>
											<Node id="59" score="-0.00386965">
												<SimplePredicate field="e1" operator="lessThan" value="50347.0"/>
											</Node>
											<Node id="60" score="9.115979E-4">
												<SimplePredicate field="e1" operator="greaterOrEqual" value="50347.0"/>
											</Node>
										</Node>
									</Node>
									<Node id="16" defaultChild="33">
										<SimplePredicate field="y4" operator="greaterOrEqual" value="48830.0"/>
										<Node id="33" defaultChild="61">
											<SimplePredicate field="y2" operator="lessThan" value="40079.0"/>
											<Node id="61" score="-0.012541694">
												<SimplePredicate field="y0" operator="lessThan" value="25302.0"/>
											</Node>
											<Node id="62" score="-0.018766258">
												<SimplePredicate field="y0" operator="greaterOrEqual" value="25302.0"/>
											</Node>
										</Node>
										<Node id="34" score="-0.0058715255">
											<SimplePredicate field="y2" operator="greaterOrEqual" value="40079.0"/>
										</Node>
									</Node>
								</Node>
								<Node id="8" defaultChild="17">
									<SimplePredicate field="y10" operator="greaterOrEqual" value="64796.0"/>
									<Node id="17" defaultChild="35">
										<SimplePredicate field="y0" operator="lessThan" value="25302.0"/>
										<Node id="35" score="-0.033741374">
											<SimplePredicate field="y0" operator="lessThan" value="25296.0"/>
										</Node>
										<Node id="36" score="-0.013890907">
											<SimplePredicate field="y0" operator="greaterOrEqual" value="25296.0"/>
										</Node>
									</Node>
									<Node id="18" score="-0.034658853">
										<SimplePredicate field="y0" operator="greaterOrEqual" value="25302.0"/>
									</Node>
								</Node>
							</Node>
							<Node id="4" defaultChild="9">
								<SimplePredicate field="y4" operator="greaterOrEqual" value="56807.0"/>
								<Node id="9" defaultChild="19">
									<SimplePredicate field="y3" operator="lessThan" value="56807.0"/>
									<Node id="19" defaultChild="37">
										<SimplePredicate field="y2" operator="lessThan" value="48830.0"/>
										<Node id="37" defaultChild="63">
											<SimplePredicate field="y3" operator="lessThan" value="48729.0"/>
											<Node id="63" score="0.0031747906">
												<SimplePredicate field="y3" operator="lessThan" value="39151.0"/>
											</Node>
											<Node id="64" score="0.010013483">
												<SimplePredicate field="y3" operator="greaterOrEqual" value="39151.0"/>
											</Node>
										</Node>
										<Node id="38" defaultChild="65">
											<SimplePredicate field="y3" operator="greaterOrEqual" value="48729.0"/>
											<Node id="65" score="0.0015980803">
												<SimplePredicate field="y2" operator="lessThan" value="40318.0"/>
											</Node>
											<Node id="66" score="0.007851729">
												<SimplePredicate field="y2" operator="greaterOrEqual" value="40318.0"/>
											</Node>
										</Node>
									</Node>
									<Node id="20" defaultChild="39">
										<SimplePredicate field="y2" operator="greaterOrEqual" value="48830.0"/>
										<Node id="39" defaultChild="67">
											<SimplePredicate field="y6" operator="lessThan" value="57694.0"/>
											<Node id="67" score="0.0041296366">
												<SimplePredicate field="e1" operator="lessThan" value="50347.0"/>
											</Node>
											<Node id="68" score="8.619279E-4">
												<SimplePredicate field="e1" operator="greaterOrEqual" value="50347.0"/>
											</Node>
										</Node>
										<Node id="40" defaultChild="69">
											<SimplePredicate field="y6" operator="greaterOrEqual" value="57694.0"/>
											<Node id="69" score="-0.004265343">
												<SimplePredicate field="y10" operator="lessThan" value="64808.0"/>
											</Node>
											<Node id="70" score="-0.011182222">
												<SimplePredicate field="y10" operator="greaterOrEqual" value="64808.0"/>
											</Node>
										</Node>
									</Node>
								</Node>
								<Node id="10" defaultChild="21">
									<SimplePredicate field="y3" operator="greaterOrEqual" value="56807.0"/>
									<Node id="21" defaultChild="41">
										<SimplePredicate field="y11" operator="lessThan" value="32414.5"/>
										<Node id="41" defaultChild="71">
											<SimplePredicate field="y2" operator="lessThan" value="45776.0"/>
											<Node id="71" score="0.0014123322">
												<SimplePredicate field="e1" operator="lessThan" value="50347.0"/>
											</Node>
											<Node id="72" score="2.5675E-4">
												<SimplePredicate field="e1" operator="greaterOrEqual" value="50347.0"/>
											</Node>
										</Node>
										<Node id="42" score="0.0030119421">
											<SimplePredicate field="y2" operator="greaterOrEqual" value="45776.0"/>
										</Node>
									</Node>
									<Node id="22" defaultChild="43">
										<SimplePredicate field="y11" operator="greaterOrEqual" value="32414.5"/>
										<Node id="43" defaultChild="73">
											<SimplePredicate field="y2" operator="lessThan" value="40318.0"/>
											<Node id="73" score="0.0049585523">
												<SimplePredicate field="y6" operator="lessThan" value="58797.0"/>
											</Node>
											<Node id="74" score="0.0019723491">
												<SimplePredicate field="y6" operator="greaterOrEqual" value="58797.0"/>
											</Node>
										</Node>
										<Node id="44" defaultChild="75">
											<SimplePredicate field="y2" operator="greaterOrEqual" value="40318.0"/>
											<Node id="75" score="0.010282919">
												<SimplePredicate field="y2" operator="lessThan" value="41949.0"/>
											</Node>
											<Node id="76" score="0.0057505565">
												<SimplePredicate field="y2" operator="greaterOrEqual" value="41949.0"/>
											</Node>
										</Node>
									</Node>
								</Node>
							</Node>
						</Node>
						<Node id="2" defaultChild="5">
							<SimplePredicate field="e7" operator="greaterOrEqual" value="31716.5"/>
							<Node id="5" defaultChild="11">
								<SimplePredicate field="e5" operator="lessThan" value="64895.0"/>
								<Node id="11" defaultChild="23">
									<SimplePredicate field="e2" operator="lessThan" value="60180.0"/>
									<Node id="23" defaultChild="45">
										<SimplePredicate field="e4" operator="lessThan" value="62329.0"/>
										<Node id="45" defaultChild="77">
											<SimplePredicate field="y0" operator="lessThan" value="25302.0"/>
											<Node id="77" score="0.046798095">
												<SimplePredicate field="e5" operator="lessThan" value="60180.0"/>
											</Node>
											<Node id="78" score="0.03582985">
												<SimplePredicate field="e5" operator="greaterOrEqual" value="60180.0"/>
											</Node>
										</Node>
										<Node id="46" defaultChild="79">
											<SimplePredicate field="y0" operator="greaterOrEqual" value="25302.0"/>
											<Node id="79" score="0.04470185">
												<SimplePredicate field="e0" operator="lessThan" value="25251.0"/>
											</Node>
											<Node id="80" score="0.049502265">
												<SimplePredicate field="e0" operator="greaterOrEqual" value="25251.0"/>
											</Node>
										</Node>
									</Node>
									<Node id="24" score="0.05188055">
										<SimplePredicate field="e4" operator="greaterOrEqual" value="62329.0"/>
									</Node>
								</Node>
								<Node id="12" defaultChild="25">
									<SimplePredicate field="e2" operator="greaterOrEqual" value="60180.0"/>
									<Node id="25" defaultChild="47">
										<SimplePredicate field="y5" operator="lessThan" value="56807.0"/>
										<Node id="47" defaultChild="81">
											<SimplePredicate field="y7" operator="lessThan" value="60696.0"/>
											<Node id="81" score="-0.02417196">
												<SimplePredicate field="y6" operator="lessThan" value="56879.0"/>
											</Node>
											<Node id="82" score="0.04063077">
												<SimplePredicate field="y6" operator="greaterOrEqual" value="56879.0"/>
											</Node>
										</Node>
										<Node id="48" defaultChild="83">
											<SimplePredicate field="y7" operator="greaterOrEqual" value="60696.0"/>
											<Node id="83" score="-0.035107292">
												<SimplePredicate field="y10" operator="lessThan" value="64838.0"/>
											</Node>
											<Node id="84" score="0.0026190253">
												<SimplePredicate field="y10" operator="greaterOrEqual" value="64838.0"/>
											</Node>
										</Node>
									</Node>
									<Node id="26" defaultChild="49">
										<SimplePredicate field="y5" operator="greaterOrEqual" value="56807.0"/>
										<Node id="49" score="0.028685713">
											<SimplePredicate field="y4" operator="lessThan" value="56807.0"/>
										</Node>
										<Node id="50" score="0.049569685">
											<SimplePredicate field="y4" operator="greaterOrEqual" value="56807.0"/>
										</Node>
									</Node>
								</Node>
							</Node>
							<Node id="6" defaultChild="13">
								<SimplePredicate field="e5" operator="greaterOrEqual" value="64895.0"/>
								<Node id="13" defaultChild="27">
									<SimplePredicate field="e5" operator="lessThan" value="65003.0"/>
									<Node id="27" defaultChild="51">
										<SimplePredicate field="y4" operator="lessThan" value="56807.0"/>
										<Node id="51" score="0.03813951">
											<SimplePredicate field="y2" operator="lessThan" value="18011.0"/>
										</Node>
										<Node id="52" defaultChild="85">
											<SimplePredicate field="y2" operator="greaterOrEqual" value="18011.0"/>
											<Node id="85" score="0.0039564515">
												<SimplePredicate field="y3" operator="lessThan" value="39151.0"/>
											</Node>
											<Node id="86" score="0.01593603">
												<SimplePredicate field="y3" operator="greaterOrEqual" value="39151.0"/>
											</Node>
										</Node>
									</Node>
									<Node id="28" defaultChild="53">
										<SimplePredicate field="y4" operator="greaterOrEqual" value="56807.0"/>
										<Node id="53" score="0.04143145">
											<SimplePredicate field="y2" operator="lessThan" value="26227.0"/>
										</Node>
										<Node id="54" defaultChild="87">
											<SimplePredicate field="y2" operator="greaterOrEqual" value="26227.0"/>
											<Node id="87" score="0.007999137">
												<SimplePredicate field="y3" operator="lessThan" value="39151.0"/>
											</Node>
											<Node id="88" score="0.026804915">
												<SimplePredicate field="y3" operator="greaterOrEqual" value="39151.0"/>
											</Node>
										</Node>
									</Node>
								</Node>
								<Node id="14" defaultChild="29">
									<SimplePredicate field="e5" operator="greaterOrEqual" value="65003.0"/>
									<Node id="29" defaultChild="55">
										<SimplePredicate field="y7" operator="lessThan" value="60744.0"/>
										<Node id="55" defaultChild="89">
											<SimplePredicate field="y6" operator="lessThan" value="56879.0"/>
											<Node id="89" score="0.0077065597">
												<SimplePredicate field="e7" operator="lessThan" value="65078.0"/>
											</Node>
											<Node id="90" score="0.034021296">
												<SimplePredicate field="e7" operator="greaterOrEqual" value="65078.0"/>
											</Node>
										</Node>
										<Node id="56" defaultChild="91">
											<SimplePredicate field="y6" operator="greaterOrEqual" value="56879.0"/>
											<Node id="91" score="0.04564276">
												<SimplePredicate field="e6" operator="lessThan" value="65078.0"/>
											</Node>
											<Node id="92" score="0.053932775">
												<SimplePredicate field="e6" operator="greaterOrEqual" value="65078.0"/>
											</Node>
										</Node>
									</Node>
									<Node id="30" defaultChild="57">
										<SimplePredicate field="y7" operator="greaterOrEqual" value="60744.0"/>
										<Node id="57" defaultChild="93">
											<SimplePredicate field="e7" operator="lessThan" value="65078.0"/>
											<Node id="93" score="-0.030568862">
												<SimplePredicate field="e0" operator="lessThan" value="25507.5"/>
											</Node>
											<Node id="94" score="0.019818056">
												<SimplePredicate field="e0" operator="greaterOrEqual" value="25507.5"/>
											</Node>
										</Node>
										<Node id="58" defaultChild="95">
											<SimplePredicate field="e7" operator="greaterOrEqual" value="65078.0"/>
											<Node id="95" score="0.023151184">
												<SimplePredicate field="e6" operator="lessThan" value="65078.0"/>
											</Node>
											<Node id="96" score="0.04889379">
												<SimplePredicate field="e6" operator="greaterOrEqual" value="65078.0"/>
											</Node>
										</Node>
									</Node>
								</Node>
							</Node>
						</Node>
					</Node>
				</TreeModel>
			</Segment>
			<Segment id="5">
				<True/>
				<TreeModel functionName="regression" missingValueStrategy="defaultChild" splitCharacteristic="binarySplit" x-mathContext="float">
					<MiningSchema>
						<MiningField name="e0"/>
						<MiningField name="e1"/>
						<MiningField name="e2"/>
						<MiningField name="e3"/>
						<MiningField name="e4"/>
						<MiningField name="e5"/>
						<MiningField name="e6"/>
						<MiningField name="e7"/>
						<MiningField name="y0"/>
						<MiningField name="y10"/>
						<MiningField name="y11"/>
						<MiningField name="y2"/>
						<MiningField name="y3"/>
						<MiningField name="y4"/>
						<MiningField name="y5"/>
						<MiningField name="y6"/>
						<MiningField name="y7"/>
					</MiningSchema>
					<Node id="0" defaultChild="1">
						<True/>
						<Node id="1" defaultChild="3">
							<SimplePredicate field="e7" operator="lessThan" value="31716.5"/>
							<Node id="3" defaultChild="7">
								<SimplePredicate field="y4" operator="lessThan" value="56807.0"/>
								<Node id="7" defaultChild="15">
									<SimplePredicate field="y10" operator="lessThan" value="64796.0"/>
									<Node id="15" defaultChild="31">
										<SimplePredicate field="y11" operator="lessThan" value="64838.0"/>
										<Node id="31" defaultChild="57">
											<SimplePredicate field="y11" operator="lessThan" value="64817.0"/>
											<Node id="57" score="-0.004973082">
												<SimplePredicate field="y0" operator="lessThan" value="25302.0"/>
											</Node>
											<Node id="58" score="-0.014535124">
												<SimplePredicate field="y0" operator="greaterOrEqual" value="25302.0"/>
											</Node>
										</Node>
										<Node id="32" defaultChild="59">
											<SimplePredicate field="y11" operator="greaterOrEqual" value="64817.0"/>
											<Node id="59" score="-0.012414127">
												<SimplePredicate field="y0" operator="lessThan" value="25302.0"/>
											</Node>
											<Node id="60" score="0.0016673749">
												<SimplePredicate field="y0" operator="greaterOrEqual" value="25302.0"/>
											</Node>
										</Node>
									</Node>
									<Node id="16" score="-0.018619023">
										<SimplePredicate field="y11" operator="greaterOrEqual" value="64838.0"/>
									</Node>
								</Node>
								<Node id="8" defaultChild="17">
									<SimplePredicate field="y10" operator="greaterOrEqual" value="64796.0"/>
									<Node id="17" defaultChild="33">
										<SimplePredicate field="y10" operator="lessThan" value="64817.0"/>
										<Node id="33" score="-0.027413437">
											<SimplePredicate field="y6" operator="lessThan" value="56879.0"/>
										</Node>
										<Node id="34" defaultChild="61">
											<SimplePredicate field="y6" operator="greaterOrEqual" value="56879.0"/>
											<Node id="61" score="-0.0066956826">
												<SimplePredicate field="y7" operator="lessThan" value="60696.0"/>
											</Node>
											<Node id="62" score="-0.020553375">
												<SimplePredicate field="y7" operator="greaterOrEqual" value="60696.0"/>
											</Node>
										</Node>
									</Node>
									<Node id="18" score="-0.028462175">
										<SimplePredicate field="y10" operator="greaterOrEqual" value="64817.0"/>
									</Node>
								</Node>
							</Node>
							<Node id="4" defaultChild="9">
								<SimplePredicate field="y4" operator="greaterOrEqual" value="56807.0"/>
								<Node id="9" defaultChild="19">
									<SimplePredicate field="e1" operator="lessThan" value="50231.5"/>
									<Node id="19" score="9.5479493E-4">
										<SimplePredicate field="y2" operator="lessThan" value="26227.0"/>
									</Node>
									<Node id="20" defaultChild="35">
										<SimplePredicate field="y2" operator="greaterOrEqual" value="26227.0"/>
										<Node id="35" score="0.0068494533">
											<SimplePredicate field="y7" operator="lessThan" value="58797.0"/>
										</Node>
										<Node id="36" defaultChild="63">
											<SimplePredicate field="y7" operator="greaterOrEqual" value="58797.0"/>
											<Node id="63" score="-0.0039574956">
												<SimplePredicate field="y4" operator="lessThan" value="57281.0"/>
											</Node>
											<Node id="64" score="0.0046650823">
												<SimplePredicate field="y4" operator="greaterOrEqual" value="57281.0"/>
											</Node>
										</Node>
									</Node>
								</Node>
								<Node id="10" defaultChild="21">
									<SimplePredicate field="e1" operator="greaterOrEqual" value="50231.5"/>
									<Node id="21" defaultChild="37">
										<SimplePredicate field="y3" operator="lessThan" value="56807.0"/>
										<Node id="37" defaultChild="65">
											<SimplePredicate field="y2" operator="lessThan" value="48830.0"/>
											<Node id="65" score="0.0036676005">
												<SimplePredicate field="y3" operator="lessThan" value="48729.0"/>
											</Node>
											<Node id="66" score="8.868401E-4">
												<SimplePredicate field="y3" operator="greaterOrEqual" value="48729.0"/>
											</Node>
										</Node>
										<Node id="38" defaultChild="67">
											<SimplePredicate field="y2" operator="greaterOrEqual" value="48830.0"/>
											<Node id="67" score="0.0022952796">
												<SimplePredicate field="y6" operator="lessThan" value="57694.0"/>
											</Node>
											<Node id="68" score="-0.0072029936">
												<SimplePredicate field="y6" operator="greaterOrEqual" value="57694.0"/>
											</Node>
										</Node>
									</Node>
									<Node id="22" defaultChild="39">
										<SimplePredicate field="y3" operator="greaterOrEqual" value="56807.0"/>
										<Node id="39" defaultChild="69">
											<SimplePredicate field="y2" operator="lessThan" value="56807.0"/>
											<Node id="69" score="0.0032136282">
												<SimplePredicate field="y2" operator="lessThan" value="49758.0"/>
											</Node>
											<Node id="70" score="2.2714223E-4">
												<SimplePredicate field="y2" operator="greaterOrEqual" value="49758.0"/>
											</Node>
										</Node>
										<Node id="40" defaultChild="71">
											<SimplePredicate field="y2" operator="greaterOrEqual" value="56807.0"/>
											<Node id="71" score="0.00520978">
												<SimplePredicate field="y10" operator="lessThan" value="64838.0"/>
											</Node>
											<Node id="72" score="0.0020101967">
												<SimplePredicate field="y10" operator="greaterOrEqual" value="64838.0"/>
											</Node>
										</Node>
									</Node>
								</Node>
							</Node>
						</Node>
						<Node id="2" defaultChild="5">
							<SimplePredicate field="e7" operator="greaterOrEqual" value="31716.5"/>
							<Node id="5" defaultChild="11">
								<SimplePredicate field="e5" operator="lessThan" value="64895.0"/>
								<Node id="11" defaultChild="23">
									<SimplePredicate field="e2" operator="lessThan" value="60180.0"/>
									<Node id="23" defaultChild="41">
										<SimplePredicate field="e7" operator="lessThan" value="64092.0"/>
										<Node id="41" defaultChild="73">
											<SimplePredicate field="y4" operator="lessThan" value="56807.0"/>
											<Node id="73" score="0.013617133">
												<SimplePredicate field="y4" operator="lessThan" value="56227.0"/>
											</Node>
											<Node id="74" score="0.025251685">
												<SimplePredicate field="y4" operator="greaterOrEqual" value="56227.0"/>
											</Node>
										</Node>
										<Node id="42" score="0.036483694">
											<SimplePredicate field="y4" operator="greaterOrEqual" value="56807.0"/>
										</Node>
									</Node>
									<Node id="24" defaultChild="43">
										<SimplePredicate field="e7" operator="greaterOrEqual" value="64092.0"/>
										<Node id="43" defaultChild="75">
											<SimplePredicate field="e4" operator="lessThan" value="62329.0"/>
											<Node id="75" score="0.037450816">
												<SimplePredicate field="e3" operator="lessThan" value="17622.0"/>
											</Node>
											<Node id="76" score="0.032803066">
												<SimplePredicate field="e3" operator="greaterOrEqual" value="17622.0"/>
											</Node>
										</Node>
										<Node id="44" score="0.036358338">
											<SimplePredicate field="e4" operator="greaterOrEqual" value="62329.0"/>
										</Node>
									</Node>
								</Node>
								<Node id="12" defaultChild="25">
									<SimplePredicate field="e2" operator="greaterOrEqual" value="60180.0"/>
									<Node id="25" defaultChild="45">
										<SimplePredicate field="y5" operator="lessThan" value="56807.0"/>
										<Node id="45" defaultChild="77">
											<SimplePredicate field="y6" operator="lessThan" value="57694.0"/>
											<Node id="77" score="-0.017826822">
												<SimplePredicate field="y6" operator="lessThan" value="56879.0"/>
											</Node>
											<Node id="78" score="0.031659376">
												<SimplePredicate field="y6" operator="greaterOrEqual" value="56879.0"/>
											</Node>
										</Node>
										<Node id="46" defaultChild="79">
											<SimplePredicate field="y6" operator="greaterOrEqual" value="57694.0"/>
											<Node id="79" score="-0.010438759">
												<SimplePredicate field="y6" operator="lessThan" value="61276.0"/>
											</Node>
											<Node id="80" score="-0.03300781">
												<SimplePredicate field="y6" operator="greaterOrEqual" value="61276.0"/>
											</Node>
										</Node>
									</Node>
									<Node id="26" defaultChild="47">
										<SimplePredicate field="y5" operator="greaterOrEqual" value="56807.0"/>
										<Node id="47" defaultChild="81">
											<SimplePredicate field="y3" operator="lessThan" value="56807.0"/>
											<Node id="81" score="0.028372537">
												<SimplePredicate field="y2" operator="lessThan" value="41949.0"/>
											</Node>
											<Node id="82" score="0.014788682">
												<SimplePredicate field="y2" operator="greaterOrEqual" value="41949.0"/>
											</Node>
										</Node>
										<Node id="48" score="0.03905958">
											<SimplePredicate field="y3" operator="greaterOrEqual" value="56807.0"/>
										</Node>
									</Node>
								</Node>
							</Node>
							<Node id="6" defaultChild="13">
								<SimplePredicate field="e5" operator="greaterOrEqual" value="64895.0"/>
								<Node id="13" defaultChild="27">
									<SimplePredicate field="e5" operator="lessThan" value="65003.0"/>
									<Node id="27" defaultChild="49">
										<SimplePredicate field="y4" operator="lessThan" value="56807.0"/>
										<Node id="49" score="0.029558118">
											<SimplePredicate field="y2" operator="lessThan" value="18011.0"/>
										</Node>
										<Node id="50" defaultChild="83">
											<SimplePredicate field="y2" operator="greaterOrEqual" value="18011.0"/>
											<Node id="83" score="-0.009742278">
												<SimplePredicate field="y4" operator="lessThan" value="56227.0"/>
											</Node>
											<Node id="84" score="0.005983938">
												<SimplePredicate field="y4" operator="greaterOrEqual" value="56227.0"/>
											</Node>
										</Node>
									</Node>
									<Node id="28" defaultChild="51">
										<SimplePredicate field="y4" operator="greaterOrEqual" value="56807.0"/>
										<Node id="51" score="0.026097974">
											<SimplePredicate field="e2" operator="lessThan" value="37154.0"/>
										</Node>
										<Node id="52" defaultChild="85">
											<SimplePredicate field="e2" operator="greaterOrEqual" value="37154.0"/>
											<Node id="85" score="0.025932638">
												<SimplePredicate field="y2" operator="lessThan" value="26227.0"/>
											</Node>
											<Node id="86" score="0.014561181">
												<SimplePredicate field="y2" operator="greaterOrEqual" value="26227.0"/>
											</Node>
										</Node>
									</Node>
								</Node>
								<Node id="14" defaultChild="29">
									<SimplePredicate field="e5" operator="greaterOrEqual" value="65003.0"/>
									<Node id="29" defaultChild="53">
										<SimplePredicate field="y6" operator="lessThan" value="62602.0"/>
										<Node id="53" defaultChild="87">
											<SimplePredicate field="y4" operator="lessThan" value="56807.0"/>
											<Node id="87" score="0.032727834">
												<SimplePredicate field="y10" operator="lessThan" value="64796.0"/>
											</Node>
											<Node id="88" score="0.0189006">
												<SimplePredicate field="y10" operator="greaterOrEqual" value="64796.0"/>
											</Node>
										</Node>
										<Node id="54" defaultChild="89">
											<SimplePredicate field="y4" operator="greaterOrEqual" value="56807.0"/>
											<Node id="89" score="0.038146682">
												<SimplePredicate field="y2" operator="lessThan" value="36097.0"/>
											</Node>
											<Node id="90" score="0.03320462">
												<SimplePredicate field="y2" operator="greaterOrEqual" value="36097.0"/>
											</Node>
										</Node>
									</Node>
									<Node id="30" defaultChild="55">
										<SimplePredicate field="y6" operator="greaterOrEqual" value="62602.0"/>
										<Node id="55" defaultChild="91">
											<SimplePredicate field="e6" operator="lessThan" value="65078.0"/>
											<Node id="91" score="-0.037326932">
												<SimplePredicate field="e0" operator="lessThan" value="25281.0"/>
											</Node>
											<Node id="92" score="-4.024552E-5">
												<SimplePredicate field="e0" operator="greaterOrEqual" value="25281.0"/>
											</Node>
										</Node>
										<Node id="56" score="0.031759642">
											<SimplePredicate field="e6" operator="greaterOrEqual" value="65078.0"/>
										</Node>
									</Node>
								</Node>
							</Node>
						</Node>
					</Node>
				</TreeModel>
			</Segment>
			<Segment id="6">
				<True/>
				<TreeModel functionName="regression" missingValueStrategy="defaultChild" splitCharacteristic="binarySplit" x-mathContext="float">
					<MiningSchema>
						<MiningField name="e0"/>
						<MiningField name="e1"/>
						<MiningField name="e2"/>
						<MiningField name="e4"/>
						<MiningField name="e5"/>
						<MiningField name="e7"/>
						<MiningField name="y0"/>
						<MiningField name="y10"/>
						<MiningField name="y11"/>
						<MiningField name="y2"/>
						<MiningField name="y3"/>
						<MiningField name="y4"/>
						<MiningField name="y5"/>
						<MiningField name="y6"/>
						<MiningField name="y7"/>
					</MiningSchema>
					<Node id="0" defaultChild="1">
						<True/>
						<Node id="1" defaultChild="3">
							<SimplePredicate field="e7" operator="lessThan" value="31716.5"/>
							<Node id="3" defaultChild="7">
								<SimplePredicate field="y4" operator="lessThan" value="56807.0"/>
								<Node id="7" defaultChild="15">
									<SimplePredicate field="y10" operator="lessThan" value="64796.0"/>
									<Node id="15" defaultChild="31">
										<SimplePredicate field="y4" operator="lessThan" value="48830.0"/>
										<Node id="31" score="0.0020518587">
											<SimplePredicate field="e1" operator="lessThan" value="50231.5"/>
										</Node>
										<Node id="32" defaultChild="59">
											<SimplePredicate field="e1" operator="greaterOrEqual" value="50231.5"/>
											<Node id="59" score="-0.0025432394">
												<SimplePredicate field="e1" operator="lessThan" value="50347.0"/>
											</Node>
											<Node id="60" score="0.0015208215">
												<SimplePredicate field="e1" operator="greaterOrEqual" value="50347.0"/>
											</Node>
										</Node>
									</Node>
									<Node id="16" defaultChild="33">
										<SimplePredicate field="y4" operator="greaterOrEqual" value="48830.0"/>
										<Node id="33" defaultChild="61">
											<SimplePredicate field="y11" operator="lessThan" value="64838.0"/>
											<Node id="61" score="-0.009050281">
												<SimplePredicate field="y6" operator="lessThan" value="57281.0"/>
											</Node>
											<Node id="62" score="-0.0033684233">
												<SimplePredicate field="y6" operator="greaterOrEqual" value="57281.0"/>
											</Node>
										</Node>
										<Node id="34" score="-0.013831273">
											<SimplePredicate field="y11" operator="greaterOrEqual" value="64838.0"/>
										</Node>
									</Node>
								</Node>
								<Node id="8" defaultChild="17">
									<SimplePredicate field="y10" operator="greaterOrEqual" value="64796.0"/>
									<Node id="17" defaultChild="35">
										<SimplePredicate field="y10" operator="lessThan" value="64838.0"/>
										<Node id="35" score="-0.019622248">
											<SimplePredicate field="y6" operator="lessThan" value="56879.0"/>
										</Node>
										<Node id="36" defaultChild="63">
											<SimplePredicate field="y6" operator="greaterOrEqual" value="56879.0"/>
											<Node id="63" score="-0.004841492">
												<SimplePredicate field="y7" operator="lessThan" value="60696.0"/>
											</Node>
											<Node id="64" score="-0.016283138">
												<SimplePredicate field="y7" operator="greaterOrEqual" value="60696.0"/>
											</Node>
										</Node>
									</Node>
									<Node id="18" score="-0.028359564">
										<SimplePredicate field="y10" operator="greaterOrEqual" value="64838.0"/>
									</Node>
								</Node>
							</Node>
							<Node id="4" defaultChild="9">
								<SimplePredicate field="y4" operator="greaterOrEqual" value="56807.0"/>
								<Node id="9" defaultChild="19">
									<SimplePredicate field="y7" operator="lessThan" value="58797.0"/>
									<Node id="19" defaultChild="37">
										<SimplePredicate field="e1" operator="lessThan" value="50231.5"/>
										<Node id="37" defaultChild="65">
											<SimplePredicate field="y2" operator="lessThan" value="26227.0"/>
											<Node id="65" score="0.0014452816">
												<SimplePredicate field="y3" operator="lessThan" value="45944.0"/>
											</Node>
											<Node id="66" score="1.333952E-5">
												<SimplePredicate field="y3" operator="greaterOrEqual" value="45944.0"/>
											</Node>
										</Node>
										<Node id="38" defaultChild="67">
											<SimplePredicate field="y2" operator="greaterOrEqual" value="26227.0"/>
											<Node id="67" score="0.0013029814">
												<SimplePredicate field="y3" operator="lessThan" value="39151.0"/>
											</Node>
											<Node id="68" score="0.005218962">
												<SimplePredicate field="y3" operator="greaterOrEqual" value="39151.0"/>
											</Node>
										</Node>
									</Node>
									<Node id="20" defaultChild="39">
										<SimplePredicate field="e1" operator="greaterOrEqual" value="50231.5"/>
										<Node id="39" defaultChild="69">
											<SimplePredicate field="y2" operator="lessThan" value="38448.0"/>
											<Node id="69" score="0.0013249004">
												<SimplePredicate field="y3" operator="lessThan" value="39151.0"/>
											</Node>
											<Node id="70" score="0.0037833054">
												<SimplePredicate field="y3" operator="greaterOrEqual" value="39151.0"/>
											</Node>
										</Node>
										<Node id="40" defaultChild="71">
											<SimplePredicate field="y2" operator="greaterOrEqual" value="38448.0"/>
											<Node id="71" score="-0.0012148322">
												<SimplePredicate field="y2" operator="lessThan" value="40318.0"/>
											</Node>
											<Node id="72" score="0.0020945396">
												<SimplePredicate field="y2" operator="greaterOrEqual" value="40318.0"/>
											</Node>
										</Node>
									</Node>
								</Node>
								<Node id="10" defaultChild="21">
									<SimplePredicate field="y7" operator="greaterOrEqual" value="58797.0"/>
									<Node id="21" defaultChild="41">
										<SimplePredicate field="y4" operator="lessThan" value="57281.0"/>
										<Node id="41" defaultChild="73">
											<SimplePredicate field="y10" operator="lessThan" value="64808.0"/>
											<Node id="73" score="-4.951358E-4">
												<SimplePredicate field="e1" operator="lessThan" value="50231.5"/>
											</Node>
											<Node id="74" score="-0.0022410841">
												<SimplePredicate field="e1" operator="greaterOrEqual" value="50231.5"/>
											</Node>
										</Node>
										<Node id="42" score="-0.007288961">
											<SimplePredicate field="y10" operator="greaterOrEqual" value="64808.0"/>
										</Node>
									</Node>
									<Node id="22" defaultChild="43">
										<SimplePredicate field="y4" operator="greaterOrEqual" value="57281.0"/>
										<Node id="43" defaultChild="75">
											<SimplePredicate field="y2" operator="lessThan" value="36097.0"/>
											<Node id="75" score="-0.0011686921">
												<SimplePredicate field="y3" operator="lessThan" value="36097.0"/>
											</Node>
											<Node id="76" score="0.001331121">
												<SimplePredicate field="y3" operator="greaterOrEqual" value="36097.0"/>
											</Node>
										</Node>
										<Node id="44" defaultChild="77">
											<SimplePredicate field="y2" operator="greaterOrEqual" value="36097.0"/>
											<Node id="77" score="0.0027221527">
												<SimplePredicate field="y3" operator="lessThan" value="57281.0"/>
											</Node>
											<Node id="78" score="0.0047237887">
												<SimplePredicate field="y3" operator="greaterOrEqual" value="57281.0"/>
											</Node>
										</Node>
									</Node>
								</Node>
							</Node>
						</Node>
						<Node id="2" defaultChild="5">
							<SimplePredicate field="e7" operator="greaterOrEqual" value="31716.5"/>
							<Node id="5" defaultChild="11">
								<SimplePredicate field="e5" operator="lessThan" value="64895.0"/>
								<Node id="11" defaultChild="23">
									<SimplePredicate field="e2" operator="lessThan" value="60180.0"/>
									<Node id="23" defaultChild="45">
										<SimplePredicate field="e4" operator="lessThan" value="54815.0"/>
										<Node id="45" defaultChild="79">
											<SimplePredicate field="e5" operator="lessThan" value="54354.0"/>
											<Node id="79" score="0.022629602">
												<SimplePredicate field="y4" operator="lessThan" value="56807.0"/>
											</Node>
											<Node id="80" score="0.026207784">
												<SimplePredicate field="y4" operator="greaterOrEqual" value="56807.0"/>
											</Node>
										</Node>
										<Node id="46" defaultChild="81">
											<SimplePredicate field="e5" operator="greaterOrEqual" value="54354.0"/>
											<Node id="81" score="0.010242406">
												<SimplePredicate field="y4" operator="lessThan" value="39151.0"/>
											</Node>
											<Node id="82" score="0.020220466">
												<SimplePredicate field="y4" operator="greaterOrEqual" value="39151.0"/>
											</Node>
										</Node>
									</Node>
									<Node id="24" defaultChild="47">
										<SimplePredicate field="e4" operator="greaterOrEqual" value="54815.0"/>
										<Node id="47" defaultChild="83">
											<SimplePredicate field="y0" operator="lessThan" value="25302.0"/>
											<Node id="83" score="0.024107454">
												<SimplePredicate field="e2" operator="lessThan" value="54815.0"/>
											</Node>
											<Node id="84" score="0.014357919">
												<SimplePredicate field="e2" operator="greaterOrEqual" value="54815.0"/>
											</Node>
										</Node>
										<Node id="48" score="0.02579499">
											<SimplePredicate field="y0" operator="greaterOrEqual" value="25302.0"/>
										</Node>
									</Node>
								</Node>
								<Node id="12" defaultChild="25">
									<SimplePredicate field="e2" operator="greaterOrEqual" value="60180.0"/>
									<Node id="25" defaultChild="49">
										<SimplePredicate field="y5" operator="lessThan" value="56807.0"/>
										<Node id="49" defaultChild="85">
											<SimplePredicate field="y6" operator="lessThan" value="57694.0"/>
											<Node id="85" score="-0.0131472815">
												<SimplePredicate field="y6" operator="lessThan" value="56879.0"/>
											</Node>
											<Node id="86" score="0.022755178">
												<SimplePredicate field="y6" operator="greaterOrEqual" value="56879.0"/>
											</Node>
										</Node>
										<Node id="50" defaultChild="87">
											<SimplePredicate field="y6" operator="greaterOrEqual" value="57694.0"/>
											<Node id="87" score="-0.025930082">
												<SimplePredicate field="y0" operator="lessThan" value="25302.0"/>
											</Node>
											<Node id="88" score="-0.0071515464">
												<SimplePredicate field="y0" operator="greaterOrEqual" value="25302.0"/>
											</Node>
										</Node>
									</Node>
									<Node id="26" defaultChild="51">
										<SimplePredicate field="y5" operator="greaterOrEqual" value="56807.0"/>
										<Node id="51" defaultChild="89">
											<SimplePredicate field="y3" operator="lessThan" value="56807.0"/>
											<Node id="89" score="0.008160204">
												<SimplePredicate field="y2" operator="lessThan" value="26227.0"/>
											</Node>
											<Node id="90" score="0.019884901">
												<SimplePredicate field="y2" operator="greaterOrEqual" value="26227.0"/>
											</Node>
										</Node>
										<Node id="52" score="0.0278997">
											<SimplePredicate field="y3" operator="greaterOrEqual" value="56807.0"/>
										</Node>
									</Node>
								</Node>
							</Node>
							<Node id="6" defaultChild="13">
								<SimplePredicate field="e5" operator="greaterOrEqual" value="64895.0"/>
								<Node id="13" defaultChild="27">
									<SimplePredicate field="e1" operator="lessThan" value="50287.0"/>
									<Node id="27" defaultChild="53">
										<SimplePredicate field="y4" operator="lessThan" value="56807.0"/>
										<Node id="53" defaultChild="91">
											<SimplePredicate field="e0" operator="lessThan" value="25704.0"/>
											<Node id="91" score="0.0066488334">
												<SimplePredicate field="y7" operator="lessThan" value="60696.0"/>
											</Node>
											<Node id="92" score="-0.009206983">
												<SimplePredicate field="y7" operator="greaterOrEqual" value="60696.0"/>
											</Node>
										</Node>
										<Node id="54" defaultChild="93">
											<SimplePredicate field="e0" operator="greaterOrEqual" value="25704.0"/>
											<Node id="93" score="0.031273894">
												<SimplePredicate field="y7" operator="lessThan" value="63703.0"/>
											</Node>
											<Node id="94" score="7.8926014E-4">
												<SimplePredicate field="y7" operator="greaterOrEqual" value="63703.0"/>
											</Node>
										</Node>
									</Node>
									<Node id="28" defaultChild="55">
										<SimplePredicate field="y4" operator="greaterOrEqual" value="56807.0"/>
										<Node id="55" defaultChild="95">
											<SimplePredicate field="e2" operator="lessThan" value="47502.0"/>
											<Node id="95" score="0.02594533">
												<SimplePredicate field="y2" operator="lessThan" value="36097.0"/>
											</Node>
											<Node id="96" score="0.01748956">
												<SimplePredicate field="y2" operator="greaterOrEqual" value="36097.0"/>
											</Node>
										</Node>
										<Node id="56" defaultChild="97">
											<SimplePredicate field="e2" operator="greaterOrEqual" value="47502.0"/>
											<Node id="97" score="0.019017274">
												<SimplePredicate field="y2" operator="lessThan" value="26227.0"/>
											</Node>
											<Node id="98" score="0.010262168">
												<SimplePredicate field="y2" operator="greaterOrEqual" value="26227.0"/>
											</Node>
										</Node>
									</Node>
								</Node>
								<Node id="14" defaultChild="29">
									<SimplePredicate field="e1" operator="greaterOrEqual" value="50287.0"/>
									<Node id="29" score="0.028002797">
										<SimplePredicate field="e0" operator="lessThan" value="25740.0"/>
									</Node>
									<Node id="30" defaultChild="57">
										<SimplePredicate field="e0" operator="greaterOrEqual" value="25740.0"/>
										<Node id="57" defaultChild="99">
											<SimplePredicate field="y0" operator="lessThan" value="25302.0"/>
											<Node id="99" score="0.015353856">
												<SimplePredicate field="y6" operator="lessThan" value="57388.0"/>
											</Node>
											<Node id="100" score="0.002807243">
												<SimplePredicate field="y6" operator="greaterOrEqual" value="57388.0"/>
											</Node>
										</Node>
										<Node id="58" defaultChild="101">
											<SimplePredicate field="y0" operator="greaterOrEqual" value="25302.0"/>
											<Node id="101" score="0.010439562">
												<SimplePredicate field="y6" operator="lessThan" value="56879.0"/>
											</Node>
											<Node id="102" score="0.024716057">
												<SimplePredicate field="y6" operator="greaterOrEqual" value="56879.0"/>
											</Node>
										</Node>
									</Node>
								</Node>
							</Node>
						</Node>
					</Node>
				</TreeModel>
			</Segment>
			<Segment id="7">
				<True/>
				<TreeModel functionName="regression" missingValueStrategy="defaultChild" splitCharacteristic="binarySplit" x-mathContext="float">
					<MiningSchema>
						<MiningField name="e0"/>
						<MiningField name="e1"/>
						<MiningField name="e2"/>
						<MiningField name="e3"/>
						<MiningField name="e4"/>
						<MiningField name="e5"/>
						<MiningField name="e7"/>
						<MiningField name="y0"/>
						<MiningField name="y10"/>
						<MiningField name="y11"/>
						<MiningField name="y2"/>
						<MiningField name="y3"/>
						<MiningField name="y4"/>
						<MiningField name="y6"/>
						<MiningField name="y7"/>
						<MiningField name="y8"/>
					</MiningSchema>
					<Node id="0" defaultChild="1">
						<True/>
						<Node id="1" defaultChild="3">
							<SimplePredicate field="e7" operator="lessThan" value="31716.5"/>
							<Node id="3" defaultChild="7">
								<SimplePredicate field="y4" operator="lessThan" value="56807.0"/>
								<Node id="7" defaultChild="15">
									<SimplePredicate field="y10" operator="lessThan" value="64796.0"/>
									<Node id="15" defaultChild="31">
										<SimplePredicate field="y0" operator="lessThan" value="25302.0"/>
										<Node id="31" defaultChild="63">
											<SimplePredicate field="y11" operator="lessThan" value="64817.0"/>
											<Node id="63" score="-0.004774805">
												<SimplePredicate field="y8" operator="lessThan" value="60105.0"/>
											</Node>
											<Node id="64" score="0.004979428">
												<SimplePredicate field="y8" operator="greaterOrEqual" value="60105.0"/>
											</Node>
										</Node>
										<Node id="32" score="-0.008044255">
											<SimplePredicate field="y11" operator="greaterOrEqual" value="64817.0"/>
										</Node>
									</Node>
									<Node id="16" defaultChild="33">
										<SimplePredicate field="y0" operator="greaterOrEqual" value="25302.0"/>
										<Node id="33" defaultChild="65">
											<SimplePredicate field="y3" operator="lessThan" value="39151.0"/>
											<Node id="65" score="-0.0070730518">
												<SimplePredicate field="y10" operator="lessThan" value="64778.0"/>
											</Node>
											<Node id="66" score="-0.01323591">
												<SimplePredicate field="y10" operator="greaterOrEqual" value="64778.0"/>
											</Node>
										</Node>
										<Node id="34" defaultChild="67">
											<SimplePredicate field="y3" operator="greaterOrEqual" value="39151.0"/>
											<Node id="67" score="-0.003381199">
												<SimplePredicate field="y11" operator="lessThan" value="64838.0"/>
											</Node>
											<Node id="68" score="-0.011487842">
												<SimplePredicate field="y11" operator="greaterOrEqual" value="64838.0"/>
											</Node>
										</Node>
									</Node>
								</Node>
								<Node id="8" defaultChild="17">
									<SimplePredicate field="y10" operator="greaterOrEqual" value="64796.0"/>
									<Node id="17" defaultChild="35">
										<SimplePredicate field="y0" operator="lessThan" value="25302.0"/>
										<Node id="35" score="-0.01355908">
											<SimplePredicate field="y0" operator="lessThan" value="25296.0"/>
										</Node>
										<Node id="36" defaultChild="69">
											<SimplePredicate field="y0" operator="greaterOrEqual" value="25296.0"/>
											<Node id="69" score="-0.0036669353">
												<SimplePredicate field="y6" operator="lessThan" value="57388.0"/>
											</Node>
											<Node id="70" score="-4.184029E-4">
												<SimplePredicate field="y6" operator="greaterOrEqual" value="57388.0"/>
											</Node>
										</Node>
									</Node>
									<Node id="18" defaultChild="37">
										<SimplePredicate field="y0" operator="greaterOrEqual" value="25302.0"/>
										<Node id="37" defaultChild="71">
											<SimplePredicate field="y7" operator="lessThan" value="60696.0"/>
											<Node id="71" score="-0.014414241">
												<SimplePredicate field="y6" operator="lessThan" value="57281.0"/>
											</Node>
											<Node id="72" score="0.0027726442">
												<SimplePredicate field="y6" operator="greaterOrEqual" value="57281.0"/>
											</Node>
										</Node>
										<Node id="38" score="-0.017494509">
											<SimplePredicate field="y7" operator="greaterOrEqual" value="60696.0"/>
										</Node>
									</Node>
								</Node>
							</Node>
							<Node id="4" defaultChild="9">
								<SimplePredicate field="y4" operator="greaterOrEqual" value="56807.0"/>
								<Node id="9" defaultChild="19">
									<SimplePredicate field="y2" operator="lessThan" value="49758.0"/>
									<Node id="19" defaultChild="39">
										<SimplePredicate field="y2" operator="lessThan" value="40318.0"/>
										<Node id="39" defaultChild="73">
											<SimplePredicate field="y2" operator="lessThan" value="38448.0"/>
											<Node id="73" score="0.0027737154">
												<SimplePredicate field="y7" operator="lessThan" value="58797.0"/>
											</Node>
											<Node id="74" score="0.0010364491">
												<SimplePredicate field="y7" operator="greaterOrEqual" value="58797.0"/>
											</Node>
										</Node>
										<Node id="40" defaultChild="75">
											<SimplePredicate field="y2" operator="greaterOrEqual" value="38448.0"/>
											<Node id="75" score="3.0684474E-5">
												<SimplePredicate field="e1" operator="lessThan" value="50231.5"/>
											</Node>
											<Node id="76" score="-0.0014814306">
												<SimplePredicate field="e1" operator="greaterOrEqual" value="50231.5"/>
											</Node>
										</Node>
									</Node>
									<Node id="20" defaultChild="41">
										<SimplePredicate field="y2" operator="greaterOrEqual" value="40318.0"/>
										<Node id="41" score="0.006432911">
											<SimplePredicate field="y2" operator="lessThan" value="41949.0"/>
										</Node>
										<Node id="42" score="0.0016421379">
											<SimplePredicate field="y2" operator="greaterOrEqual" value="41949.0"/>
										</Node>
									</Node>
								</Node>
								<Node id="10" defaultChild="21">
									<SimplePredicate field="y2" operator="greaterOrEqual" value="49758.0"/>
									<Node id="21" defaultChild="43">
										<SimplePredicate field="y2" operator="lessThan" value="56807.0"/>
										<Node id="43" defaultChild="77">
											<SimplePredicate field="y11" operator="lessThan" value="64838.0"/>
											<Node id="77" score="0.0012850412">
												<SimplePredicate field="y6" operator="lessThan" value="57694.0"/>
											</Node>
											<Node id="78" score="-7.6569535E-4">
												<SimplePredicate field="y6" operator="greaterOrEqual" value="57694.0"/>
											</Node>
										</Node>
										<Node id="44" defaultChild="79">
											<SimplePredicate field="y11" operator="greaterOrEqual" value="64838.0"/>
											<Node id="79" score="-0.0056489445">
												<SimplePredicate field="y3" operator="lessThan" value="56807.0"/>
											</Node>
											<Node id="80" score="-0.0014597118">
												<SimplePredicate field="y3" operator="greaterOrEqual" value="56807.0"/>
											</Node>
										</Node>
									</Node>
									<Node id="22" defaultChild="45">
										<SimplePredicate field="y2" operator="greaterOrEqual" value="56807.0"/>
										<Node id="45" defaultChild="81">
											<SimplePredicate field="y3" operator="lessThan" value="57281.0"/>
											<Node id="81" score="0.0011967957">
												<SimplePredicate field="e1" operator="lessThan" value="50347.0"/>
											</Node>
											<Node id="82" score="9.174943E-5">
												<SimplePredicate field="e1" operator="greaterOrEqual" value="50347.0"/>
											</Node>
										</Node>
										<Node id="46" defaultChild="83">
											<SimplePredicate field="y3" operator="greaterOrEqual" value="57281.0"/>
											<Node id="83" score="0.004360692">
												<SimplePredicate field="y10" operator="lessThan" value="64838.0"/>
											</Node>
											<Node id="84" score="9.897039E-4">
												<SimplePredicate field="y10" operator="greaterOrEqual" value="64838.0"/>
											</Node>
										</Node>
									</Node>
								</Node>
							</Node>
						</Node>
						<Node id="2" defaultChild="5">
							<SimplePredicate field="e7" operator="greaterOrEqual" value="31716.5"/>
							<Node id="5" defaultChild="11">
								<SimplePredicate field="e5" operator="lessThan" value="64895.0"/>
								<Node id="11" defaultChild="23">
									<SimplePredicate field="e2" operator="lessThan" value="60180.0"/>
									<Node id="23" defaultChild="47">
										<SimplePredicate field="e3" operator="lessThan" value="17622.0"/>
										<Node id="47" score="0.0054659666">
											<SimplePredicate field="y0" operator="lessThan" value="25296.0"/>
										</Node>
										<Node id="48" score="0.019380206">
											<SimplePredicate field="y0" operator="greaterOrEqual" value="25296.0"/>
										</Node>
									</Node>
									<Node id="24" defaultChild="49">
										<SimplePredicate field="e3" operator="greaterOrEqual" value="17622.0"/>
										<Node id="49" defaultChild="85">
											<SimplePredicate field="e4" operator="lessThan" value="54815.0"/>
											<Node id="85" score="0.013729795">
												<SimplePredicate field="y10" operator="lessThan" value="64817.0"/>
											</Node>
											<Node id="86" score="0.017029775">
												<SimplePredicate field="y10" operator="greaterOrEqual" value="64817.0"/>
											</Node>
										</Node>
										<Node id="50" defaultChild="87">
											<SimplePredicate field="e4" operator="greaterOrEqual" value="54815.0"/>
											<Node id="87" score="0.014802571">
												<SimplePredicate field="y0" operator="lessThan" value="25302.0"/>
											</Node>
											<Node id="88" score="0.018070566">
												<SimplePredicate field="y0" operator="greaterOrEqual" value="25302.0"/>
											</Node>
										</Node>
									</Node>
								</Node>
								<Node id="12" defaultChild="25">
									<SimplePredicate field="e2" operator="greaterOrEqual" value="60180.0"/>
									<Node id="25" defaultChild="51">
										<SimplePredicate field="y6" operator="lessThan" value="62602.0"/>
										<Node id="51" defaultChild="89">
											<SimplePredicate field="y6" operator="lessThan" value="56879.0"/>
											<Node id="89" score="0.018817592">
												<SimplePredicate field="y0" operator="lessThan" value="25302.0"/>
											</Node>
											<Node id="90" score="-0.01645773">
												<SimplePredicate field="y0" operator="greaterOrEqual" value="25302.0"/>
											</Node>
										</Node>
										<Node id="52" defaultChild="91">
											<SimplePredicate field="y6" operator="greaterOrEqual" value="56879.0"/>
											<Node id="91" score="0.016706178">
												<SimplePredicate field="y7" operator="lessThan" value="60744.0"/>
											</Node>
											<Node id="92" score="0.0012513567">
												<SimplePredicate field="y7" operator="greaterOrEqual" value="60744.0"/>
											</Node>
										</Node>
									</Node>
									<Node id="26" defaultChild="53">
										<SimplePredicate field="y6" operator="greaterOrEqual" value="62602.0"/>
										<Node id="53" score="-0.022423802">
											<SimplePredicate field="y0" operator="lessThan" value="25302.0"/>
										</Node>
										<Node id="54" score="-0.005125979">
											<SimplePredicate field="y0" operator="greaterOrEqual" value="25302.0"/>
										</Node>
									</Node>
								</Node>
							</Node>
							<Node id="6" defaultChild="13">
								<SimplePredicate field="e5" operator="greaterOrEqual" value="64895.0"/>
								<Node id="13" defaultChild="27">
									<SimplePredicate field="e7" operator="lessThan" value="65078.0"/>
									<Node id="27" defaultChild="55">
										<SimplePredicate field="y6" operator="lessThan" value="62602.0"/>
										<Node id="55" defaultChild="93">
											<SimplePredicate field="e0" operator="lessThan" value="25704.0"/>
											<Node id="93" score="-0.009434462">
												<SimplePredicate field="y6" operator="lessThan" value="56879.0"/>
											</Node>
											<Node id="94" score="0.008550479">
												<SimplePredicate field="y6" operator="greaterOrEqual" value="56879.0"/>
											</Node>
										</Node>
										<Node id="56" defaultChild="95">
											<SimplePredicate field="e0" operator="greaterOrEqual" value="25704.0"/>
											<Node id="95" score="0.022422815">
												<SimplePredicate field="y3" operator="lessThan" value="56538.0"/>
											</Node>
											<Node id="96" score="0.012815587">
												<SimplePredicate field="y3" operator="greaterOrEqual" value="56538.0"/>
											</Node>
										</Node>
									</Node>
									<Node id="28" defaultChild="57">
										<SimplePredicate field="y6" operator="greaterOrEqual" value="62602.0"/>
										<Node id="57" defaultChild="97">
											<SimplePredicate field="e0" operator="lessThan" value="25459.5"/>
											<Node id="97" score="-0.031043243">
												<SimplePredicate field="y0" operator="lessThan" value="25302.0"/>
											</Node>
											<Node id="98" score="-0.0033104944">
												<SimplePredicate field="y0" operator="greaterOrEqual" value="25302.0"/>
											</Node>
										</Node>
										<Node id="58" defaultChild="99">
											<SimplePredicate field="e0" operator="greaterOrEqual" value="25459.5"/>
											<Node id="99" score="-0.0079602">
												<SimplePredicate field="e4" operator="lessThan" value="60117.0"/>
											</Node>
											<Node id="100" score="-0.0025274446">
												<SimplePredicate field="e4" operator="greaterOrEqual" value="60117.0"/>
											</Node>
										</Node>
									</Node>
								</Node>
								<Node id="14" defaultChild="29">
									<SimplePredicate field="e7" operator="greaterOrEqual" value="65078.0"/>
									<Node id="29" defaultChild="59">
										<SimplePredicate field="e0" operator="lessThan" value="25281.0"/>
										<Node id="59" score="0.008012247">
											<SimplePredicate field="y0" operator="lessThan" value="25296.0"/>
										</Node>
										<Node id="60" score="0.022007665">
											<SimplePredicate field="y0" operator="greaterOrEqual" value="25296.0"/>
										</Node>
									</Node>
									<Node id="30" defaultChild="61">
										<SimplePredicate field="e0" operator="greaterOrEqual" value="25281.0"/>
										<Node id="61" defaultChild="101">
											<SimplePredicate field="y4" operator="lessThan" value="56807.0"/>
											<Node id="101" score="0.008324253">
												<SimplePredicate field="e0" operator="lessThan" value="25513.5"/>
											</Node>
											<Node id="102" score="0.014427537">
												<SimplePredicate field="e0" operator="greaterOrEqual" value="25513.5"/>
											</Node>
										</Node>
										<Node id="62" score="0.018422183">
											<SimplePredicate field="y4" operator="greaterOrEqual" value="56807.0"/>
										</Node>
									</Node>
								</Node>
							</Node>
						</Node>
					</Node>
				</TreeModel>
			</Segment>
			<Segment id="8">
				<True/>
				<TreeModel functionName="regression" missingValueStrategy="defaultChild" splitCharacteristic="binarySplit" x-mathContext="float">
					<MiningSchema>
						<MiningField name="e0"/>
						<MiningField name="e1"/>
						<MiningField name="e2"/>
						<MiningField name="e3"/>
						<MiningField name="e5"/>
						<MiningField name="e6"/>
						<MiningField name="e7"/>
						<MiningField name="y0"/>
						<MiningField name="y10"/>
						<MiningField name="y11"/>
						<MiningField name="y2"/>
						<MiningField name="y3"/>
						<MiningField name="y4"/>
						<MiningField name="y6"/>
						<MiningField name="y7"/>
					</MiningSchema>
					<Node id="0" defaultChild="1">
						<True/>
						<Node id="1" defaultChild="3">
							<SimplePredicate field="e7" operator="lessThan" value="31716.5"/>
							<Node id="3" defaultChild="7">
								<SimplePredicate field="y4" operator="lessThan" value="56807.0"/>
								<Node id="7" defaultChild="15">
									<SimplePredicate field="y10" operator="lessThan" value="64796.0"/>
									<Node id="15" defaultChild="31">
										<SimplePredicate field="e1" operator="lessThan" value="50231.5"/>
										<Node id="31" score="0.002460301">
											<SimplePredicate field="y4" operator="lessThan" value="48830.0"/>
										</Node>
										<Node id="32" defaultChild="59">
											<SimplePredicate field="y4" operator="greaterOrEqual" value="48830.0"/>
											<Node id="59" score="-0.0033492858">
												<SimplePredicate field="y3" operator="lessThan" value="39151.0"/>
											</Node>
											<Node id="60" score="-4.5285723E-4">
												<SimplePredicate field="y3" operator="greaterOrEqual" value="39151.0"/>
											</Node>
										</Node>
									</Node>
									<Node id="16" defaultChild="33">
										<SimplePredicate field="e1" operator="greaterOrEqual" value="50231.5"/>
										<Node id="33" defaultChild="61">
											<SimplePredicate field="y0" operator="lessThan" value="25302.0"/>
											<Node id="61" score="1.4871317E-4">
												<SimplePredicate field="y7" operator="lessThan" value="57780.0"/>
											</Node>
											<Node id="62" score="-0.004626605">
												<SimplePredicate field="y7" operator="greaterOrEqual" value="57780.0"/>
											</Node>
										</Node>
										<Node id="34" defaultChild="63">
											<SimplePredicate field="y0" operator="greaterOrEqual" value="25302.0"/>
											<Node id="63" score="-0.007829691">
												<SimplePredicate field="y11" operator="lessThan" value="64817.0"/>
											</Node>
											<Node id="64" score="-0.0024516797">
												<SimplePredicate field="y11" operator="greaterOrEqual" value="64817.0"/>
											</Node>
										</Node>
									</Node>
								</Node>
								<Node id="8" defaultChild="17">
									<SimplePredicate field="y10" operator="greaterOrEqual" value="64796.0"/>
									<Node id="17" defaultChild="35">
										<SimplePredicate field="y10" operator="lessThan" value="64838.0"/>
										<Node id="35" defaultChild="65">
											<SimplePredicate field="y6" operator="lessThan" value="57281.0"/>
											<Node id="65" score="-0.0028418743">
												<SimplePredicate field="y0" operator="lessThan" value="25302.0"/>
											</Node>
											<Node id="66" score="-0.010286528">
												<SimplePredicate field="y0" operator="greaterOrEqual" value="25302.0"/>
											</Node>
										</Node>
										<Node id="36" defaultChild="67">
											<SimplePredicate field="y6" operator="greaterOrEqual" value="57281.0"/>
											<Node id="67" score="0.0020596748">
												<SimplePredicate field="y7" operator="lessThan" value="60696.0"/>
