<?xml version="1.0" encoding="UTF-8" standalone="yes"?>
<PMML xmlns="http://www.dmg.org/PMML-4_4" xmlns:data="http://jpmml.org/jpmml-model/InlineTable" version="4.4">
	<Header>
		<Application name="SkLearn2PMML package" version="0.92.0"/>
		<Timestamp>2023-04-02T16:34:23Z</Timestamp>
	</Header>
	<DataDictionary>
		<DataField name="w" optype="continuous" dataType="double"/>
		<DataField name="e0" optype="continuous" dataType="float">
			<Value value="NaN" property="missing"/>
		</DataField>
		<DataField name="e1" optype="continuous" dataType="float">
			<Value value="NaN" property="missing"/>
		</DataField>
		<DataField name="e10" optype="continuous" dataType="float">
			<Value value="NaN" property="missing"/>
		</DataField>
		<DataField name="e11" optype="continuous" dataType="float">
			<Value value="NaN" property="missing"/>
		</DataField>
		<DataField name="e2" optype="continuous" dataType="float">
			<Value value="NaN" property="missing"/>
		</DataField>
		<DataField name="e3" optype="continuous" dataType="float">
			<Value value="NaN" property="missing"/>
		</DataField>
		<DataField name="e4" optype="continuous" dataType="float">
			<Value value="NaN" property="missing"/>
		</DataField>
		<DataField name="e5" optype="continuous" dataType="float">
			<Value value="NaN" property="missing"/>
		</DataField>
		<DataField name="e6" optype="continuous" dataType="float">
			<Value value="NaN" property="missing"/>
		</DataField>
		<DataField name="e7" optype="continuous" dataType="float">
			<Value value="NaN" property="missing"/>
		</DataField>
		<DataField name="e8" optype="continuous" dataType="float">
			<Value value="NaN" property="missing"/>
		</DataField>
		<DataField name="e9" optype="continuous" dataType="float">
			<Value value="NaN" property="missing"/>
		</DataField>
		<DataField name="y0" optype="continuous" dataType="float">
			<Value value="NaN" property="missing"/>
		</DataField>
		<DataField name="y1" optype="continuous" dataType="float">
			<Value value="NaN" property="missing"/>
		</DataField>
		<DataField name="y10" optype="continuous" dataType="float">
			<Value value="NaN" property="missing"/>
		</DataField>
		<DataField name="y11" optype="continuous" dataType="float">
			<Value value="NaN" property="missing"/>
		</DataField>
		<DataField name="y2" optype="continuous" dataType="float">
			<Value value="NaN" property="missing"/>
		</DataField>
		<DataField name="y3" optype="continuous" dataType="float">
			<Value value="NaN" property="missing"/>
		</DataField>
		<DataField name="y4" optype="continuous" dataType="float">
			<Value value="NaN" property="missing"/>
		</DataField>
		<DataField name="y5" optype="continuous" dataType="float">
			<Value value="NaN" property="missing"/>
		</DataField>
		<DataField name="y6" optype="continuous" dataType="float">
			<Value value="NaN" property="missing"/>
		</DataField>
		<DataField name="y7" optype="continuous" dataType="float">
			<Value value="NaN" property="missing"/>
		</DataField>
		<DataField name="y8" optype="continuous" dataType="float">
			<Value value="NaN" property="missing"/>
		</DataField>
		<DataField name="y9" optype="continuous" dataType="float">
			<Value value="NaN" property="missing"/>
		</DataField>
	</DataDictionary>
	<MiningModel functionName="regression" algorithmName="XGBoost (GBTree)" x-mathContext="float">
		<MiningSchema>
			<MiningField name="w" usageType="target"/>
			<MiningField name="e0"/>
			<MiningField name="e1"/>
			<MiningField name="e10"/>
			<MiningField name="e11"/>
			<MiningField name="e2"/>
			<MiningField name="e3"/>
			<MiningField name="e4"/>
			<MiningField name="e5"/>
			<MiningField name="e6"/>
			<MiningField name="e7"/>
			<MiningField name="e8"/>
			<MiningField name="e9"/>
			<MiningField name="y0"/>
			<MiningField name="y1"/>
			<MiningField name="y10"/>
			<MiningField name="y11"/>
			<MiningField name="y2"/>
			<MiningField name="y3"/>
			<MiningField name="y4"/>
			<MiningField name="y5"/>
			<MiningField name="y6"/>
			<MiningField name="y7"/>
			<MiningField name="y8"/>
			<MiningField name="y9"/>
		</MiningSchema>
		<Targets>
			<Target field="w" rescaleConstant="0.5"/>
		</Targets>
		<Segmentation multipleModelMethod="sum" missingPredictionTreatment="returnMissing">
			<Segment id="1">
				<True/>
				<TreeModel functionName="regression" missingValueStrategy="defaultChild" splitCharacteristic="binarySplit" x-mathContext="float">
					<MiningSchema>
						<MiningField name="e0"/>
						<MiningField name="e1"/>
						<MiningField name="e2"/>
						<MiningField name="e3"/>
						<MiningField name="e4"/>
						<MiningField name="e5"/>
						<MiningField name="e6"/>
						<MiningField name="e8"/>
						<MiningField name="e9"/>
						<MiningField name="y0"/>
						<MiningField name="y1"/>
						<MiningField name="y11"/>
						<MiningField name="y2"/>
						<MiningField name="y3"/>
						<MiningField name="y4"/>
						<MiningField name="y5"/>
						<MiningField name="y6"/>
						<MiningField name="y7"/>
						<MiningField name="y8"/>
						<MiningField name="y9"/>
					</MiningSchema>
					<Node id="0" defaultChild="1">
						<True/>
						<Node id="1" defaultChild="3">
							<SimplePredicate field="y8" operator="lessThan" value="9639.5"/>
							<Node id="3" defaultChild="7">
								<SimplePredicate field="y6" operator="lessThan" value="6285.5"/>
								<Node id="7" defaultChild="15">
									<SimplePredicate field="y1" operator="lessThan" value="50302.0"/>
									<Node id="15" defaultChild="31">
										<SimplePredicate field="e6" operator="lessThan" value="6065.0"/>
										<Node id="31" defaultChild="63">
											<SimplePredicate field="e0" operator="lessThan" value="25272.0"/>
											<Node id="63" score="0.09401251">
												<SimplePredicate field="y1" operator="lessThan" value="50290.0"/>
											</Node>
											<Node id="64" score="-0.087675005">
												<SimplePredicate field="y1" operator="greaterOrEqual" value="50290.0"/>
											</Node>
										</Node>
										<Node id="32" defaultChild="65">
											<SimplePredicate field="e0" operator="greaterOrEqual" value="25272.0"/>
											<Node id="65" score="0.013223079">
												<SimplePredicate field="e1" operator="lessThan" value="50213.5"/>
											</Node>
											<Node id="66" score="-0.06387209">
												<SimplePredicate field="e1" operator="greaterOrEqual" value="50213.5"/>
											</Node>
										</Node>
									</Node>
									<Node id="16" defaultChild="33">
										<SimplePredicate field="e6" operator="greaterOrEqual" value="6065.0"/>
										<Node id="33" defaultChild="67">
											<SimplePredicate field="y1" operator="lessThan" value="50128.0"/>
											<Node id="67" score="-0.07091085">
												<SimplePredicate field="e1" operator="lessThan" value="50326.5"/>
											</Node>
											<Node id="68" score="-0.11051804">
												<SimplePredicate field="e1" operator="greaterOrEqual" value="50326.5"/>
											</Node>
										</Node>
										<Node id="34" defaultChild="69">
											<SimplePredicate field="y1" operator="greaterOrEqual" value="50128.0"/>
											<Node id="69" score="-0.11061924">
												<SimplePredicate field="e9" operator="lessThan" value="55654.0"/>
											</Node>
											<Node id="70" score="-0.13503367">
												<SimplePredicate field="e9" operator="greaterOrEqual" value="55654.0"/>
											</Node>
										</Node>
									</Node>
								</Node>
								<Node id="8" defaultChild="17">
									<SimplePredicate field="y1" operator="greaterOrEqual" value="50302.0"/>
									<Node id="17" defaultChild="35">
										<SimplePredicate field="y2" operator="lessThan" value="15588.5"/>
										<Node id="35" defaultChild="71">
											<SimplePredicate field="e9" operator="lessThan" value="64705.0"/>
											<Node id="71" score="-0.0027357729">
												<SimplePredicate field="e2" operator="lessThan" value="19196.0"/>
											</Node>
											<Node id="72" score="0.052500002">
												<SimplePredicate field="e2" operator="greaterOrEqual" value="19196.0"/>
											</Node>
										</Node>
										<Node id="36" defaultChild="73">
											<SimplePredicate field="e9" operator="greaterOrEqual" value="64705.0"/>
											<Node id="73" score="-0.016066039">
												<SimplePredicate field="e2" operator="lessThan" value="19098.0"/>
											</Node>
											<Node id="74" score="-0.060830098">
												<SimplePredicate field="e2" operator="greaterOrEqual" value="19098.0"/>
											</Node>
										</Node>
									</Node>
									<Node id="18" defaultChild="37">
										<SimplePredicate field="y2" operator="greaterOrEqual" value="15588.5"/>
										<Node id="37" defaultChild="75">
											<SimplePredicate field="y1" operator="lessThan" value="50308.0"/>
											<Node id="75" score="-0.12726">
												<SimplePredicate field="e3" operator="lessThan" value="12493.0"/>
											</Node>
											<Node id="76" score="-0.014790549">
												<SimplePredicate field="e3" operator="greaterOrEqual" value="12493.0"/>
											</Node>
										</Node>
										<Node id="38" defaultChild="77">
											<SimplePredicate field="y1" operator="greaterOrEqual" value="50308.0"/>
											<Node id="77" score="0.03451622">
												<SimplePredicate field="e6" operator="lessThan" value="6065.0"/>
											</Node>
											<Node id="78" score="-0.113249585">
												<SimplePredicate field="e6" operator="greaterOrEqual" value="6065.0"/>
											</Node>
										</Node>
									</Node>
								</Node>
							</Node>
							<Node id="4" defaultChild="9">
								<SimplePredicate field="y6" operator="greaterOrEqual" value="6285.5"/>
								<Node id="9" defaultChild="19">
									<SimplePredicate field="e8" operator="lessThan" value="9639.5"/>
									<Node id="19" defaultChild="39">
										<SimplePredicate field="e6" operator="lessThan" value="6285.5"/>
										<Node id="39" defaultChild="79">
											<SimplePredicate field="e2" operator="lessThan" value="11218.0"/>
											<Node id="79" score="0.06402439">
												<SimplePredicate field="y2" operator="lessThan" value="19214.0"/>
											</Node>
											<Node id="80" score="-0.015380001">
												<SimplePredicate field="y2" operator="greaterOrEqual" value="19214.0"/>
											</Node>
										</Node>
										<Node id="40" defaultChild="81">
											<SimplePredicate field="e2" operator="greaterOrEqual" value="11218.0"/>
											<Node id="81" score="0.13331403">
												<SimplePredicate field="e4" operator="lessThan" value="50758.0"/>
											</Node>
											<Node id="82" score="0.10248462">
												<SimplePredicate field="e4" operator="greaterOrEqual" value="50758.0"/>
											</Node>
										</Node>
									</Node>
									<Node id="20" defaultChild="41">
										<SimplePredicate field="e6" operator="greaterOrEqual" value="6285.5"/>
										<Node id="41" defaultChild="83">
											<SimplePredicate field="e3" operator="lessThan" value="60898.0"/>
											<Node id="83" score="0.043822408">
												<SimplePredicate field="y3" operator="lessThan" value="60898.0"/>
											</Node>
											<Node id="84" score="0.10644001">
												<SimplePredicate field="y3" operator="greaterOrEqual" value="60898.0"/>
											</Node>
										</Node>
										<Node id="42" defaultChild="85">
											<SimplePredicate field="e3" operator="greaterOrEqual" value="60898.0"/>
											<Node id="85" score="0.024253847">
												<SimplePredicate field="y6" operator="lessThan" value="26798.5"/>
											</Node>
											<Node id="86" score="-0.04574536">
												<SimplePredicate field="y6" operator="greaterOrEqual" value="26798.5"/>
											</Node>
										</Node>
									</Node>
								</Node>
								<Node id="10" defaultChild="21">
									<SimplePredicate field="e8" operator="greaterOrEqual" value="9639.5"/>
									<Node id="21" defaultChild="43">
										<SimplePredicate field="e1" operator="lessThan" value="50329.0"/>
										<Node id="43" defaultChild="87">
											<SimplePredicate field="y5" operator="lessThan" value="65375.0"/>
											<Node id="87" score="-0.008464923">
												<SimplePredicate field="y3" operator="lessThan" value="45889.0"/>
											</Node>
											<Node id="88" score="0.020287551">
												<SimplePredicate field="y3" operator="greaterOrEqual" value="45889.0"/>
											</Node>
										</Node>
										<Node id="44" defaultChild="89">
											<SimplePredicate field="y5" operator="greaterOrEqual" value="65375.0"/>
											<Node id="89" score="0.08453011">
												<SimplePredicate field="e6" operator="lessThan" value="64964.0"/>
											</Node>
											<Node id="90" score="-0.031200001">
												<SimplePredicate field="e6" operator="greaterOrEqual" value="64964.0"/>
											</Node>
										</Node>
									</Node>
									<Node id="22" defaultChild="45">
										<SimplePredicate field="e1" operator="greaterOrEqual" value="50329.0"/>
										<Node id="45" defaultChild="91">
											<SimplePredicate field="e5" operator="lessThan" value="46922.0"/>
											<Node id="91" score="-0.03821948">
												<SimplePredicate field="e0" operator="lessThan" value="26051.0"/>
											</Node>
											<Node id="92" score="0.016232034">
												<SimplePredicate field="e0" operator="greaterOrEqual" value="26051.0"/>
											</Node>
										</Node>
										<Node id="46" defaultChild="93">
											<SimplePredicate field="e5" operator="greaterOrEqual" value="46922.0"/>
											<Node id="93" score="-0.058742795">
												<SimplePredicate field="y3" operator="lessThan" value="60898.0"/>
											</Node>
											<Node id="94" score="0.026281131">
												<SimplePredicate field="y3" operator="greaterOrEqual" value="60898.0"/>
											</Node>
										</Node>
									</Node>
								</Node>
							</Node>
						</Node>
						<Node id="2" defaultChild="5">
							<SimplePredicate field="y8" operator="greaterOrEqual" value="9639.5"/>
							<Node id="5" defaultChild="11">
								<SimplePredicate field="e8" operator="lessThan" value="9639.5"/>
								<Node id="11" defaultChild="23">
									<SimplePredicate field="e6" operator="lessThan" value="6285.5"/>
									<Node id="23" defaultChild="47">
										<SimplePredicate field="e2" operator="lessThan" value="11218.0"/>
										<Node id="47" defaultChild="95">
											<SimplePredicate field="y0" operator="lessThan" value="25302.0"/>
											<Node id="95" score="0.017376564">
												<SimplePredicate field="y9" operator="lessThan" value="64705.0"/>
											</Node>
											<Node id="96" score="0.06955334">
												<SimplePredicate field="y9" operator="greaterOrEqual" value="64705.0"/>
											</Node>
										</Node>
										<Node id="48" defaultChild="97">
											<SimplePredicate field="y0" operator="greaterOrEqual" value="25302.0"/>
											<Node id="97" score="0.10271818">
												<SimplePredicate field="y3" operator="lessThan" value="30938.0"/>
											</Node>
											<Node id="98" score="0.042957142">
												<SimplePredicate field="y3" operator="greaterOrEqual" value="30938.0"/>
											</Node>
										</Node>
									</Node>
									<Node id="24" defaultChild="49">
										<SimplePredicate field="e2" operator="greaterOrEqual" value="11218.0"/>
										<Node id="49" defaultChild="99">
											<SimplePredicate field="e1" operator="lessThan" value="50302.0"/>
											<Node id="99" score="0.12483518">
												<SimplePredicate field="y4" operator="lessThan" value="18107.0"/>
											</Node>
											<Node id="100" score="0.14364497">
												<SimplePredicate field="y4" operator="greaterOrEqual" value="18107.0"/>
											</Node>
										</Node>
										<Node id="50" defaultChild="101">
											<SimplePredicate field="e1" operator="greaterOrEqual" value="50302.0"/>
											<Node id="101" score="0.12069889">
												<SimplePredicate field="e1" operator="lessThan" value="50329.0"/>
											</Node>
											<Node id="102" score="0.14188454">
												<SimplePredicate field="e1" operator="greaterOrEqual" value="50329.0"/>
											</Node>
										</Node>
									</Node>
								</Node>
								<Node id="12" defaultChild="25">
									<SimplePredicate field="e6" operator="greaterOrEqual" value="6285.5"/>
									<Node id="25" defaultChild="51">
										<SimplePredicate field="e3" operator="lessThan" value="60898.0"/>
										<Node id="51" defaultChild="103">
											<SimplePredicate field="e4" operator="lessThan" value="15607.0"/>
											<Node id="103" score="0.06917821">
												<SimplePredicate field="e0" operator="lessThan" value="26099.0"/>
											</Node>
											<Node id="104" score="0.019422261">
												<SimplePredicate field="e0" operator="greaterOrEqual" value="26099.0"/>
											</Node>
										</Node>
										<Node id="52" defaultChild="105">
											<SimplePredicate field="e4" operator="greaterOrEqual" value="15607.0"/>
											<Node id="105" score="0.07683951">
												<SimplePredicate field="y6" operator="lessThan" value="38242.0"/>
											</Node>
											<Node id="106" score="0.09730706">
												<SimplePredicate field="y6" operator="greaterOrEqual" value="38242.0"/>
											</Node>
										</Node>
									</Node>
									<Node id="26" defaultChild="53">
										<SimplePredicate field="e3" operator="greaterOrEqual" value="60898.0"/>
										<Node id="53" defaultChild="107">
											<SimplePredicate field="e0" operator="lessThan" value="25728.0"/>
											<Node id="107" score="-0.081484094">
												<SimplePredicate field="y3" operator="lessThan" value="19041.0"/>
											</Node>
											<Node id="108" score="0.018625582">
												<SimplePredicate field="y3" operator="greaterOrEqual" value="19041.0"/>
											</Node>
										</Node>
										<Node id="54" defaultChild="109">
											<SimplePredicate field="e0" operator="greaterOrEqual" value="25728.0"/>
											<Node id="109" score="0.04481875">
												<SimplePredicate field="y5" operator="lessThan" value="63501.5"/>
											</Node>
											<Node id="110" score="0.11127858">
												<SimplePredicate field="y5" operator="greaterOrEqual" value="63501.5"/>
											</Node>
										</Node>
									</Node>
								</Node>
							</Node>
							<Node id="6" defaultChild="13">
								<SimplePredicate field="e8" operator="greaterOrEqual" value="9639.5"/>
								<Node id="13" defaultChild="27">
									<SimplePredicate field="e2" operator="lessThan" value="60033.0"/>
									<Node id="27" defaultChild="55">
										<SimplePredicate field="y7" operator="lessThan" value="55450.0"/>
										<Node id="55" defaultChild="111">
											<SimplePredicate field="y5" operator="lessThan" value="47382.0"/>
											<Node id="111" score="0.059252154">
												<SimplePredicate field="y11" operator="lessThan" value="64155.0"/>
											</Node>
											<Node id="112" score="0.019454965">
												<SimplePredicate field="y11" operator="greaterOrEqual" value="64155.0"/>
											</Node>
										</Node>
										<Node id="56" defaultChild="113">
											<SimplePredicate field="y5" operator="greaterOrEqual" value="47382.0"/>
											<Node id="113" score="0.047924556">
												<SimplePredicate field="e4" operator="lessThan" value="12291.0"/>
											</Node>
											<Node id="114" score="0.10764797">
												<SimplePredicate field="e4" operator="greaterOrEqual" value="12291.0"/>
											</Node>
										</Node>
									</Node>
									<Node id="28" defaultChild="57">
										<SimplePredicate field="y7" operator="greaterOrEqual" value="55450.0"/>
										<Node id="57" defaultChild="115">
											<SimplePredicate field="y0" operator="lessThan" value="25296.0"/>
											<Node id="115" score="0.023259148">
												<SimplePredicate field="y3" operator="lessThan" value="53484.0"/>
											</Node>
											<Node id="116" score="-0.056164656">
												<SimplePredicate field="y3" operator="greaterOrEqual" value="53484.0"/>
											</Node>
										</Node>
										<Node id="58" defaultChild="117">
											<SimplePredicate field="y0" operator="greaterOrEqual" value="25296.0"/>
											<Node id="117" score="0.04388771">
												<SimplePredicate field="y3" operator="lessThan" value="58444.0"/>
											</Node>
											<Node id="118" score="0.08773089">
												<SimplePredicate field="y3" operator="greaterOrEqual" value="58444.0"/>
											</Node>
										</Node>
									</Node>
								</Node>
								<Node id="14" defaultChild="29">
									<SimplePredicate field="e2" operator="greaterOrEqual" value="60033.0"/>
									<Node id="29" defaultChild="59">
										<SimplePredicate field="e1" operator="lessThan" value="50083.0"/>
										<Node id="59" defaultChild="119">
											<SimplePredicate field="y9" operator="lessThan" value="64868.0"/>
											<Node id="119" score="0.12158956">
												<SimplePredicate field="y7" operator="lessThan" value="60528.0"/>
											</Node>
											<Node id="120" score="0.06595435">
												<SimplePredicate field="y7" operator="greaterOrEqual" value="60528.0"/>
											</Node>
										</Node>
										<Node id="60" defaultChild="121">
											<SimplePredicate field="y9" operator="greaterOrEqual" value="64868.0"/>
											<Node id="121" score="-0.002357144">
												<SimplePredicate field="y7" operator="lessThan" value="44153.0"/>
											</Node>
											<Node id="122" score="0.08307273">
												<SimplePredicate field="y7" operator="greaterOrEqual" value="44153.0"/>
											</Node>
										</Node>
									</Node>
									<Node id="30" defaultChild="61">
										<SimplePredicate field="e1" operator="greaterOrEqual" value="50083.0"/>
										<Node id="61" defaultChild="123">
											<SimplePredicate field="e9" operator="lessThan" value="63319.0"/>
											<Node id="123" score="0.056852944">
												<SimplePredicate field="y3" operator="lessThan" value="14133.0"/>
											</Node>
											<Node id="124" score="-0.033096667">
												<SimplePredicate field="y3" operator="greaterOrEqual" value="14133.0"/>
											</Node>
										</Node>
										<Node id="62" defaultChild="125">
											<SimplePredicate field="e9" operator="greaterOrEqual" value="63319.0"/>
											<Node id="125" score="-0.062530436">
												<SimplePredicate field="y4" operator="lessThan" value="25181.0"/>
											</Node>
											<Node id="126" score="-0.09408394">
												<SimplePredicate field="y4" operator="greaterOrEqual" value="25181.0"/>
											</Node>
										</Node>
									</Node>
								</Node>
							</Node>
						</Node>
					</Node>
				</TreeModel>
			</Segment>
			<Segment id="2">
				<True/>
				<TreeModel functionName="regression" missingValueStrategy="defaultChild" splitCharacteristic="binarySplit" x-mathContext="float">
					<MiningSchema>
						<MiningField name="e0"/>
						<MiningField name="e1"/>
						<MiningField name="e11"/>
						<MiningField name="e2"/>
						<MiningField name="e3"/>
						<MiningField name="e4"/>
						<MiningField name="e5"/>
						<MiningField name="e6"/>
						<MiningField name="e7"/>
						<MiningField name="e8"/>
						<MiningField name="e9"/>
						<MiningField name="y0"/>
						<MiningField name="y1"/>
						<MiningField name="y11"/>
						<MiningField name="y2"/>
						<MiningField name="y3"/>
						<MiningField name="y4"/>
						<MiningField name="y5"/>
						<MiningField name="y6"/>
						<MiningField name="y7"/>
						<MiningField name="y8"/>
						<MiningField name="y9"/>
					</MiningSchema>
					<Node id="0" defaultChild="1">
						<True/>
						<Node id="1" defaultChild="3">
							<SimplePredicate field="y8" operator="lessThan" value="9639.5"/>
							<Node id="3" defaultChild="7">
								<SimplePredicate field="y6" operator="lessThan" value="6285.5"/>
								<Node id="7" defaultChild="15">
									<SimplePredicate field="y1" operator="lessThan" value="50302.0"/>
									<Node id="15" defaultChild="31">
										<SimplePredicate field="e6" operator="lessThan" value="17087.0"/>
										<Node id="31" defaultChild="63">
											<SimplePredicate field="e0" operator="lessThan" value="25272.0"/>
											<Node id="63" score="0.06308369">
												<SimplePredicate field="y1" operator="lessThan" value="50290.0"/>
											</Node>
											<Node id="64" score="-0.07301648">
												<SimplePredicate field="y1" operator="greaterOrEqual" value="50290.0"/>
											</Node>
										</Node>
										<Node id="32" defaultChild="65">
											<SimplePredicate field="e0" operator="greaterOrEqual" value="25272.0"/>
											<Node id="65" score="-0.06291031">
												<SimplePredicate field="e3" operator="lessThan" value="13161.0"/>
											</Node>
											<Node id="66" score="-0.02030415">
												<SimplePredicate field="e3" operator="greaterOrEqual" value="13161.0"/>
											</Node>
										</Node>
									</Node>
									<Node id="16" defaultChild="33">
										<SimplePredicate field="e6" operator="greaterOrEqual" value="17087.0"/>
										<Node id="33" defaultChild="67">
											<SimplePredicate field="y1" operator="lessThan" value="50128.0"/>
											<Node id="67" score="-0.050477955">
												<SimplePredicate field="e1" operator="lessThan" value="50332.5"/>
											</Node>
											<Node id="68" score="-0.07820718">
												<SimplePredicate field="e1" operator="greaterOrEqual" value="50332.5"/>
											</Node>
										</Node>
										<Node id="34" defaultChild="69">
											<SimplePredicate field="y1" operator="greaterOrEqual" value="50128.0"/>
											<Node id="69" score="-0.079386435">
												<SimplePredicate field="e9" operator="lessThan" value="60837.0"/>
											</Node>
											<Node id="70" score="-0.09747414">
												<SimplePredicate field="e9" operator="greaterOrEqual" value="60837.0"/>
											</Node>
										</Node>
									</Node>
								</Node>
								<Node id="8" defaultChild="17">
									<SimplePredicate field="y1" operator="greaterOrEqual" value="50302.0"/>
									<Node id="17" defaultChild="35">
										<SimplePredicate field="y2" operator="lessThan" value="15588.5"/>
										<Node id="35" defaultChild="71">
											<SimplePredicate field="e6" operator="lessThan" value="6065.0"/>
											<Node id="71" score="0.006047154">
												<SimplePredicate field="e2" operator="lessThan" value="11218.0"/>
											</Node>
											<Node id="72" score="0.10322386">
												<SimplePredicate field="e2" operator="greaterOrEqual" value="11218.0"/>
											</Node>
										</Node>
										<Node id="36" defaultChild="73">
											<SimplePredicate field="e6" operator="greaterOrEqual" value="6065.0"/>
											<Node id="73" score="0.01609064">
												<SimplePredicate field="e0" operator="lessThan" value="25287.0"/>
											</Node>
											<Node id="74" score="-0.017670253">
												<SimplePredicate field="e0" operator="greaterOrEqual" value="25287.0"/>
											</Node>
										</Node>
									</Node>
									<Node id="18" defaultChild="37">
										<SimplePredicate field="y2" operator="greaterOrEqual" value="15588.5"/>
										<Node id="37" defaultChild="75">
											<SimplePredicate field="y1" operator="lessThan" value="50308.0"/>
											<Node id="75" score="-0.06324429">
												<SimplePredicate field="e2" operator="lessThan" value="12767.0"/>
											</Node>
											<Node id="76" score="-0.0025275305">
												<SimplePredicate field="e2" operator="greaterOrEqual" value="12767.0"/>
											</Node>
										</Node>
										<Node id="38" defaultChild="77">
											<SimplePredicate field="y1" operator="greaterOrEqual" value="50308.0"/>
											<Node id="77" score="-0.049960535">
												<SimplePredicate field="e9" operator="lessThan" value="39705.0"/>
											</Node>
											<Node id="78" score="-0.09007629">
												<SimplePredicate field="e9" operator="greaterOrEqual" value="39705.0"/>
											</Node>
										</Node>
									</Node>
								</Node>
							</Node>
							<Node id="4" defaultChild="9">
								<SimplePredicate field="y6" operator="greaterOrEqual" value="6285.5"/>
								<Node id="9" defaultChild="19">
									<SimplePredicate field="e9" operator="lessThan" value="44613.0"/>
									<Node id="19" defaultChild="39">
										<SimplePredicate field="e6" operator="lessThan" value="6065.0"/>
										<Node id="39" defaultChild="79">
											<SimplePredicate field="e1" operator="lessThan" value="50302.0"/>
											<Node id="79" score="0.06266975">
												<SimplePredicate field="y3" operator="lessThan" value="12350.5"/>
											</Node>
											<Node id="80" score="0.095909454">
												<SimplePredicate field="y3" operator="greaterOrEqual" value="12350.5"/>
											</Node>
										</Node>
										<Node id="40" defaultChild="81">
											<SimplePredicate field="e1" operator="greaterOrEqual" value="50302.0"/>
											<Node id="81" score="0.03919039">
												<SimplePredicate field="e2" operator="lessThan" value="15588.5"/>
											</Node>
											<Node id="82" score="0.073080465">
												<SimplePredicate field="e2" operator="greaterOrEqual" value="15588.5"/>
											</Node>
										</Node>
									</Node>
									<Node id="20" defaultChild="41">
										<SimplePredicate field="e6" operator="greaterOrEqual" value="6065.0"/>
										<Node id="41" defaultChild="83">
											<SimplePredicate field="e1" operator="lessThan" value="50089.0"/>
											<Node id="83" score="0.023366239">
												<SimplePredicate field="e1" operator="lessThan" value="50062.5"/>
											</Node>
											<Node id="84" score="0.058842555">
												<SimplePredicate field="e1" operator="greaterOrEqual" value="50062.5"/>
											</Node>
										</Node>
										<Node id="42" defaultChild="85">
											<SimplePredicate field="e1" operator="greaterOrEqual" value="50089.0"/>
											<Node id="85" score="0.029877191">
												<SimplePredicate field="e8" operator="lessThan" value="9639.5"/>
											</Node>
											<Node id="86" score="-9.623517E-4">
												<SimplePredicate field="e8" operator="greaterOrEqual" value="9639.5"/>
											</Node>
										</Node>
									</Node>
								</Node>
								<Node id="10" defaultChild="21">
									<SimplePredicate field="e9" operator="greaterOrEqual" value="44613.0"/>
									<Node id="21" defaultChild="43">
										<SimplePredicate field="e5" operator="lessThan" value="36497.5"/>
										<Node id="43" defaultChild="87">
											<SimplePredicate field="y0" operator="lessThan" value="25474.5"/>
											<Node id="87" score="-0.0012938734">
												<SimplePredicate field="y4" operator="lessThan" value="57333.0"/>
											</Node>
											<Node id="88" score="-0.067034505">
												<SimplePredicate field="y4" operator="greaterOrEqual" value="57333.0"/>
											</Node>
										</Node>
										<Node id="44" defaultChild="89">
											<SimplePredicate field="y0" operator="greaterOrEqual" value="25474.5"/>
											<Node id="89" score="0.03617059">
												<SimplePredicate field="y7" operator="lessThan" value="60343.0"/>
											</Node>
											<Node id="90" score="0.0024483483">
												<SimplePredicate field="y7" operator="greaterOrEqual" value="60343.0"/>
											</Node>
										</Node>
									</Node>
									<Node id="22" defaultChild="45">
										<SimplePredicate field="e5" operator="greaterOrEqual" value="36497.5"/>
										<Node id="45" defaultChild="91">
											<SimplePredicate field="y4" operator="lessThan" value="61162.0"/>
											<Node id="91" score="-0.01480233">
												<SimplePredicate field="y4" operator="lessThan" value="56553.0"/>
											</Node>
											<Node id="92" score="-0.050457172">
												<SimplePredicate field="y4" operator="greaterOrEqual" value="56553.0"/>
											</Node>
										</Node>
										<Node id="46" defaultChild="93">
											<SimplePredicate field="y4" operator="greaterOrEqual" value="61162.0"/>
											<Node id="93" score="0.00988921">
												<SimplePredicate field="y2" operator="lessThan" value="57656.0"/>
											</Node>
											<Node id="94" score="0.045315">
												<SimplePredicate field="y2" operator="greaterOrEqual" value="57656.0"/>
											</Node>
										</Node>
									</Node>
								</Node>
							</Node>
						</Node>
						<Node id="2" defaultChild="5">
							<SimplePredicate field="y8" operator="greaterOrEqual" value="9639.5"/>
							<Node id="5" defaultChild="11">
								<SimplePredicate field="e8" operator="lessThan" value="9639.5"/>
								<Node id="11" defaultChild="23">
									<SimplePredicate field="e6" operator="lessThan" value="6285.5"/>
									<Node id="23" defaultChild="47">
										<SimplePredicate field="e2" operator="lessThan" value="11218.0"/>
										<Node id="47" defaultChild="95">
											<SimplePredicate field="y3" operator="lessThan" value="40173.0"/>
											<Node id="95" score="0.03596893">
												<SimplePredicate field="y0" operator="lessThan" value="25302.0"/>
											</Node>
											<Node id="96" score="0.06896677">
												<SimplePredicate field="y0" operator="greaterOrEqual" value="25302.0"/>
											</Node>
										</Node>
										<Node id="48" defaultChild="97">
											<SimplePredicate field="y3" operator="greaterOrEqual" value="40173.0"/>
											<Node id="97" score="-0.02852639">
												<SimplePredicate field="y9" operator="lessThan" value="61045.0"/>
											</Node>
											<Node id="98" score="0.040032245">
												<SimplePredicate field="y9" operator="greaterOrEqual" value="61045.0"/>
											</Node>
										</Node>
									</Node>
									<Node id="24" defaultChild="49">
										<SimplePredicate field="e2" operator="greaterOrEqual" value="11218.0"/>
										<Node id="49" defaultChild="99">
											<SimplePredicate field="e2" operator="lessThan" value="18077.0"/>
											<Node id="99" score="0.09283821">
												<SimplePredicate field="e1" operator="lessThan" value="50305.0"/>
											</Node>
											<Node id="100" score="0.07458472">
												<SimplePredicate field="e1" operator="greaterOrEqual" value="50305.0"/>
											</Node>
										</Node>
										<Node id="50" defaultChild="101">
											<SimplePredicate field="e2" operator="greaterOrEqual" value="18077.0"/>
											<Node id="101" score="0.10259213">
												<SimplePredicate field="e2" operator="lessThan" value="58435.0"/>
											</Node>
											<Node id="102" score="0.0869306">
												<SimplePredicate field="e2" operator="greaterOrEqual" value="58435.0"/>
											</Node>
										</Node>
									</Node>
								</Node>
								<Node id="12" defaultChild="25">
									<SimplePredicate field="e6" operator="greaterOrEqual" value="6285.5"/>
									<Node id="25" defaultChild="51">
										<SimplePredicate field="e3" operator="lessThan" value="60898.0"/>
										<Node id="51" defaultChild="103">
											<SimplePredicate field="y9" operator="lessThan" value="39705.0"/>
											<Node id="103" score="0.027412696">
												<SimplePredicate field="y1" operator="lessThan" value="50089.0"/>
											</Node>
											<Node id="104" score="0.059294976">
												<SimplePredicate field="y1" operator="greaterOrEqual" value="50089.0"/>
											</Node>
										</Node>
										<Node id="52" defaultChild="105">
											<SimplePredicate field="y9" operator="greaterOrEqual" value="39705.0"/>
											<Node id="105" score="0.06325603">
												<SimplePredicate field="e4" operator="lessThan" value="56553.0"/>
											</Node>
											<Node id="106" score="0.08184326">
												<SimplePredicate field="e4" operator="greaterOrEqual" value="56553.0"/>
											</Node>
										</Node>
									</Node>
									<Node id="26" defaultChild="53">
										<SimplePredicate field="e3" operator="greaterOrEqual" value="60898.0"/>
										<Node id="53" defaultChild="107">
											<SimplePredicate field="e0" operator="lessThan" value="25728.0"/>
											<Node id="107" score="-0.03776465">
												<SimplePredicate field="y2" operator="lessThan" value="19041.0"/>
											</Node>
											<Node id="108" score="0.022830095">
												<SimplePredicate field="y2" operator="greaterOrEqual" value="19041.0"/>
											</Node>
										</Node>
										<Node id="54" defaultChild="109">
											<SimplePredicate field="e0" operator="greaterOrEqual" value="25728.0"/>
											<Node id="109" score="0.07085282">
												<SimplePredicate field="y3" operator="lessThan" value="12996.0"/>
											</Node>
											<Node id="110" score="0.02881262">
												<SimplePredicate field="y3" operator="greaterOrEqual" value="12996.0"/>
											</Node>
										</Node>
									</Node>
								</Node>
							</Node>
							<Node id="6" defaultChild="13">
								<SimplePredicate field="e8" operator="greaterOrEqual" value="9639.5"/>
								<Node id="13" defaultChild="27">
									<SimplePredicate field="e4" operator="lessThan" value="45417.0"/>
									<Node id="27" defaultChild="55">
										<SimplePredicate field="y0" operator="lessThan" value="25266.0"/>
										<Node id="55" defaultChild="111">
											<SimplePredicate field="y5" operator="lessThan" value="55747.0"/>
											<Node id="111" score="-0.10785339">
												<SimplePredicate field="y6" operator="lessThan" value="17087.0"/>
											</Node>
											<Node id="112" score="0.030325472">
												<SimplePredicate field="y6" operator="greaterOrEqual" value="17087.0"/>
											</Node>
										</Node>
										<Node id="56" defaultChild="113">
											<SimplePredicate field="y5" operator="greaterOrEqual" value="55747.0"/>
											<Node id="113" score="-0.01836608">
												<SimplePredicate field="y11" operator="lessThan" value="32252.5"/>
											</Node>
											<Node id="114" score="-0.070835814">
												<SimplePredicate field="y11" operator="greaterOrEqual" value="32252.5"/>
											</Node>
										</Node>
									</Node>
									<Node id="28" defaultChild="57">
										<SimplePredicate field="y0" operator="greaterOrEqual" value="25266.0"/>
										<Node id="57" defaultChild="115">
											<SimplePredicate field="e3" operator="lessThan" value="14133.0"/>
											<Node id="115" score="0.015376461">
												<SimplePredicate field="e11" operator="lessThan" value="64233.0"/>
											</Node>
											<Node id="116" score="0.05499308">
												<SimplePredicate field="e11" operator="greaterOrEqual" value="64233.0"/>
											</Node>
										</Node>
										<Node id="58" defaultChild="117">
											<SimplePredicate field="e3" operator="greaterOrEqual" value="14133.0"/>
											<Node id="117" score="0.05700152">
												<SimplePredicate field="y8" operator="lessThan" value="64910.0"/>
											</Node>
											<Node id="118" score="0.032841086">
												<SimplePredicate field="y8" operator="greaterOrEqual" value="64910.0"/>
											</Node>
										</Node>
									</Node>
								</Node>
								<Node id="14" defaultChild="29">
									<SimplePredicate field="e4" operator="greaterOrEqual" value="45417.0"/>
									<Node id="29" defaultChild="59">
										<SimplePredicate field="e7" operator="lessThan" value="58443.0"/>
										<Node id="59" defaultChild="119">
											<SimplePredicate field="y4" operator="lessThan" value="45417.0"/>
											<Node id="119" score="7.2442065E-4">
												<SimplePredicate field="y8" operator="lessThan" value="55339.0"/>
											</Node>
											<Node id="120" score="-0.040841863">
												<SimplePredicate field="y8" operator="greaterOrEqual" value="55339.0"/>
											</Node>
										</Node>
										<Node id="60" defaultChild="121">
											<SimplePredicate field="y4" operator="greaterOrEqual" value="45417.0"/>
											<Node id="121" score="0.039310053">
												<SimplePredicate field="y8" operator="lessThan" value="64005.0"/>
											</Node>
											<Node id="122" score="-0.0097635975">
												<SimplePredicate field="y8" operator="greaterOrEqual" value="64005.0"/>
											</Node>
										</Node>
									</Node>
									<Node id="30" defaultChild="61">
										<SimplePredicate field="e7" operator="greaterOrEqual" value="58443.0"/>
										<Node id="61" defaultChild="123">
											<SimplePredicate field="e1" operator="lessThan" value="50071.0"/>
											<Node id="123" score="-0.021325182">
												<SimplePredicate field="e2" operator="lessThan" value="16438.0"/>
											</Node>
											<Node id="124" score="0.071949854">
												<SimplePredicate field="e2" operator="greaterOrEqual" value="16438.0"/>
											</Node>
										</Node>
										<Node id="62" defaultChild="125">
											<SimplePredicate field="e1" operator="greaterOrEqual" value="50071.0"/>
											<Node id="125" score="0.027921263">
												<SimplePredicate field="e2" operator="lessThan" value="60033.0"/>
											</Node>
											<Node id="126" score="-0.032126684">
												<SimplePredicate field="e2" operator="greaterOrEqual" value="60033.0"/>
											</Node>
										</Node>
									</Node>
								</Node>
							</Node>
						</Node>
					</Node>
				</TreeModel>
			</Segment>
			<Segment id="3">
				<True/>
				<TreeModel functionName="regression" missingValueStrategy="defaultChild" splitCharacteristic="binarySplit" x-mathContext="float">
					<MiningSchema>
						<MiningField name="e0"/>
						<MiningField name="e1"/>
						<MiningField name="e10"/>
						<MiningField name="e2"/>
						<MiningField name="e3"/>
						<MiningField name="e4"/>
						<MiningField name="e5"/>
						<MiningField name="e6"/>
						<MiningField name="e7"/>
						<MiningField name="e8"/>
						<MiningField name="e9"/>
						<MiningField name="y0"/>
						<MiningField name="y1"/>
						<MiningField name="y2"/>
						<MiningField name="y3"/>
						<MiningField name="y4"/>
						<MiningField name="y5"/>
						<MiningField name="y6"/>
						<MiningField name="y7"/>
						<MiningField name="y8"/>
					</MiningSchema>
					<Node id="0" defaultChild="1">
						<True/>
						<Node id="1" defaultChild="3">
							<SimplePredicate field="y8" operator="lessThan" value="9639.5"/>
							<Node id="3" defaultChild="7">
								<SimplePredicate field="y6" operator="lessThan" value="6285.5"/>
								<Node id="7" defaultChild="15">
									<SimplePredicate field="y2" operator="lessThan" value="11218.0"/>
									<Node id="15" defaultChild="31">
										<SimplePredicate field="e3" operator="lessThan" value="30938.0"/>
										<Node id="31" defaultChild="63">
											<SimplePredicate field="e2" operator="lessThan" value="19095.0"/>
											<Node id="63" score="0.008559351">
												<SimplePredicate field="e1" operator="lessThan" value="50329.0"/>
											</Node>
											<Node id="64" score="-0.044590384">
												<SimplePredicate field="e1" operator="greaterOrEqual" value="50329.0"/>
											</Node>
										</Node>
										<Node id="32" defaultChild="65">
											<SimplePredicate field="e2" operator="greaterOrEqual" value="19095.0"/>
											<Node id="65" score="-0.09291178">
												<SimplePredicate field="e2" operator="lessThan" value="19196.0"/>
											</Node>
											<Node id="66" score="0.00256388">
												<SimplePredicate field="e2" operator="greaterOrEqual" value="19196.0"/>
											</Node>
										</Node>
									</Node>
									<Node id="16" defaultChild="33">
										<SimplePredicate field="e3" operator="greaterOrEqual" value="30938.0"/>
										<Node id="33" defaultChild="67">
											<SimplePredicate field="e9" operator="lessThan" value="65570.0"/>
											<Node id="67" score="0.058329415">
												<SimplePredicate field="e6" operator="lessThan" value="64910.0"/>
											</Node>
											<Node id="68" score="-0.0037151163">
												<SimplePredicate field="e6" operator="greaterOrEqual" value="64910.0"/>
											</Node>
										</Node>
										<Node id="34" defaultChild="69">
											<SimplePredicate field="e9" operator="greaterOrEqual" value="65570.0"/>
											<Node id="69" score="0.060071055">
												<SimplePredicate field="e2" operator="lessThan" value="19098.0"/>
											</Node>
											<Node id="70" score="-0.039650347">
												<SimplePredicate field="e2" operator="greaterOrEqual" value="19098.0"/>
											</Node>
										</Node>
									</Node>
								</Node>
								<Node id="8" defaultChild="17">
									<SimplePredicate field="y2" operator="greaterOrEqual" value="11218.0"/>
									<Node id="17" defaultChild="35">
										<SimplePredicate field="e6" operator="lessThan" value="6065.0"/>
										<Node id="35" defaultChild="71">
											<SimplePredicate field="e1" operator="lessThan" value="50243.5"/>
											<Node id="71" score="-0.028304199">
												<SimplePredicate field="y0" operator="lessThan" value="25459.5"/>
											</Node>
											<Node id="72" score="0.09862114">
												<SimplePredicate field="y0" operator="greaterOrEqual" value="25459.5"/>
											</Node>
										</Node>
										<Node id="36" defaultChild="73">
											<SimplePredicate field="e1" operator="greaterOrEqual" value="50243.5"/>
											<Node id="73" score="-0.03822628">
												<SimplePredicate field="y4" operator="lessThan" value="50758.0"/>
											</Node>
											<Node id="74" score="0.024690436">
												<SimplePredicate field="y4" operator="greaterOrEqual" value="50758.0"/>
											</Node>
										</Node>
									</Node>
									<Node id="18" defaultChild="37">
										<SimplePredicate field="e6" operator="greaterOrEqual" value="6065.0"/>
										<Node id="37" defaultChild="75">
											<SimplePredicate field="y4" operator="lessThan" value="41684.0"/>
											<Node id="75" score="-0.03826749">
												<SimplePredicate field="e4" operator="lessThan" value="18107.0"/>
											</Node>
											<Node id="76" score="-0.06671533">
												<SimplePredicate field="e4" operator="greaterOrEqual" value="18107.0"/>
											</Node>
										</Node>
										<Node id="38" defaultChild="77">
											<SimplePredicate field="y4" operator="greaterOrEqual" value="41684.0"/>
											<Node id="77" score="-0.032127667">
												<SimplePredicate field="y5" operator="lessThan" value="65756.0"/>
											</Node>
											<Node id="78" score="-0.061735794">
												<SimplePredicate field="y5" operator="greaterOrEqual" value="65756.0"/>
											</Node>
										</Node>
									</Node>
								</Node>
							</Node>
							<Node id="4" defaultChild="9">
								<SimplePredicate field="y6" operator="greaterOrEqual" value="6285.5"/>
								<Node id="9" defaultChild="19">
									<SimplePredicate field="e9" operator="lessThan" value="44613.0"/>
									<Node id="19" defaultChild="39">
										<SimplePredicate field="e6" operator="lessThan" value="6065.0"/>
										<Node id="39" defaultChild="79">
											<SimplePredicate field="e5" operator="lessThan" value="6065.0"/>
											<Node id="79" score="0.07525132">
												<SimplePredicate field="y4" operator="lessThan" value="58295.0"/>
											</Node>
											<Node id="80" score="0.055428896">
												<SimplePredicate field="y4" operator="greaterOrEqual" value="58295.0"/>
											</Node>
										</Node>
										<Node id="40" defaultChild="81">
											<SimplePredicate field="e5" operator="greaterOrEqual" value="6065.0"/>
											<Node id="81" score="0.02391919">
												<SimplePredicate field="e5" operator="lessThan" value="61250.0"/>
											</Node>
											<Node id="82" score="0.059352797">
												<SimplePredicate field="e5" operator="greaterOrEqual" value="61250.0"/>
											</Node>
										</Node>
									</Node>
									<Node id="20" defaultChild="41">
										<SimplePredicate field="e6" operator="greaterOrEqual" value="6065.0"/>
										<Node id="41" defaultChild="83">
											<SimplePredicate field="e3" operator="lessThan" value="60898.0"/>
											<Node id="83" score="0.023713218">
												<SimplePredicate field="e0" operator="lessThan" value="26523.5"/>
											</Node>
											<Node id="84" score="-0.005690501">
												<SimplePredicate field="e0" operator="greaterOrEqual" value="26523.5"/>
											</Node>
										</Node>
										<Node id="42" defaultChild="85">
											<SimplePredicate field="e3" operator="greaterOrEqual" value="60898.0"/>
											<Node id="85" score="-0.08775133">
												<SimplePredicate field="e0" operator="lessThan" value="25674.0"/>
											</Node>
											<Node id="86" score="-0.035411634">
												<SimplePredicate field="e0" operator="greaterOrEqual" value="25674.0"/>
											</Node>
										</Node>
									</Node>
								</Node>
								<Node id="10" defaultChild="21">
									<SimplePredicate field="e9" operator="greaterOrEqual" value="44613.0"/>
									<Node id="21" defaultChild="43">
										<SimplePredicate field="y6" operator="lessThan" value="53217.0"/>
										<Node id="43" defaultChild="87">
											<SimplePredicate field="y1" operator="lessThan" value="50332.5"/>
											<Node id="87" score="0.026228888">
												<SimplePredicate field="e1" operator="lessThan" value="50329.0"/>
											</Node>
											<Node id="88" score="-0.015754104">
												<SimplePredicate field="e1" operator="greaterOrEqual" value="50329.0"/>
											</Node>
										</Node>
										<Node id="44" defaultChild="89">
											<SimplePredicate field="y1" operator="greaterOrEqual" value="50332.5"/>
											<Node id="89" score="0.008767684">
												<SimplePredicate field="e0" operator="lessThan" value="25266.0"/>
											</Node>
											<Node id="90" score="-0.04425186">
												<SimplePredicate field="e0" operator="greaterOrEqual" value="25266.0"/>
											</Node>
										</Node>
									</Node>
									<Node id="22" defaultChild="45">
										<SimplePredicate field="y6" operator="greaterOrEqual" value="53217.0"/>
										<Node id="45" defaultChild="91">
											<SimplePredicate field="y3" operator="lessThan" value="45889.0"/>
											<Node id="91" score="-0.034117315">
												<SimplePredicate field="y7" operator="lessThan" value="65993.0"/>
											</Node>
											<Node id="92" score="0.035084564">
												<SimplePredicate field="y7" operator="greaterOrEqual" value="65993.0"/>
											</Node>
										</Node>
										<Node id="46" defaultChild="93">
											<SimplePredicate field="y3" operator="greaterOrEqual" value="45889.0"/>
											<Node id="93" score="0.013954378">
												<SimplePredicate field="e10" operator="lessThan" value="66170.0"/>
											</Node>
											<Node id="94" score="-0.032275032">
												<SimplePredicate field="e10" operator="greaterOrEqual" value="66170.0"/>
											</Node>
										</Node>
									</Node>
								</Node>
							</Node>
						</Node>
						<Node id="2" defaultChild="5">
							<SimplePredicate field="y8" operator="greaterOrEqual" value="9639.5"/>
							<Node id="5" defaultChild="11">
								<SimplePredicate field="e9" operator="lessThan" value="39705.0"/>
								<Node id="11" defaultChild="23">
									<SimplePredicate field="e1" operator="lessThan" value="50089.0"/>
									<Node id="23" defaultChild="47">
										<SimplePredicate field="e7" operator="lessThan" value="59446.0"/>
										<Node id="47" defaultChild="95">
											<SimplePredicate field="e1" operator="lessThan" value="50053.0"/>
											<Node id="95" score="-0.011305301">
												<SimplePredicate field="y5" operator="lessThan" value="42305.0"/>
											</Node>
											<Node id="96" score="0.045886986">
												<SimplePredicate field="y5" operator="greaterOrEqual" value="42305.0"/>
											</Node>
										</Node>
										<Node id="48" defaultChild="97">
											<SimplePredicate field="e1" operator="greaterOrEqual" value="50053.0"/>
											<Node id="97" score="-0.0015027345">
												<SimplePredicate field="y5" operator="lessThan" value="14620.0"/>
											</Node>
											<Node id="98" score="0.05141568">
												<SimplePredicate field="y5" operator="greaterOrEqual" value="14620.0"/>
											</Node>
										</Node>
									</Node>
									<Node id="24" defaultChild="49">
										<SimplePredicate field="e7" operator="greaterOrEqual" value="59446.0"/>
										<Node id="49" defaultChild="99">
											<SimplePredicate field="e8" operator="lessThan" value="64910.0"/>
											<Node id="99" score="0.06710342">
												<SimplePredicate field="e7" operator="lessThan" value="61268.0"/>
											</Node>
											<Node id="100" score="0.045361243">
												<SimplePredicate field="e7" operator="greaterOrEqual" value="61268.0"/>
											</Node>
										</Node>
										<Node id="50" defaultChild="101">
											<SimplePredicate field="e8" operator="greaterOrEqual" value="64910.0"/>
											<Node id="101" score="0.062208604">
												<SimplePredicate field="e2" operator="lessThan" value="19196.0"/>
											</Node>
											<Node id="102" score="0.08427128">
												<SimplePredicate field="e2" operator="greaterOrEqual" value="19196.0"/>
											</Node>
										</Node>
									</Node>
								</Node>
								<Node id="12" defaultChild="25">
									<SimplePredicate field="e1" operator="greaterOrEqual" value="50089.0"/>
									<Node id="25" defaultChild="51">
										<SimplePredicate field="e8" operator="lessThan" value="9639.5"/>
										<Node id="51" defaultChild="103">
											<SimplePredicate field="e6" operator="lessThan" value="6285.5"/>
											<Node id="103" score="0.033661995">
												<SimplePredicate field="e2" operator="lessThan" value="11218.0"/>
											</Node>
											<Node id="104" score="0.06688541">
												<SimplePredicate field="e2" operator="greaterOrEqual" value="11218.0"/>
											</Node>
										</Node>
										<Node id="52" defaultChild="105">
											<SimplePredicate field="e6" operator="greaterOrEqual" value="6285.5"/>
											<Node id="105" score="0.043953467">
												<SimplePredicate field="e5" operator="lessThan" value="65375.0"/>
											</Node>
											<Node id="106" score="0.008320114">
												<SimplePredicate field="e5" operator="greaterOrEqual" value="65375.0"/>
											</Node>
										</Node>
									</Node>
									<Node id="26" defaultChild="53">
										<SimplePredicate field="e8" operator="greaterOrEqual" value="9639.5"/>
										<Node id="53" defaultChild="107">
											<SimplePredicate field="e1" operator="lessThan" value="50308.0"/>
											<Node id="107" score="-0.012154895">
												<SimplePredicate field="e1" operator="lessThan" value="50176.0"/>
											</Node>
											<Node id="108" score="0.018735964">
												<SimplePredicate field="e1" operator="greaterOrEqual" value="50176.0"/>
											</Node>
										</Node>
										<Node id="54" defaultChild="109">
											<SimplePredicate field="e1" operator="greaterOrEqual" value="50308.0"/>
											<Node id="109" score="0.030496461">
												<SimplePredicate field="e6" operator="lessThan" value="58564.0"/>
											</Node>
											<Node id="110" score="0.07119318">
												<SimplePredicate field="e6" operator="greaterOrEqual" value="58564.0"/>
											</Node>
										</Node>
									</Node>
								</Node>
							</Node>
							<Node id="6" defaultChild="13">
								<SimplePredicate field="e9" operator="greaterOrEqual" value="39705.0"/>
								<Node id="13" defaultChild="27">
									<SimplePredicate field="e5" operator="lessThan" value="44539.0"/>
									<Node id="27" defaultChild="55">
										<SimplePredicate field="e8" operator="lessThan" value="55795.0"/>
										<Node id="55" defaultChild="111">
											<SimplePredicate field="e1" operator="lessThan" value="50341.0"/>
											<Node id="111" score="0.026739672">
												<SimplePredicate field="e0" operator="lessThan" value="25703.5"/>
											</Node>
											<Node id="112" score="-9.5426914E-4">
												<SimplePredicate field="e0" operator="greaterOrEqual" value="25703.5"/>
											</Node>
										</Node>
										<Node id="56" defaultChild="113">
											<SimplePredicate field="e1" operator="greaterOrEqual" value="50341.0"/>
											<Node id="113" score="0.12312863">
												<SimplePredicate field="y0" operator="lessThan" value="25254.0"/>
											</Node>
											<Node id="114" score="0.09337136">
												<SimplePredicate field="y0" operator="greaterOrEqual" value="25254.0"/>
											</Node>
										</Node>
									</Node>
									<Node id="28" defaultChild="57">
										<SimplePredicate field="e8" operator="greaterOrEqual" value="55795.0"/>
										<Node id="57" defaultChild="115">
											<SimplePredicate field="e6" operator="lessThan" value="64931.0"/>
											<Node id="115" score="0.02146614">
												<SimplePredicate field="y0" operator="lessThan" value="25266.0"/>
											</Node>
											<Node id="116" score="0.04187441">
												<SimplePredicate field="y0" operator="greaterOrEqual" value="25266.0"/>
											</Node>
										</Node>
										<Node id="58" defaultChild="117">
											<SimplePredicate field="e6" operator="greaterOrEqual" value="64931.0"/>
											<Node id="117" score="-0.099477954">
												<SimplePredicate field="y0" operator="lessThan" value="25254.0"/>
											</Node>
											<Node id="118" score="-0.011152853">
												<SimplePredicate field="y0" operator="greaterOrEqual" value="25254.0"/>
											</Node>
										</Node>
									</Node>
								</Node>
								<Node id="14" defaultChild="29">
									<SimplePredicate field="e5" operator="greaterOrEqual" value="44539.0"/>
									<Node id="29" defaultChild="59">
										<SimplePredicate field="e7" operator="lessThan" value="49615.0"/>
										<Node id="59" defaultChild="119">
											<SimplePredicate field="y1" operator="lessThan" value="50071.0"/>
											<Node id="119" score="0.049702074">
												<SimplePredicate field="e2" operator="lessThan" value="7822.0"/>
											</Node>
											<Node id="120" score="-0.041403864">
												<SimplePredicate field="e2" operator="greaterOrEqual" value="7822.0"/>
											</Node>
										</Node>
										<Node id="60" defaultChild="121">
											<SimplePredicate field="y1" operator="greaterOrEqual" value="50071.0"/>
											<Node id="121" score="-0.018001566">
												<SimplePredicate field="y5" operator="lessThan" value="44539.0"/>
											</Node>
											<Node id="122" score="0.013327186">
												<SimplePredicate field="y5" operator="greaterOrEqual" value="44539.0"/>
											</Node>
										</Node>
									</Node>
									<Node id="30" defaultChild="61">
										<SimplePredicate field="e7" operator="greaterOrEqual" value="49615.0"/>
										<Node id="61" defaultChild="123">
											<SimplePredicate field="e0" operator="lessThan" value="25269.0"/>
											<Node id="123" score="0.023832204">
												<SimplePredicate field="e2" operator="lessThan" value="19214.0"/>
											</Node>
											<Node id="124" score="0.07943195">
												<SimplePredicate field="e2" operator="greaterOrEqual" value="19214.0"/>
											</Node>
										</Node>
										<Node id="62" defaultChild="125">
											<SimplePredicate field="e0" operator="greaterOrEqual" value="25269.0"/>
											<Node id="125" score="0.024724914">
												<SimplePredicate field="e3" operator="lessThan" value="38738.0"/>
											</Node>
											<Node id="126" score="0.0014980244">
												<SimplePredicate field="e3" operator="greaterOrEqual" value="38738.0"/>
											</Node>
										</Node>
									</Node>
								</Node>
							</Node>
						</Node>
					</Node>
				</TreeModel>
			</Segment>
			<Segment id="4">
				<True/>
				<TreeModel functionName="regression" missingValueStrategy="defaultChild" splitCharacteristic="binarySplit" x-mathContext="float">
					<MiningSchema>
						<MiningField name="e0"/>
						<MiningField name="e2"/>
						<MiningField name="e3"/>
						<MiningField name="e4"/>
						<MiningField name="e5"/>
						<MiningField name="e6"/>
						<MiningField name="e7"/>
						<MiningField name="e8"/>
						<MiningField name="e9"/>
						<MiningField name="y0"/>
						<MiningField name="y1"/>
						<MiningField name="y10"/>
						<MiningField name="y11"/>
						<MiningField name="y2"/>
						<MiningField name="y3"/>
						<MiningField name="y4"/>
						<MiningField name="y5"/>
						<MiningField name="y6"/>
						<MiningField name="y7"/>
						<MiningField name="y8"/>
						<MiningField name="y9"/>
					</MiningSchema>
					<Node id="0" defaultChild="1">
						<True/>
						<Node id="1" defaultChild="3">
							<SimplePredicate field="y9" operator="lessThan" value="36080.5"/>
							<Node id="3" defaultChild="7">
								<SimplePredicate field="y6" operator="lessThan" value="6065.0"/>
								<Node id="7" defaultChild="15">
									<SimplePredicate field="y1" operator="lessThan" value="50302.0"/>
									<Node id="15" defaultChild="31">
										<SimplePredicate field="e9" operator="lessThan" value="55654.0"/>
										<Node id="31" defaultChild="63">
											<SimplePredicate field="y4" operator="lessThan" value="41684.0"/>
											<Node id="63" score="-0.047165923">
												<SimplePredicate field="e2" operator="lessThan" value="19196.0"/>
											</Node>
											<Node id="64" score="-0.024292381">
												<SimplePredicate field="e2" operator="greaterOrEqual" value="19196.0"/>
											</Node>
										</Node>
										<Node id="32" defaultChild="65">
											<SimplePredicate field="y4" operator="greaterOrEqual" value="41684.0"/>
											<Node id="65" score="-0.02995477">
												<SimplePredicate field="e3" operator="lessThan" value="30938.0"/>
											</Node>
											<Node id="66" score="-0.0028219698">
												<SimplePredicate field="e3" operator="greaterOrEqual" value="30938.0"/>
											</Node>
										</Node>
									</Node>
									<Node id="16" defaultChild="33">
										<SimplePredicate field="e9" operator="greaterOrEqual" value="55654.0"/>
										<Node id="33" defaultChild="67">
											<SimplePredicate field="e6" operator="lessThan" value="17087.0"/>
											<Node id="67" score="-0.030007934">
												<SimplePredicate field="e2" operator="lessThan" value="10571.0"/>
											</Node>
											<Node id="68" score="0.016019274">
												<SimplePredicate field="e2" operator="greaterOrEqual" value="10571.0"/>
											</Node>
										</Node>
										<Node id="34" defaultChild="69">
											<SimplePredicate field="e6" operator="greaterOrEqual" value="17087.0"/>
											<Node id="69" score="-0.03602736">
												<SimplePredicate field="y1" operator="lessThan" value="50128.0"/>
											</Node>
											<Node id="70" score="-0.049964916">
												<SimplePredicate field="y1" operator="greaterOrEqual" value="50128.0"/>
											</Node>
										</Node>
									</Node>
								</Node>
								<Node id="8" defaultChild="17">
									<SimplePredicate field="y1" operator="greaterOrEqual" value="50302.0"/>
									<Node id="17" defaultChild="35">
										<SimplePredicate field="y2" operator="lessThan" value="15588.5"/>
										<Node id="35" defaultChild="71">
											<SimplePredicate field="e9" operator="lessThan" value="47382.0"/>
											<Node id="71" score="-7.138351E-4">
												<SimplePredicate field="e3" operator="lessThan" value="19208.0"/>
											</Node>
											<Node id="72" score="0.040685754">
												<SimplePredicate field="e3" operator="greaterOrEqual" value="19208.0"/>
											</Node>
										</Node>
										<Node id="36" defaultChild="73">
											<SimplePredicate field="e9" operator="greaterOrEqual" value="47382.0"/>
											<Node id="73" score="0.0059633707">
												<SimplePredicate field="e0" operator="lessThan" value="25471.5"/>
											</Node>
											<Node id="74" score="-0.018066013">
												<SimplePredicate field="e0" operator="greaterOrEqual" value="25471.5"/>
											</Node>
										</Node>
									</Node>
									<Node id="18" defaultChild="37">
										<SimplePredicate field="y2" operator="greaterOrEqual" value="15588.5"/>
										<Node id="37" defaultChild="75">
											<SimplePredicate field="y1" operator="lessThan" value="50308.0"/>
											<Node id="75" score="0.036482353">
												<SimplePredicate field="e6" operator="lessThan" value="36080.5"/>
											</Node>
											<Node id="76" score="-0.016542716">
												<SimplePredicate field="e6" operator="greaterOrEqual" value="36080.5"/>
											</Node>
										</Node>
										<Node id="38" defaultChild="77">
											<SimplePredicate field="y1" operator="greaterOrEqual" value="50308.0"/>
											<Node id="77" score="-0.011297101">
												<SimplePredicate field="e8" operator="lessThan" value="9639.5"/>
											</Node>
											<Node id="78" score="-0.044097345">
												<SimplePredicate field="e8" operator="greaterOrEqual" value="9639.5"/>
											</Node>
										</Node>
									</Node>
								</Node>
							</Node>
							<Node id="4" defaultChild="9">
								<SimplePredicate field="y6" operator="greaterOrEqual" value="6065.0"/>
								<Node id="9" defaultChild="19">
									<SimplePredicate field="y1" operator="lessThan" value="50089.0"/>
									<Node id="19" defaultChild="39">
										<SimplePredicate field="y3" operator="lessThan" value="48973.0"/>
										<Node id="39" defaultChild="79">
											<SimplePredicate field="y6" operator="lessThan" value="52717.0"/>
											<Node id="79" score="0.012837327">
												<SimplePredicate field="e0" operator="lessThan" value="26523.5"/>
											</Node>
											<Node id="80" score="-0.041733377">
												<SimplePredicate field="e0" operator="greaterOrEqual" value="26523.5"/>
											</Node>
										</Node>
										<Node id="40" defaultChild="81">
											<SimplePredicate field="y6" operator="greaterOrEqual" value="52717.0"/>
											<Node id="81" score="0.003107632">
												<SimplePredicate field="e8" operator="lessThan" value="9639.5"/>
											</Node>
											<Node id="82" score="-0.030715043">
												<SimplePredicate field="e8" operator="greaterOrEqual" value="9639.5"/>
											</Node>
										</Node>
									</Node>
									<Node id="20" defaultChild="41">
										<SimplePredicate field="y3" operator="greaterOrEqual" value="48973.0"/>
										<Node id="41" defaultChild="83">
											<SimplePredicate field="e0" operator="lessThan" value="25254.0"/>
											<Node id="83" score="-0.017881207">
												<SimplePredicate field="e4" operator="lessThan" value="53484.0"/>
											</Node>
											<Node id="84" score="0.0561384">
												<SimplePredicate field="e4" operator="greaterOrEqual" value="53484.0"/>
											</Node>
										</Node>
										<Node id="42" defaultChild="85">
											<SimplePredicate field="e0" operator="greaterOrEqual" value="25254.0"/>
											<Node id="85" score="0.003243181">
												<SimplePredicate field="y1" operator="lessThan" value="50065.0"/>
											</Node>
											<Node id="86" score="0.036836833">
												<SimplePredicate field="y1" operator="greaterOrEqual" value="50065.0"/>
											</Node>
										</Node>
									</Node>
								</Node>
								<Node id="10" defaultChild="21">
									<SimplePredicate field="y1" operator="greaterOrEqual" value="50089.0"/>
									<Node id="21" defaultChild="43">
										<SimplePredicate field="y1" operator="lessThan" value="50308.0"/>
										<Node id="43" defaultChild="87">
											<SimplePredicate field="y8" operator="lessThan" value="9639.5"/>
											<Node id="87" score="0.01790551">
												<SimplePredicate field="y7" operator="lessThan" value="62062.0"/>
											</Node>
											<Node id="88" score="-0.007558936">
												<SimplePredicate field="y7" operator="greaterOrEqual" value="62062.0"/>
											</Node>
										</Node>
										<Node id="44" defaultChild="89">
											<SimplePredicate field="y8" operator="greaterOrEqual" value="9639.5"/>
											<Node id="89" score="0.018201733">
												<SimplePredicate field="y2" operator="lessThan" value="19098.0"/>
											</Node>
											<Node id="90" score="0.04664756">
												<SimplePredicate field="y2" operator="greaterOrEqual" value="19098.0"/>
											</Node>
										</Node>
									</Node>
									<Node id="22" defaultChild="45">
										<SimplePredicate field="y1" operator="greaterOrEqual" value="50308.0"/>
										<Node id="45" defaultChild="91">
											<SimplePredicate field="y1" operator="lessThan" value="50341.0"/>
											<Node id="91" score="-0.008804908">
												<SimplePredicate field="y5" operator="lessThan" value="62334.0"/>
											</Node>
											<Node id="92" score="-0.08431703">
												<SimplePredicate field="y5" operator="greaterOrEqual" value="62334.0"/>
											</Node>
										</Node>
										<Node id="46" defaultChild="93">
											<SimplePredicate field="y1" operator="greaterOrEqual" value="50341.0"/>
											<Node id="93" score="0.048242018">
												<SimplePredicate field="y1" operator="lessThan" value="50353.0"/>
											</Node>
											<Node id="94" score="0.008827292">
												<SimplePredicate field="y1" operator="greaterOrEqual" value="50353.0"/>
											</Node>
										</Node>
									</Node>
								</Node>
							</Node>
						</Node>
						<Node id="2" defaultChild="5">
							<SimplePredicate field="y9" operator="greaterOrEqual" value="36080.5"/>
							<Node id="5" defaultChild="11">
								<SimplePredicate field="y5" operator="lessThan" value="44539.0"/>
								<Node id="11" defaultChild="23">
									<SimplePredicate field="y4" operator="lessThan" value="42970.0"/>
									<Node id="23" defaultChild="47">
										<SimplePredicate field="e0" operator="lessThan" value="26523.5"/>
										<Node id="47" defaultChild="95">
											<SimplePredicate field="e9" operator="lessThan" value="39705.0"/>
											<Node id="95" score="0.010679436">
												<SimplePredicate field="e4" operator="lessThan" value="15607.0"/>
											</Node>
											<Node id="96" score="0.0340732">
												<SimplePredicate field="e4" operator="greaterOrEqual" value="15607.0"/>
											</Node>
										</Node>
										<Node id="48" defaultChild="97">
											<SimplePredicate field="e9" operator="greaterOrEqual" value="39705.0"/>
											<Node id="97" score="0.0272107">
												<SimplePredicate field="y1" operator="lessThan" value="50089.0"/>
											</Node>
											<Node id="98" score="0.006497124">
												<SimplePredicate field="y1" operator="greaterOrEqual" value="50089.0"/>
											</Node>
										</Node>
									</Node>
									<Node id="24" defaultChild="49">
										<SimplePredicate field="e0" operator="greaterOrEqual" value="26523.5"/>
										<Node id="49" defaultChild="99">
											<SimplePredicate field="y3" operator="lessThan" value="14133.0"/>
											<Node id="99" score="0.07793933">
												<SimplePredicate field="y9" operator="lessThan" value="59480.0"/>
											</Node>
											<Node id="100" score="0.025704218">
												<SimplePredicate field="y9" operator="greaterOrEqual" value="59480.0"/>
											</Node>
										</Node>
										<Node id="50" defaultChild="101">
											<SimplePredicate field="y3" operator="greaterOrEqual" value="14133.0"/>
											<Node id="101" score="-0.03493279">
												<SimplePredicate field="y6" operator="lessThan" value="36080.5"/>
											</Node>
											<Node id="102" score="-0.0011438126">
												<SimplePredicate field="y6" operator="greaterOrEqual" value="36080.5"/>
											</Node>
										</Node>
									</Node>
								</Node>
								<Node id="12" defaultChild="25">
									<SimplePredicate field="y4" operator="greaterOrEqual" value="42970.0"/>
									<Node id="25" defaultChild="51">
										<SimplePredicate field="y0" operator="lessThan" value="25914.5"/>
										<Node id="51" defaultChild="103">
											<SimplePredicate field="e9" operator="lessThan" value="64973.0"/>
											<Node id="103" score="-0.04088835">
												<SimplePredicate field="e4" operator="lessThan" value="25036.0"/>
											</Node>
											<Node id="104" score="-0.012706646">
												<SimplePredicate field="e4" operator="greaterOrEqual" value="25036.0"/>
											</Node>
										</Node>
										<Node id="52" defaultChild="105">
											<SimplePredicate field="e9" operator="greaterOrEqual" value="64973.0"/>
											<Node id="105" score="0.021278655">
												<SimplePredicate field="e8" operator="lessThan" value="49315.0"/>
											</Node>
											<Node id="106" score="-0.059001494">
												<SimplePredicate field="e8" operator="greaterOrEqual" value="49315.0"/>
											</Node>
										</Node>
									</Node>
									<Node id="26" defaultChild="53">
										<SimplePredicate field="y0" operator="greaterOrEqual" value="25914.5"/>
										<Node id="53" defaultChild="107">
											<SimplePredicate field="e6" operator="lessThan" value="17087.0"/>
											<Node id="107" score="0.053287487">
												<SimplePredicate field="e0" operator="lessThan" value="25716.0"/>
											</Node>
											<Node id="108" score="-0.019173352">
												<SimplePredicate field="e0" operator="greaterOrEqual" value="25716.0"/>
											</Node>
										</Node>
										<Node id="54" defaultChild="109">
											<SimplePredicate field="e6" operator="greaterOrEqual" value="17087.0"/>
											<Node id="109" score="-0.05513623">
												<SimplePredicate field="e3" operator="lessThan" value="12148.5"/>
											</Node>
											<Node id="110" score="-0.14754103">
												<SimplePredicate field="e3" operator="greaterOrEqual" value="12148.5"/>
											</Node>
										</Node>
									</Node>
								</Node>
							</Node>
							<Node id="6" defaultChild="13">
								<SimplePredicate field="y5" operator="greaterOrEqual" value="44539.0"/>
								<Node id="13" defaultChild="27">
									<SimplePredicate field="y7" operator="lessThan" value="58443.0"/>
									<Node id="27" defaultChild="55">
										<SimplePredicate field="y4" operator="lessThan" value="46922.0"/>
										<Node id="55" defaultChild="111">
											<SimplePredicate field="y9" operator="lessThan" value="53982.0"/>
											<Node id="111" score="0.03578343">
												<SimplePredicate field="e3" operator="lessThan" value="14133.0"/>
											</Node>
											<Node id="112" score="0.06898802">
												<SimplePredicate field="e3" operator="greaterOrEqual" value="14133.0"/>
											</Node>
										</Node>
										<Node id="56" defaultChild="113">
											<SimplePredicate field="y9" operator="greaterOrEqual" value="53982.0"/>
											<Node id="113" score="0.015545246">
												<SimplePredicate field="y9" operator="lessThan" value="60352.0"/>
											</Node>
											<Node id="114" score="0.0380273">
												<SimplePredicate field="y9" operator="greaterOrEqual" value="60352.0"/>
											</Node>
										</Node>
									</Node>
									<Node id="28" defaultChild="57">
										<SimplePredicate field="y4" operator="greaterOrEqual" value="46922.0"/>
										<Node id="57" defaultChild="115">
											<SimplePredicate field="y0" operator="lessThan" value="26075.0"/>
											<Node id="115" score="0.045548458">
												<SimplePredicate field="e7" operator="lessThan" value="49615.0"/>
											</Node>
											<Node id="116" score="0.06154767">
												<SimplePredicate field="e7" operator="greaterOrEqual" value="49615.0"/>
											</Node>
										</Node>
										<Node id="58" defaultChild="117">
											<SimplePredicate field="y0" operator="greaterOrEqual" value="26075.0"/>
											<Node id="117" score="0.084564656">
												<SimplePredicate field="e5" operator="lessThan" value="25010.0"/>
											</Node>
											<Node id="118" score="0.068736166">
												<SimplePredicate field="e5" operator="greaterOrEqual" value="25010.0"/>
											</Node>
										</Node>
									</Node>
								</Node>
								<Node id="14" defaultChild="29">
									<SimplePredicate field="y7" operator="greaterOrEqual" value="58443.0"/>
									<Node id="29" defaultChild="59">
										<SimplePredicate field="y10" operator="lessThan" value="66170.0"/>
										<Node id="59" defaultChild="119">
											<SimplePredicate field="y11" operator="lessThan" value="62987.0"/>
											<Node id="119" score="0.012735478">
												<SimplePredicate field="y3" operator="lessThan" value="33559.5"/>
											</Node>
											<Node id="120" score="0.03557015">
												<SimplePredicate field="y3" operator="greaterOrEqual" value="33559.5"/>
											</Node>
										</Node>
										<Node id="60" defaultChild="121">
											<SimplePredicate field="y11" operator="greaterOrEqual" value="62987.0"/>
											<Node id="121" score="0.01693827">
												<SimplePredicate field="y3" operator="lessThan" value="56514.0"/>
											</Node>
											<Node id="122" score="-0.053131666">
												<SimplePredicate field="y3" operator="greaterOrEqual" value="56514.0"/>
											</Node>
										</Node>
									</Node>
									<Node id="30" defaultChild="61">
										<SimplePredicate field="y10" operator="greaterOrEqual" value="66170.0"/>
										<Node id="61" defaultChild="123">
											<SimplePredicate field="y1" operator="lessThan" value="50041.0"/>
											<Node id="123" score="-0.07770416">
												<SimplePredicate field="e4" operator="lessThan" value="32217.5"/>
											</Node>
											<Node id="124" score="0.0060186456">
												<SimplePredicate field="e4" operator="greaterOrEqual" value="32217.5"/>
											</Node>
										</Node>
										<Node id="62" defaultChild="125">
											<SimplePredicate field="y1" operator="greaterOrEqual" value="50041.0"/>
											<Node id="125" score="0.043259237">
												<SimplePredicate field="y2" operator="lessThan" value="60451.0"/>
											</Node>
											<Node id="126" score="0.09326066">
												<SimplePredicate field="y2" operator="greaterOrEqual" value="60451.0"/>
											</Node>
										</Node>
									</Node>
								</Node>
							</Node>
						</Node>
					</Node>
				</TreeModel>
			</Segment>
			<Segment id="5">
				<True/>
				<TreeModel functionName="regression" missingValueStrategy="defaultChild" splitCharacteristic="binarySplit" x-mathContext="float">
					<MiningSchema>
						<MiningField name="e0"/>
						<MiningField name="e1"/>
						<MiningField name="e10"/>
						<MiningField name="e2"/>
						<MiningField name="e3"/>
						<MiningField name="e4"/>
						<MiningField name="e5"/>
						<MiningField name="e6"/>
						<MiningField name="e7"/>
						<MiningField name="e8"/>
						<MiningField name="e9"/>
						<MiningField name="y0"/>
						<MiningField name="y1"/>
						<MiningField name="y10"/>
						<MiningField name="y2"/>
						<MiningField name="y3"/>
						<MiningField name="y4"/>
						<MiningField name="y5"/>
						<MiningField name="y6"/>
						<MiningField name="y7"/>
						<MiningField name="y8"/>
						<MiningField name="y9"/>
					</MiningSchema>
					<Node id="0" defaultChild="1">
						<True/>
						<Node id="1" defaultChild="3">
							<SimplePredicate field="y9" operator="lessThan" value="36080.5"/>
							<Node id="3" defaultChild="7">
								<SimplePredicate field="e9" operator="lessThan" value="44613.0"/>
								<Node id="7" defaultChild="15">
									<SimplePredicate field="e8" operator="lessThan" value="64961.0"/>
									<Node id="15" defaultChild="31">
										<SimplePredicate field="e8" operator="lessThan" value="64910.0"/>
										<Node id="31" defaultChild="63">
											<SimplePredicate field="e8" operator="lessThan" value="9639.5"/>
											<Node id="63" score="0.03416076">
												<SimplePredicate field="e6" operator="lessThan" value="6285.5"/>
											</Node>
											<Node id="64" score="0.012498006">
												<SimplePredicate field="e6" operator="greaterOrEqual" value="6285.5"/>
											</Node>
										</Node>
										<Node id="32" defaultChild="65">
											<SimplePredicate field="e8" operator="greaterOrEqual" value="9639.5"/>
											<Node id="65" score="0.01866064">
												<SimplePredicate field="e1" operator="lessThan" value="50089.0"/>
											</Node>
											<Node id="66" score="-0.01150824">
												<SimplePredicate field="e1" operator="greaterOrEqual" value="50089.0"/>
											</Node>
										</Node>
									</Node>
									<Node id="16" defaultChild="33">
										<SimplePredicate field="e8" operator="greaterOrEqual" value="64910.0"/>
										<Node id="33" defaultChild="67">
											<SimplePredicate field="y3" operator="lessThan" value="45889.0"/>
											<Node id="67" score="0.032399394">
												<SimplePredicate field="y0" operator="lessThan" value="25287.0"/>
											</Node>
											<Node id="68" score="0.06153947">
												<SimplePredicate field="y0" operator="greaterOrEqual" value="25287.0"/>
											</Node>
										</Node>
										<Node id="34" defaultChild="69">
											<SimplePredicate field="y3" operator="greaterOrEqual" value="45889.0"/>
											<Node id="69" score="0.08461192">
												<SimplePredicate field="y5" operator="lessThan" value="66407.0"/>
											</Node>
											<Node id="70" score="0.019558314">
												<SimplePredicate field="y5" operator="greaterOrEqual" value="66407.0"/>
											</Node>
										</Node>
									</Node>
								</Node>
								<Node id="8" defaultChild="17">
									<SimplePredicate field="e8" operator="greaterOrEqual" value="64961.0"/>
									<Node id="17" defaultChild="35">
										<SimplePredicate field="e5" operator="lessThan" value="60039.0"/>
										<Node id="35" defaultChild="71">
											<SimplePredicate field="e7" operator="lessThan" value="59434.0"/>
											<Node id="71" score="0.007484103">
												<SimplePredicate field="e2" operator="lessThan" value="19098.0"/>
											</Node>
											<Node id="72" score="-0.041794986">
												<SimplePredicate field="e2" operator="greaterOrEqual" value="19098.0"/>
											</Node>
										</Node>
										<Node id="36" defaultChild="73">
											<SimplePredicate field="e7" operator="greaterOrEqual" value="59434.0"/>
											<Node id="73" score="-0.012383456">
												<SimplePredicate field="y6" operator="lessThan" value="12350.5"/>
											</Node>
											<Node id="74" score="0.025022259">
												<SimplePredicate field="y6" operator="greaterOrEqual" value="12350.5"/>
											</Node>
										</Node>
									</Node>
									<Node id="18" defaultChild="37">
										<SimplePredicate field="e5" operator="greaterOrEqual" value="60039.0"/>
										<Node id="37" defaultChild="75">
											<SimplePredicate field="e2" operator="lessThan" value="9239.0"/>
											<Node id="75" score="-0.023514966">
												<SimplePredicate field="y8" operator="lessThan" value="9639.5"/>
											</Node>
											<Node id="76" score="0.017830221">
												<SimplePredicate field="y8" operator="greaterOrEqual" value="9639.5"/>
											</Node>
										</Node>
										<Node id="38" defaultChild="77">
											<SimplePredicate field="e2" operator="greaterOrEqual" value="9239.0"/>
											<Node id="77" score="-0.051693056">
												<SimplePredicate field="y3" operator="lessThan" value="45889.0"/>
											</Node>
											<Node id="78" score="-0.008539631">
												<SimplePredicate field="y3" operator="greaterOrEqual" value="45889.0"/>
											</Node>
										</Node>
									</Node>
								</Node>
							</Node>
							<Node id="4" defaultChild="9">
								<SimplePredicate field="e9" operator="greaterOrEqual" value="44613.0"/>
								<Node id="9" defaultChild="19">
									<SimplePredicate field="e1" operator="lessThan" value="50329.0"/>
									<Node id="19" defaultChild="39">
										<SimplePredicate field="e9" operator="lessThan" value="48973.0"/>
										<Node id="39" defaultChild="79">
											<SimplePredicate field="y3" operator="lessThan" value="12350.5"/>
											<Node id="79" score="0.083643556">
												<SimplePredicate field="e0" operator="lessThan" value="26075.0"/>
											</Node>
											<Node id="80" score="-0.038584128">
												<SimplePredicate field="e0" operator="greaterOrEqual" value="26075.0"/>
											</Node>
										</Node>
										<Node id="40" defaultChild="81">
											<SimplePredicate field="y3" operator="greaterOrEqual" value="12350.5"/>
											<Node id="81" score="-0.09738889">
												<SimplePredicate field="y4" operator="lessThan" value="48970.0"/>
											</Node>
											<Node id="82" score="-0.05087703">
												<SimplePredicate field="y4" operator="greaterOrEqual" value="48970.0"/>
											</Node>
										</Node>
									</Node>
									<Node id="20" defaultChild="41">
										<SimplePredicate field="e9" operator="greaterOrEqual" value="48973.0"/>
										<Node id="41" defaultChild="83">
											<SimplePredicate field="e4" operator="lessThan" value="45417.0"/>
											<Node id="83" score="-0.022494178">
												<SimplePredicate field="y6" operator="lessThan" value="6065.0"/>
											</Node>
											<Node id="84" score="0.008658394">
												<SimplePredicate field="y6" operator="greaterOrEqual" value="6065.0"/>
											</Node>
										</Node>
										<Node id="42" defaultChild="85">
											<SimplePredicate field="e4" operator="greaterOrEqual" value="45417.0"/>
											<Node id="85" score="0.016066631">
												<SimplePredicate field="y3" operator="lessThan" value="12350.5"/>
											</Node>
											<Node id="86" score="-0.019597348">
												<SimplePredicate field="y3" operator="greaterOrEqual" value="12350.5"/>
											</Node>
										</Node>
									</Node>
								</Node>
								<Node id="10" defaultChild="21">
									<SimplePredicate field="e1" operator="greaterOrEqual" value="50329.0"/>
									<Node id="21" defaultChild="43">
										<SimplePredicate field="e4" operator="lessThan" value="18107.0"/>
										<Node id="43" defaultChild="87">
											<SimplePredicate field="y2" operator="lessThan" value="19098.0"/>
											<Node id="87" score="0.116525404">
												<SimplePredicate field="y8" operator="lessThan" value="9639.5"/>
											</Node>
											<Node id="88" score="0.066181846">
												<SimplePredicate field="y8" operator="greaterOrEqual" value="9639.5"/>
											</Node>
										</Node>
										<Node id="44" defaultChild="89">
											<SimplePredicate field="y2" operator="greaterOrEqual" value="19098.0"/>
											<Node id="89" score="0.0037498674">
												<SimplePredicate field="y7" operator="lessThan" value="60528.0"/>
											</Node>
											<Node id="90" score="0.074454926">
												<SimplePredicate field="y7" operator="greaterOrEqual" value="60528.0"/>
											</Node>
										</Node>
									</Node>
									<Node id="22" defaultChild="45">
										<SimplePredicate field="e4" operator="greaterOrEqual" value="18107.0"/>
										<Node id="45" defaultChild="91">
											<SimplePredicate field="e3" operator="lessThan" value="56514.0"/>
											<Node id="91" score="0.011530967">
												<SimplePredicate field="e7" operator="lessThan" value="26798.5"/>
											</Node>
											<Node id="92" score="-0.02933102">
												<SimplePredicate field="e7" operator="greaterOrEqual" value="26798.5"/>
											</Node>
										</Node>
										<Node id="46" defaultChild="93">
											<SimplePredicate field="e3" operator="greaterOrEqual" value="56514.0"/>
											<Node id="93" score="0.077540725">
												<SimplePredicate field="e0" operator="lessThan" value="25887.5"/>
											</Node>
											<Node id="94" score="-0.014640109">
												<SimplePredicate field="e0" operator="greaterOrEqual" value="25887.5"/>
											</Node>
										</Node>
									</Node>
								</Node>
							</Node>
						</Node>
						<Node id="2" defaultChild="5">
							<SimplePredicate field="y9" operator="greaterOrEqual" value="36080.5"/>
							<Node id="5" defaultChild="11">
								<SimplePredicate field="y6" operator="lessThan" value="42801.0"/>
								<Node id="11" defaultChild="23">
									<SimplePredicate field="y1" operator="lessThan" value="50341.0"/>
									<Node id="23" defaultChild="47">
										<SimplePredicate field="y10" operator="lessThan" value="61370.0"/>
										<Node id="47" defaultChild="95">
											<SimplePredicate field="y7" operator="lessThan" value="55450.0"/>
											<Node id="95" score="0.014164203">
												<SimplePredicate field="y7" operator="lessThan" value="26040.0"/>
											</Node>
											<Node id="96" score="0.036244724">
												<SimplePredicate field="y7" operator="greaterOrEqual" value="26040.0"/>
											</Node>
										</Node>
										<Node id="48" defaultChild="97">
											<SimplePredicate field="y7" operator="greaterOrEqual" value="55450.0"/>
											<Node id="97" score="0.01632321">
												<SimplePredicate field="y1" operator="lessThan" value="50083.0"/>
											</Node>
											<Node id="98" score="-0.026302263">
												<SimplePredicate field="y1" operator="greaterOrEqual" value="50083.0"/>
											</Node>
										</Node>
									</Node>
									<Node id="24" defaultChild="49">
										<SimplePredicate field="y10" operator="greaterOrEqual" value="61370.0"/>
										<Node id="49" defaultChild="99">
											<SimplePredicate field="y5" operator="lessThan" value="19214.0"/>
											<Node id="99" score="-0.06974715">
												<SimplePredicate field="y1" operator="lessThan" value="50305.0"/>
											</Node>
											<Node id="100" score="0.005732273">
												<SimplePredicate field="y1" operator="greaterOrEqual" value="50305.0"/>
											</Node>
										</Node>
										<Node id="50" defaultChild="101">
											<SimplePredicate field="y5" operator="greaterOrEqual" value="19214.0"/>
											<Node id="101" score="0.007551595">
												<SimplePredicate field="y5" operator="lessThan" value="32810.5"/>
											</Node>
											<Node id="102" score="-0.028960746">
												<SimplePredicate field="y5" operator="greaterOrEqual" value="32810.5"/>
											</Node>
										</Node>
									</Node>
								</Node>
								<Node id="12" defaultChild="25">
									<SimplePredicate field="y1" operator="greaterOrEqual" value="50341.0"/>
									<Node id="25" defaultChild="51">
										<SimplePredicate field="e0" operator="lessThan" value="26484.5"/>
										<Node id="51" defaultChild="103">
											<SimplePredicate field="e0" operator="lessThan" value="25254.0"/>
											<Node id="103" score="-0.034830283">
												<SimplePredicate field="e5" operator="lessThan" value="6481.5"/>
											</Node>
											<Node id="104" score="-0.15966997">
												<SimplePredicate field="e5" operator="greaterOrEqual" value="6481.5"/>
											</Node>
										</Node>
										<Node id="52" defaultChild="105">
											<SimplePredicate field="e0" operator="greaterOrEqual" value="25254.0"/>
											<Node id="105" score="-0.08473893">
												<SimplePredicate field="e9" operator="lessThan" value="60528.0"/>
											</Node>
											<Node id="106" score="-0.11817234">
												<SimplePredicate field="e9" operator="greaterOrEqual" value="60528.0"/>
											</Node>
										</Node>
									</Node>
									<Node id="26" defaultChild="53">
										<SimplePredicate field="e0" operator="greaterOrEqual" value="26484.5"/>
										<Node id="53" defaultChild="107">
											<SimplePredicate field="e7" operator="lessThan" value="52789.0"/>
											<Node id="107" score="0.041204832">
												<SimplePredicate field="e9" operator="lessThan" value="24207.5"/>
											</Node>
											<Node id="108" score="-0.02115738">
												<SimplePredicate field="e9" operator="greaterOrEqual" value="24207.5"/>
											</Node>
										</Node>
										<Node id="54" defaultChild="109">
											<SimplePredicate field="e7" operator="greaterOrEqual" value="52789.0"/>
											<Node id="109" score="-0.06802875">
												<SimplePredicate field="e2" operator="lessThan" value="59880.0"/>
											</Node>
											<Node id="110" score="0.032398086">
												<SimplePredicate field="e2" operator="greaterOrEqual" value="59880.0"/>
											</Node>
										</Node>
									</Node>
								</Node>
							</Node>
							<Node id="6" defaultChild="13">
								<SimplePredicate field="y6" operator="greaterOrEqual" value="42801.0"/>
								<Node id="13" defaultChild="27">
									<SimplePredicate field="y7" operator="lessThan" value="52645.0"/>
									<Node id="27" defaultChild="55">
										<SimplePredicate field="e1" operator="lessThan" value="50071.0"/>
										<Node id="55" defaultChild="111">
											<SimplePredicate field="e2" operator="lessThan" value="18089.0"/>
											<Node id="111" score="0.03929333">
												<SimplePredicate field="e10" operator="lessThan" value="65273.0"/>
											</Node>
											<Node id="112" score="0.009843959">
												<SimplePredicate field="e10" operator="greaterOrEqual" value="65273.0"/>
											</Node>
										</Node>
										<Node id="56" defaultChild="113">
											<SimplePredicate field="e2" operator="greaterOrEqual" value="18089.0"/>
											<Node id="113" score="0.041901212">
												<SimplePredicate field="e1" operator="lessThan" value="50067.5"/>
											</Node>
											<Node id="114" score="0.05917329">
												<SimplePredicate field="e1" operator="greaterOrEqual" value="50067.5"/>
											</Node>
										</Node>
									</Node>
									<Node id="28" defaultChild="57">
										<SimplePredicate field="e1" operator="greaterOrEqual" value="50071.0"/>
										<Node id="57" defaultChild="115">
											<SimplePredicate field="e3" operator="lessThan" value="14133.0"/>
											<Node id="115" score="-0.0038300878">
												<SimplePredicate field="y0" operator="lessThan" value="25703.5"/>
											</Node>
											<Node id="116" score="0.023111243">
												<SimplePredicate field="y0" operator="greaterOrEqual" value="25703.5"/>
											</Node>
										</Node>
										<Node id="58" defaultChild="117">
											<SimplePredicate field="e3" operator="greaterOrEqual" value="14133.0"/>
											<Node id="117" score="0.049488977">
												<SimplePredicate field="e6" operator="lessThan" value="39255.0"/>
											</Node>
											<Node id="118" score="0.02935571">
												<SimplePredicate field="e6" operator="greaterOrEqual" value="39255.0"/>
											</Node>
										</Node>
									</Node>
								</Node>
								<Node id="14" defaultChild="29">
									<SimplePredicate field="y7" operator="greaterOrEqual" value="52645.0"/>
									<Node id="29" defaultChild="59">
										<SimplePredicate field="e9" operator="lessThan" value="44613.0"/>
										<Node id="59" defaultChild="119">
											<SimplePredicate field="y10" operator="lessThan" value="66170.0"/>
											<Node id="119" score="0.025740786">
												<SimplePredicate field="y8" operator="lessThan" value="64910.0"/>
											</Node>
											<Node id="120" score="0.007481228">
												<SimplePredicate field="y8" operator="greaterOrEqual" value="64910.0"/>
											</Node>
										</Node>
										<Node id="60" defaultChild="121">
											<SimplePredicate field="y10" operator="greaterOrEqual" value="66170.0"/>
											<Node id="121" score="0.04298561">
												<SimplePredicate field="y10" operator="lessThan" value="66434.0"/>
											</Node>
											<Node id="122" score="0.013509551">
												<SimplePredicate field="y10" operator="greaterOrEqual" value="66434.0"/>
											</Node>
										</Node>
									</Node>
									<Node id="30" defaultChild="61">
										<SimplePredicate field="e9" operator="greaterOrEqual" value="44613.0"/>
										<Node id="61" defaultChild="123">
											<SimplePredicate field="y6" operator="lessThan" value="64916.0"/>
											<Node id="123" score="0.0073321783">
												<SimplePredicate field="y7" operator="lessThan" value="64883.0"/>
											</Node>
											<Node id="124" score="-0.038233522">
												<SimplePredicate field="y7" operator="greaterOrEqual" value="64883.0"/>
											</Node>
										</Node>
										<Node id="62" defaultChild="125">
											<SimplePredicate field="y6" operator="greaterOrEqual" value="64916.0"/>
											<Node id="125" score="0.050556283">
												<SimplePredicate field="y5" operator="lessThan" value="65231.0"/>
											</Node>
											<Node id="126" score="-0.025573554">
												<SimplePredicate field="y5" operator="greaterOrEqual" value="65231.0"/>
											</Node>
										</Node>
									</Node>
								</Node>
							</Node>
						</Node>
					</Node>
				</TreeModel>
			</Segment>
			<Segment id="6">
				<True/>
				<TreeModel functionName="regression" missingValueStrategy="defaultChild" splitCharacteristic="binarySplit" x-mathContext="float">
					<MiningSchema>
						<MiningField name="e0"/>
						<MiningField name="e1"/>
						<MiningField name="e10"/>
						<MiningField name="e11"/>
						<MiningField name="e2"/>
						<MiningField name="e3"/>
						<MiningField name="e4"/>
						<MiningField name="e6"/>
						<MiningField name="e7"/>
						<MiningField name="e8"/>
						<MiningField name="y0"/>
						<MiningField name="y1"/>
						<MiningField name="y2"/>
						<MiningField name="y3"/>
						<MiningField name="y4"/>
						<MiningField name="y5"/>
						<MiningField name="y6"/>
						<MiningField name="y7"/>
						<MiningField name="y8"/>
						<MiningField name="y9"/>
					</MiningSchema>
					<Node id="0" defaultChild="1">
						<True/>
						<Node id="1" defaultChild="3">
							<SimplePredicate field="e10" operator="lessThan" value="66170.0"/>
							<Node id="3" defaultChild="7">
								<SimplePredicate field="e8" operator="lessThan" value="64910.0"/>
								<Node id="7" defaultChild="15">
									<SimplePredicate field="e8" operator="lessThan" value="9639.5"/>
